digraph Tree {
node [shape=box] ;
0 [label="Drama <= 0.5\ngini = 0.491\nsamples = 4587\nvalue = [1985, 2602]"] ;
1 [label="annee <= 1984.5\ngini = 0.489\nsamples = 2318\nvalue = [1330, 988]"] ;
0 -> 1 [labeldistance=2.5, labelangle=45, headlabel="True"] ;
2 [label="annee <= 1976.5\ngini = 0.328\nsamples = 319\nvalue = [66, 253]"] ;
1 -> 2 ;
3 [label="budget <= 95000.0\ngini = 0.169\nsamples = 183\nvalue = [17, 166]"] ;
2 -> 3 ;
4 [label="annee <= 1958.5\ngini = 0.497\nsamples = 13\nvalue = [6, 7]"] ;
3 -> 4 ;
5 [label="gini = 0.0\nsamples = 5\nvalue = [0, 5]"] ;
4 -> 5 ;
6 [label="Thriller <= 0.5\ngini = 0.375\nsamples = 8\nvalue = [6, 2]"] ;
4 -> 6 ;
7 [label="annee <= 1973.0\ngini = 0.245\nsamples = 7\nvalue = [6, 1]"] ;
6 -> 7 ;
8 [label="gini = 0.0\nsamples = 5\nvalue = [5, 0]"] ;
7 -> 8 ;
9 [label="Comedy <= 0.5\ngini = 0.5\nsamples = 2\nvalue = [1, 1]"] ;
7 -> 9 ;
10 [label="gini = 0.0\nsamples = 1\nvalue = [0, 1]"] ;
9 -> 10 ;
11 [label="gini = 0.0\nsamples = 1\nvalue = [1, 0]"] ;
9 -> 11 ;
12 [label="gini = 0.0\nsamples = 1\nvalue = [0, 1]"] ;
6 -> 12 ;
13 [label="Sci-Fi <= 0.5\ngini = 0.121\nsamples = 170\nvalue = [11, 159]"] ;
3 -> 13 ;
14 [label="budget <= 22000000.0\ngini = 0.054\nsamples = 145\nvalue = [4, 141]"] ;
13 -> 14 ;
15 [label="budget <= 11000000.0\ngini = 0.041\nsamples = 144\nvalue = [3, 141]"] ;
14 -> 15 ;
16 [label="annee <= 1965.5\ngini = 0.029\nsamples = 137\nvalue = [2, 135]"] ;
15 -> 16 ;
17 [label="gini = 0.0\nsamples = 77\nvalue = [0, 77]"] ;
16 -> 17 ;
18 [label="Family <= 0.5\ngini = 0.064\nsamples = 60\nvalue = [2, 58]"] ;
16 -> 18 ;
19 [label="Duree <= 124.0\ngini = 0.035\nsamples = 56\nvalue = [1, 55]"] ;
18 -> 19 ;
20 [label="gini = 0.0\nsamples = 45\nvalue = [0, 45]"] ;
19 -> 20 ;
21 [label="Duree <= 127.0\ngini = 0.165\nsamples = 11\nvalue = [1, 10]"] ;
19 -> 21 ;
22 [label="annee <= 1969.5\ngini = 0.5\nsamples = 2\nvalue = [1, 1]"] ;
21 -> 22 ;
23 [label="gini = 0.0\nsamples = 1\nvalue = [1, 0]"] ;
22 -> 23 ;
24 [label="gini = 0.0\nsamples = 1\nvalue = [0, 1]"] ;
22 -> 24 ;
25 [label="gini = 0.0\nsamples = 9\nvalue = [0, 9]"] ;
21 -> 25 ;
26 [label="annee <= 1967.0\ngini = 0.375\nsamples = 4\nvalue = [1, 3]"] ;
18 -> 26 ;
27 [label="gini = 0.0\nsamples = 1\nvalue = [1, 0]"] ;
26 -> 27 ;
28 [label="gini = 0.0\nsamples = 3\nvalue = [0, 3]"] ;
26 -> 28 ;
29 [label="budget <= 12500000.0\ngini = 0.245\nsamples = 7\nvalue = [1, 6]"] ;
15 -> 29 ;
30 [label="Family <= 0.5\ngini = 0.5\nsamples = 2\nvalue = [1, 1]"] ;
29 -> 30 ;
31 [label="gini = 0.0\nsamples = 1\nvalue = [1, 0]"] ;
30 -> 31 ;
32 [label="gini = 0.0\nsamples = 1\nvalue = [0, 1]"] ;
30 -> 32 ;
33 [label="gini = 0.0\nsamples = 5\nvalue = [0, 5]"] ;
29 -> 33 ;
34 [label="gini = 0.0\nsamples = 1\nvalue = [1, 0]"] ;
14 -> 34 ;
35 [label="Action <= 0.5\ngini = 0.403\nsamples = 25\nvalue = [7, 18]"] ;
13 -> 35 ;
36 [label="budget <= 265500.0\ngini = 0.208\nsamples = 17\nvalue = [2, 15]"] ;
35 -> 36 ;
37 [label="Thriller <= 0.5\ngini = 0.5\nsamples = 2\nvalue = [1, 1]"] ;
36 -> 37 ;
38 [label="gini = 0.0\nsamples = 1\nvalue = [0, 1]"] ;
37 -> 38 ;
39 [label="gini = 0.0\nsamples = 1\nvalue = [1, 0]"] ;
37 -> 39 ;
40 [label="Comedy <= 0.5\ngini = 0.124\nsamples = 15\nvalue = [1, 14]"] ;
36 -> 40 ;
41 [label="gini = 0.0\nsamples = 12\nvalue = [0, 12]"] ;
40 -> 41 ;
42 [label="Fantasy <= 0.5\ngini = 0.444\nsamples = 3\nvalue = [1, 2]"] ;
40 -> 42 ;
43 [label="gini = 0.0\nsamples = 2\nvalue = [0, 2]"] ;
42 -> 43 ;
44 [label="gini = 0.0\nsamples = 1\nvalue = [1, 0]"] ;
42 -> 44 ;
45 [label="annee <= 1963.0\ngini = 0.469\nsamples = 8\nvalue = [5, 3]"] ;
35 -> 45 ;
46 [label="gini = 0.0\nsamples = 2\nvalue = [0, 2]"] ;
45 -> 46 ;
47 [label="annee <= 1975.5\ngini = 0.278\nsamples = 6\nvalue = [5, 1]"] ;
45 -> 47 ;
48 [label="gini = 0.0\nsamples = 5\nvalue = [5, 0]"] ;
47 -> 48 ;
49 [label="gini = 0.0\nsamples = 1\nvalue = [0, 1]"] ;
47 -> 49 ;
50 [label="budget <= 33250000.0\ngini = 0.461\nsamples = 136\nvalue = [49, 87]"] ;
2 -> 50 ;
51 [label="Horror <= 0.5\ngini = 0.443\nsamples = 127\nvalue = [42, 85]"] ;
50 -> 51 ;
52 [label="Sci-Fi <= 0.5\ngini = 0.362\nsamples = 80\nvalue = [19, 61]"] ;
51 -> 52 ;
53 [label="Fantasy <= 0.5\ngini = 0.419\nsamples = 57\nvalue = [17, 40]"] ;
52 -> 53 ;
54 [label="budget <= 1390000.0\ngini = 0.351\nsamples = 44\nvalue = [10, 34]"] ;
53 -> 54 ;
55 [label="gini = 0.0\nsamples = 2\nvalue = [2, 0]"] ;
54 -> 55 ;
56 [label="Action <= 0.5\ngini = 0.308\nsamples = 42\nvalue = [8, 34]"] ;
54 -> 56 ;
57 [label="War <= 0.5\ngini = 0.191\nsamples = 28\nvalue = [3, 25]"] ;
56 -> 57 ;
58 [label="budget <= 13500000.0\ngini = 0.142\nsamples = 26\nvalue = [2, 24]"] ;
57 -> 58 ;
59 [label="budget <= 4250000.0\ngini = 0.083\nsamples = 23\nvalue = [1, 22]"] ;
58 -> 59 ;
60 [label="annee <= 1980.5\ngini = 0.18\nsamples = 10\nvalue = [1, 9]"] ;
59 -> 60 ;
61 [label="gini = 0.0\nsamples = 5\nvalue = [0, 5]"] ;
60 -> 61 ;
62 [label="annee <= 1982.0\ngini = 0.32\nsamples = 5\nvalue = [1, 4]"] ;
60 -> 62 ;
63 [label="gini = 0.0\nsamples = 1\nvalue = [1, 0]"] ;
62 -> 63 ;
64 [label="gini = 0.0\nsamples = 4\nvalue = [0, 4]"] ;
62 -> 64 ;
65 [label="gini = 0.0\nsamples = 13\nvalue = [0, 13]"] ;
59 -> 65 ;
66 [label="Duree <= 91.5\ngini = 0.444\nsamples = 3\nvalue = [1, 2]"] ;
58 -> 66 ;
67 [label="gini = 0.0\nsamples = 1\nvalue = [1, 0]"] ;
66 -> 67 ;
68 [label="gini = 0.0\nsamples = 2\nvalue = [0, 2]"] ;
66 -> 68 ;
69 [label="Duree <= 113.0\ngini = 0.5\nsamples = 2\nvalue = [1, 1]"] ;
57 -> 69 ;
70 [label="gini = 0.0\nsamples = 1\nvalue = [1, 0]"] ;
69 -> 70 ;
71 [label="gini = 0.0\nsamples = 1\nvalue = [0, 1]"] ;
69 -> 71 ;
72 [label="Duree <= 102.0\ngini = 0.459\nsamples = 14\nvalue = [5, 9]"] ;
56 -> 72 ;
73 [label="annee <= 1981.5\ngini = 0.32\nsamples = 5\nvalue = [4, 1]"] ;
72 -> 73 ;
74 [label="gini = 0.0\nsamples = 3\nvalue = [3, 0]"] ;
73 -> 74 ;
75 [label="Crime <= 0.5\ngini = 0.5\nsamples = 2\nvalue = [1, 1]"] ;
73 -> 75 ;
76 [label="gini = 0.0\nsamples = 1\nvalue = [0, 1]"] ;
75 -> 76 ;
77 [label="gini = 0.0\nsamples = 1\nvalue = [1, 0]"] ;
75 -> 77 ;
78 [label="annee <= 1979.0\ngini = 0.198\nsamples = 9\nvalue = [1, 8]"] ;
72 -> 78 ;
79 [label="annee <= 1977.5\ngini = 0.5\nsamples = 2\nvalue = [1, 1]"] ;
78 -> 79 ;
80 [label="gini = 0.0\nsamples = 1\nvalue = [0, 1]"] ;
79 -> 80 ;
81 [label="gini = 0.0\nsamples = 1\nvalue = [1, 0]"] ;
79 -> 81 ;
82 [label="gini = 0.0\nsamples = 7\nvalue = [0, 7]"] ;
78 -> 82 ;
83 [label="Musical <= 0.5\ngini = 0.497\nsamples = 13\nvalue = [7, 6]"] ;
53 -> 83 ;
84 [label="annee <= 1982.5\ngini = 0.48\nsamples = 10\nvalue = [4, 6]"] ;
83 -> 84 ;
85 [label="Duree <= 130.5\ngini = 0.278\nsamples = 6\nvalue = [1, 5]"] ;
84 -> 85 ;
86 [label="gini = 0.0\nsamples = 5\nvalue = [0, 5]"] ;
85 -> 86 ;
87 [label="gini = 0.0\nsamples = 1\nvalue = [1, 0]"] ;
85 -> 87 ;
88 [label="budget <= 29500000.0\ngini = 0.375\nsamples = 4\nvalue = [3, 1]"] ;
84 -> 88 ;
89 [label="gini = 0.0\nsamples = 3\nvalue = [3, 0]"] ;
88 -> 89 ;
90 [label="gini = 0.0\nsamples = 1\nvalue = [0, 1]"] ;
88 -> 90 ;
91 [label="gini = 0.0\nsamples = 3\nvalue = [3, 0]"] ;
83 -> 91 ;
92 [label="budget <= 19000000.0\ngini = 0.159\nsamples = 23\nvalue = [2, 21]"] ;
52 -> 92 ;
93 [label="gini = 0.0\nsamples = 17\nvalue = [0, 17]"] ;
92 -> 93 ;
94 [label="budget <= 24500000.0\ngini = 0.444\nsamples = 6\nvalue = [2, 4]"] ;
92 -> 94 ;
95 [label="gini = 0.0\nsamples = 2\nvalue = [2, 0]"] ;
94 -> 95 ;
96 [label="gini = 0.0\nsamples = 4\nvalue = [0, 4]"] ;
94 -> 96 ;
97 [label="Thriller <= 0.5\ngini = 0.5\nsamples = 47\nvalue = [23, 24]"] ;
51 -> 97 ;
98 [label="Duree <= 108.0\ngini = 0.482\nsamples = 37\nvalue = [15, 22]"] ;
97 -> 98 ;
99 [label="budget <= 900000.0\ngini = 0.5\nsamples = 30\nvalue = [15, 15]"] ;
98 -> 99 ;
100 [label="budget <= 437500.0\ngini = 0.444\nsamples = 15\nvalue = [10, 5]"] ;
99 -> 100 ;
101 [label="Duree <= 87.0\ngini = 0.494\nsamples = 9\nvalue = [4, 5]"] ;
100 -> 101 ;
102 [label="budget <= 375000.0\ngini = 0.32\nsamples = 5\nvalue = [4, 1]"] ;
101 -> 102 ;
103 [label="gini = 0.0\nsamples = 4\nvalue = [4, 0]"] ;
102 -> 103 ;
104 [label="gini = 0.0\nsamples = 1\nvalue = [0, 1]"] ;
102 -> 104 ;
105 [label="gini = 0.0\nsamples = 4\nvalue = [0, 4]"] ;
101 -> 105 ;
106 [label="gini = 0.0\nsamples = 6\nvalue = [6, 0]"] ;
100 -> 106 ;
107 [label="budget <= 2250000.0\ngini = 0.444\nsamples = 15\nvalue = [5, 10]"] ;
99 -> 107 ;
108 [label="gini = 0.0\nsamples = 5\nvalue = [0, 5]"] ;
107 -> 108 ;
109 [label="budget <= 2890000.0\ngini = 0.5\nsamples = 10\nvalue = [5, 5]"] ;
107 -> 109 ;
110 [label="gini = 0.0\nsamples = 2\nvalue = [2, 0]"] ;
109 -> 110 ;
111 [label="budget <= 6440000.0\ngini = 0.469\nsamples = 8\nvalue = [3, 5]"] ;
109 -> 111 ;
112 [label="gini = 0.0\nsamples = 3\nvalue = [0, 3]"] ;
111 -> 112 ;
113 [label="Comedy <= 0.5\ngini = 0.48\nsamples = 5\nvalue = [3, 2]"] ;
111 -> 113 ;
114 [label="gini = 0.0\nsamples = 3\nvalue = [3, 0]"] ;
113 -> 114 ;
115 [label="gini = 0.0\nsamples = 2\nvalue = [0, 2]"] ;
113 -> 115 ;
116 [label="gini = 0.0\nsamples = 7\nvalue = [0, 7]"] ;
98 -> 116 ;
117 [label="budget <= 775000.0\ngini = 0.32\nsamples = 10\nvalue = [8, 2]"] ;
97 -> 117 ;
118 [label="gini = 0.0\nsamples = 1\nvalue = [0, 1]"] ;
117 -> 118 ;
119 [label="Sci-Fi <= 0.5\ngini = 0.198\nsamples = 9\nvalue = [8, 1]"] ;
117 -> 119 ;
120 [label="gini = 0.0\nsamples = 7\nvalue = [7, 0]"] ;
119 -> 120 ;
121 [label="annee <= 1983.5\ngini = 0.5\nsamples = 2\nvalue = [1, 1]"] ;
119 -> 121 ;
122 [label="gini = 0.0\nsamples = 1\nvalue = [0, 1]"] ;
121 -> 122 ;
123 [label="gini = 0.0\nsamples = 1\nvalue = [1, 0]"] ;
121 -> 123 ;
124 [label="budget <= 39500000.0\ngini = 0.346\nsamples = 9\nvalue = [7, 2]"] ;
50 -> 124 ;
125 [label="gini = 0.0\nsamples = 7\nvalue = [7, 0]"] ;
124 -> 125 ;
126 [label="gini = 0.0\nsamples = 2\nvalue = [0, 2]"] ;
124 -> 126 ;
127 [label="Duree <= 110.5\ngini = 0.465\nsamples = 1999\nvalue = [1264, 735]"] ;
1 -> 127 ;
128 [label="Animation <= 0.5\ngini = 0.418\nsamples = 1487\nvalue = [1045, 442]"] ;
127 -> 128 ;
129 [label="budget <= 6160000.0\ngini = 0.384\nsamples = 1335\nvalue = [989, 346]"] ;
128 -> 129 ;
130 [label="Horror <= 0.5\ngini = 0.494\nsamples = 222\nvalue = [123, 99]"] ;
129 -> 130 ;
131 [label="annee <= 2003.5\ngini = 0.478\nsamples = 104\nvalue = [41, 63]"] ;
130 -> 131 ;
132 [label="Sport <= 0.5\ngini = 0.343\nsamples = 41\nvalue = [9, 32]"] ;
131 -> 132 ;
133 [label="Duree <= 86.5\ngini = 0.32\nsamples = 40\nvalue = [8, 32]"] ;
132 -> 133 ;
134 [label="Action <= 0.5\ngini = 0.48\nsamples = 5\nvalue = [2, 3]"] ;
133 -> 134 ;
135 [label="gini = 0.0\nsamples = 3\nvalue = [0, 3]"] ;
134 -> 135 ;
136 [label="gini = 0.0\nsamples = 2\nvalue = [2, 0]"] ;
134 -> 136 ;
137 [label="Comedy <= 0.5\ngini = 0.284\nsamples = 35\nvalue = [6, 29]"] ;
133 -> 137 ;
138 [label="gini = 0.0\nsamples = 7\nvalue = [0, 7]"] ;
137 -> 138 ;
139 [label="budget <= 3433000.0\ngini = 0.337\nsamples = 28\nvalue = [6, 22]"] ;
137 -> 139 ;
140 [label="budget <= 450000.0\ngini = 0.231\nsamples = 15\nvalue = [2, 13]"] ;
139 -> 140 ;
141 [label="Duree <= 100.5\ngini = 0.5\nsamples = 2\nvalue = [1, 1]"] ;
140 -> 141 ;
142 [label="gini = 0.0\nsamples = 1\nvalue = [1, 0]"] ;
141 -> 142 ;
143 [label="gini = 0.0\nsamples = 1\nvalue = [0, 1]"] ;
141 -> 143 ;
144 [label="budget <= 1100000.0\ngini = 0.142\nsamples = 13\nvalue = [1, 12]"] ;
140 -> 144 ;
145 [label="annee <= 1995.5\ngini = 0.32\nsamples = 5\nvalue = [1, 4]"] ;
144 -> 145 ;
146 [label="gini = 0.0\nsamples = 3\nvalue = [0, 3]"] ;
145 -> 146 ;
147 [label="Mystery <= 0.5\ngini = 0.5\nsamples = 2\nvalue = [1, 1]"] ;
145 -> 147 ;
148 [label="gini = 0.0\nsamples = 1\nvalue = [1, 0]"] ;
147 -> 148 ;
149 [label="gini = 0.0\nsamples = 1\nvalue = [0, 1]"] ;
147 -> 149 ;
150 [label="gini = 0.0\nsamples = 8\nvalue = [0, 8]"] ;
144 -> 150 ;
151 [label="Thriller <= 0.5\ngini = 0.426\nsamples = 13\nvalue = [4, 9]"] ;
139 -> 151 ;
152 [label="Romance <= 0.5\ngini = 0.375\nsamples = 12\nvalue = [3, 9]"] ;
151 -> 152 ;
153 [label="Duree <= 104.0\ngini = 0.219\nsamples = 8\nvalue = [1, 7]"] ;
152 -> 153 ;
154 [label="gini = 0.0\nsamples = 6\nvalue = [0, 6]"] ;
153 -> 154 ;
155 [label="budget <= 4500000.0\ngini = 0.5\nsamples = 2\nvalue = [1, 1]"] ;
153 -> 155 ;
156 [label="gini = 0.0\nsamples = 1\nvalue = [0, 1]"] ;
155 -> 156 ;
157 [label="gini = 0.0\nsamples = 1\nvalue = [1, 0]"] ;
155 -> 157 ;
158 [label="Duree <= 94.5\ngini = 0.5\nsamples = 4\nvalue = [2, 2]"] ;
152 -> 158 ;
159 [label="gini = 0.0\nsamples = 2\nvalue = [2, 0]"] ;
158 -> 159 ;
160 [label="gini = 0.0\nsamples = 2\nvalue = [0, 2]"] ;
158 -> 160 ;
161 [label="gini = 0.0\nsamples = 1\nvalue = [1, 0]"] ;
151 -> 161 ;
162 [label="gini = 0.0\nsamples = 1\nvalue = [1, 0]"] ;
132 -> 162 ;
163 [label="budget <= 2950000.0\ngini = 0.5\nsamples = 63\nvalue = [32, 31]"] ;
131 -> 163 ;
164 [label="Crime <= 0.5\ngini = 0.436\nsamples = 28\nvalue = [9, 19]"] ;
163 -> 164 ;
165 [label="Documentary <= 0.5\ngini = 0.476\nsamples = 23\nvalue = [9, 14]"] ;
164 -> 165 ;
166 [label="Duree <= 105.0\ngini = 0.498\nsamples = 15\nvalue = [8, 7]"] ;
165 -> 166 ;
167 [label="Action <= 0.5\ngini = 0.444\nsamples = 12\nvalue = [8, 4]"] ;
166 -> 167 ;
168 [label="budget <= 450000.0\ngini = 0.245\nsamples = 7\nvalue = [6, 1]"] ;
167 -> 168 ;
169 [label="gini = 0.0\nsamples = 1\nvalue = [0, 1]"] ;
168 -> 169 ;
170 [label="gini = 0.0\nsamples = 6\nvalue = [6, 0]"] ;
168 -> 170 ;
171 [label="budget <= 1397500.0\ngini = 0.48\nsamples = 5\nvalue = [2, 3]"] ;
167 -> 171 ;
172 [label="gini = 0.0\nsamples = 2\nvalue = [0, 2]"] ;
171 -> 172 ;
173 [label="annee <= 2009.5\ngini = 0.444\nsamples = 3\nvalue = [2, 1]"] ;
171 -> 173 ;
174 [label="gini = 0.0\nsamples = 1\nvalue = [0, 1]"] ;
173 -> 174 ;
175 [label="gini = 0.0\nsamples = 2\nvalue = [2, 0]"] ;
173 -> 175 ;
176 [label="gini = 0.0\nsamples = 3\nvalue = [0, 3]"] ;
166 -> 176 ;
177 [label="annee <= 2007.5\ngini = 0.219\nsamples = 8\nvalue = [1, 7]"] ;
165 -> 177 ;
178 [label="annee <= 2006.5\ngini = 0.5\nsamples = 2\nvalue = [1, 1]"] ;
177 -> 178 ;
179 [label="gini = 0.0\nsamples = 1\nvalue = [0, 1]"] ;
178 -> 179 ;
180 [label="gini = 0.0\nsamples = 1\nvalue = [1, 0]"] ;
178 -> 180 ;
181 [label="gini = 0.0\nsamples = 6\nvalue = [0, 6]"] ;
177 -> 181 ;
182 [label="gini = 0.0\nsamples = 5\nvalue = [0, 5]"] ;
164 -> 182 ;
183 [label="Duree <= 93.5\ngini = 0.451\nsamples = 35\nvalue = [23, 12]"] ;
163 -> 183 ;
184 [label="Sci-Fi <= 0.5\ngini = 0.124\nsamples = 15\nvalue = [14, 1]"] ;
183 -> 184 ;
185 [label="gini = 0.0\nsamples = 13\nvalue = [13, 0]"] ;
184 -> 185 ;
186 [label="budget <= 4750000.0\ngini = 0.5\nsamples = 2\nvalue = [1, 1]"] ;
184 -> 186 ;
187 [label="gini = 0.0\nsamples = 1\nvalue = [1, 0]"] ;
186 -> 187 ;
188 [label="gini = 0.0\nsamples = 1\nvalue = [0, 1]"] ;
186 -> 188 ;
189 [label="Action <= 0.5\ngini = 0.495\nsamples = 20\nvalue = [9, 11]"] ;
183 -> 189 ;
190 [label="Sci-Fi <= 0.5\ngini = 0.391\nsamples = 15\nvalue = [4, 11]"] ;
189 -> 190 ;
191 [label="annee <= 2009.5\ngini = 0.26\nsamples = 13\nvalue = [2, 11]"] ;
190 -> 191 ;
192 [label="annee <= 2006.5\ngini = 0.48\nsamples = 5\nvalue = [2, 3]"] ;
191 -> 192 ;
193 [label="gini = 0.0\nsamples = 3\nvalue = [0, 3]"] ;
192 -> 193 ;
194 [label="gini = 0.0\nsamples = 2\nvalue = [2, 0]"] ;
192 -> 194 ;
195 [label="gini = 0.0\nsamples = 8\nvalue = [0, 8]"] ;
191 -> 195 ;
196 [label="gini = 0.0\nsamples = 2\nvalue = [2, 0]"] ;
190 -> 196 ;
197 [label="gini = 0.0\nsamples = 5\nvalue = [5, 0]"] ;
189 -> 197 ;
198 [label="annee <= 2008.5\ngini = 0.424\nsamples = 118\nvalue = [82, 36]"] ;
130 -> 198 ;
199 [label="Thriller <= 0.5\ngini = 0.486\nsamples = 72\nvalue = [42, 30]"] ;
198 -> 199 ;
200 [label="Duree <= 101.5\ngini = 0.5\nsamples = 49\nvalue = [24, 25]"] ;
199 -> 200 ;
201 [label="annee <= 1987.5\ngini = 0.485\nsamples = 41\nvalue = [24, 17]"] ;
200 -> 201 ;
202 [label="Duree <= 88.5\ngini = 0.444\nsamples = 12\nvalue = [4, 8]"] ;
201 -> 202 ;
203 [label="Duree <= 86.5\ngini = 0.219\nsamples = 8\nvalue = [1, 7]"] ;
202 -> 203 ;
204 [label="gini = 0.0\nsamples = 5\nvalue = [0, 5]"] ;
203 -> 204 ;
205 [label="Duree <= 87.5\ngini = 0.444\nsamples = 3\nvalue = [1, 2]"] ;
203 -> 205 ;
206 [label="budget <= 2850000.0\ngini = 0.5\nsamples = 2\nvalue = [1, 1]"] ;
205 -> 206 ;
207 [label="gini = 0.0\nsamples = 1\nvalue = [1, 0]"] ;
206 -> 207 ;
208 [label="gini = 0.0\nsamples = 1\nvalue = [0, 1]"] ;
206 -> 208 ;
209 [label="gini = 0.0\nsamples = 1\nvalue = [0, 1]"] ;
205 -> 209 ;
210 [label="annee <= 1986.5\ngini = 0.375\nsamples = 4\nvalue = [3, 1]"] ;
202 -> 210 ;
211 [label="gini = 0.0\nsamples = 3\nvalue = [3, 0]"] ;
210 -> 211 ;
212 [label="gini = 0.0\nsamples = 1\nvalue = [0, 1]"] ;
210 -> 212 ;
213 [label="budget <= 5177500.0\ngini = 0.428\nsamples = 29\nvalue = [20, 9]"] ;
201 -> 213 ;
214 [label="budget <= 1100000.0\ngini = 0.384\nsamples = 27\nvalue = [20, 7]"] ;
213 -> 214 ;
215 [label="gini = 0.0\nsamples = 7\nvalue = [7, 0]"] ;
214 -> 215 ;
216 [label="budget <= 4400000.0\ngini = 0.455\nsamples = 20\nvalue = [13, 7]"] ;
214 -> 216 ;
217 [label="Duree <= 88.5\ngini = 0.492\nsamples = 16\nvalue = [9, 7]"] ;
216 -> 217 ;
218 [label="gini = 0.0\nsamples = 4\nvalue = [4, 0]"] ;
217 -> 218 ;
219 [label="budget <= 2243000.0\ngini = 0.486\nsamples = 12\nvalue = [5, 7]"] ;
217 -> 219 ;
220 [label="Comedy <= 0.5\ngini = 0.469\nsamples = 8\nvalue = [5, 3]"] ;
219 -> 220 ;
221 [label="Duree <= 94.5\ngini = 0.48\nsamples = 5\nvalue = [2, 3]"] ;
220 -> 221 ;
222 [label="gini = 0.0\nsamples = 2\nvalue = [0, 2]"] ;
221 -> 222 ;
223 [label="budget <= 1350000.0\ngini = 0.444\nsamples = 3\nvalue = [2, 1]"] ;
221 -> 223 ;
224 [label="gini = 0.0\nsamples = 1\nvalue = [0, 1]"] ;
223 -> 224 ;
225 [label="gini = 0.0\nsamples = 2\nvalue = [2, 0]"] ;
223 -> 225 ;
226 [label="gini = 0.0\nsamples = 3\nvalue = [3, 0]"] ;
220 -> 226 ;
227 [label="gini = 0.0\nsamples = 4\nvalue = [0, 4]"] ;
219 -> 227 ;
228 [label="gini = 0.0\nsamples = 4\nvalue = [4, 0]"] ;
216 -> 228 ;
229 [label="gini = 0.0\nsamples = 2\nvalue = [0, 2]"] ;
213 -> 229 ;
230 [label="gini = 0.0\nsamples = 8\nvalue = [0, 8]"] ;
200 -> 230 ;
231 [label="annee <= 2006.5\ngini = 0.34\nsamples = 23\nvalue = [18, 5]"] ;
199 -> 231 ;
232 [label="Crime <= 0.5\ngini = 0.198\nsamples = 18\nvalue = [16, 2]"] ;
231 -> 232 ;
233 [label="Duree <= 86.5\ngini = 0.111\nsamples = 17\nvalue = [16, 1]"] ;
232 -> 233 ;
234 [label="budget <= 3850000.0\ngini = 0.32\nsamples = 5\nvalue = [4, 1]"] ;
233 -> 234 ;
235 [label="gini = 0.0\nsamples = 4\nvalue = [4, 0]"] ;
234 -> 235 ;
236 [label="gini = 0.0\nsamples = 1\nvalue = [0, 1]"] ;
234 -> 236 ;
237 [label="gini = 0.0\nsamples = 12\nvalue = [12, 0]"] ;
233 -> 237 ;
238 [label="gini = 0.0\nsamples = 1\nvalue = [0, 1]"] ;
232 -> 238 ;
239 [label="Duree <= 97.5\ngini = 0.48\nsamples = 5\nvalue = [2, 3]"] ;
231 -> 239 ;
240 [label="gini = 0.0\nsamples = 3\nvalue = [0, 3]"] ;
239 -> 240 ;
241 [label="gini = 0.0\nsamples = 2\nvalue = [2, 0]"] ;
239 -> 241 ;
242 [label="Duree <= 105.5\ngini = 0.227\nsamples = 46\nvalue = [40, 6]"] ;
198 -> 242 ;
243 [label="Adventure <= 0.5\ngini = 0.169\nsamples = 43\nvalue = [39, 4]"] ;
242 -> 243 ;
244 [label="Action <= 0.5\ngini = 0.133\nsamples = 42\nvalue = [39, 3]"] ;
243 -> 244 ;
245 [label="budget <= 5300000.0\ngini = 0.095\nsamples = 40\nvalue = [38, 2]"] ;
244 -> 245 ;
246 [label="Mystery <= 0.5\ngini = 0.054\nsamples = 36\nvalue = [35, 1]"] ;
245 -> 246 ;
247 [label="gini = 0.0\nsamples = 30\nvalue = [30, 0]"] ;
246 -> 247 ;
248 [label="Duree <= 96.0\ngini = 0.278\nsamples = 6\nvalue = [5, 1]"] ;
246 -> 248 ;
249 [label="gini = 0.0\nsamples = 5\nvalue = [5, 0]"] ;
248 -> 249 ;
250 [label="gini = 0.0\nsamples = 1\nvalue = [0, 1]"] ;
248 -> 250 ;
251 [label="Duree <= 87.0\ngini = 0.375\nsamples = 4\nvalue = [3, 1]"] ;
245 -> 251 ;
252 [label="gini = 0.0\nsamples = 1\nvalue = [0, 1]"] ;
251 -> 252 ;
253 [label="gini = 0.0\nsamples = 3\nvalue = [3, 0]"] ;
251 -> 253 ;
254 [label="annee <= 2012.5\ngini = 0.5\nsamples = 2\nvalue = [1, 1]"] ;
244 -> 254 ;
255 [label="gini = 0.0\nsamples = 1\nvalue = [1, 0]"] ;
254 -> 255 ;
256 [label="gini = 0.0\nsamples = 1\nvalue = [0, 1]"] ;
254 -> 256 ;
257 [label="gini = 0.0\nsamples = 1\nvalue = [0, 1]"] ;
243 -> 257 ;
258 [label="annee <= 2011.5\ngini = 0.444\nsamples = 3\nvalue = [1, 2]"] ;
242 -> 258 ;
259 [label="gini = 0.0\nsamples = 1\nvalue = [1, 0]"] ;
258 -> 259 ;
260 [label="gini = 0.0\nsamples = 2\nvalue = [0, 2]"] ;
258 -> 260 ;
261 [label="annee <= 1991.5\ngini = 0.345\nsamples = 1113\nvalue = [866, 247]"] ;
129 -> 261 ;
262 [label="budget <= 27400000.0\ngini = 0.478\nsamples = 124\nvalue = [75, 49]"] ;
261 -> 262 ;
263 [label="budget <= 8750000.0\ngini = 0.494\nsamples = 99\nvalue = [55, 44]"] ;
262 -> 263 ;
264 [label="Duree <= 107.0\ngini = 0.32\nsamples = 15\nvalue = [12, 3]"] ;
263 -> 264 ;
265 [label="Romance <= 0.5\ngini = 0.142\nsamples = 13\nvalue = [12, 1]"] ;
264 -> 265 ;
266 [label="gini = 0.0\nsamples = 11\nvalue = [11, 0]"] ;
265 -> 266 ;
267 [label="annee <= 1987.0\ngini = 0.5\nsamples = 2\nvalue = [1, 1]"] ;
265 -> 267 ;
268 [label="gini = 0.0\nsamples = 1\nvalue = [0, 1]"] ;
267 -> 268 ;
269 [label="gini = 0.0\nsamples = 1\nvalue = [1, 0]"] ;
267 -> 269 ;
270 [label="gini = 0.0\nsamples = 2\nvalue = [0, 2]"] ;
264 -> 270 ;
271 [label="budget <= 25500000.0\ngini = 0.5\nsamples = 84\nvalue = [43, 41]"] ;
263 -> 271 ;
272 [label="budget <= 16950000.0\ngini = 0.498\nsamples = 81\nvalue = [43, 38]"] ;
271 -> 272 ;
273 [label="Adventure <= 0.5\ngini = 0.494\nsamples = 47\nvalue = [21, 26]"] ;
272 -> 273 ;
274 [label="Duree <= 101.0\ngini = 0.5\nsamples = 37\nvalue = [19, 18]"] ;
273 -> 274 ;
275 [label="budget <= 10750000.0\ngini = 0.473\nsamples = 26\nvalue = [16, 10]"] ;
274 -> 275 ;
276 [label="gini = 0.0\nsamples = 7\nvalue = [7, 0]"] ;
275 -> 276 ;
277 [label="Comedy <= 0.5\ngini = 0.499\nsamples = 19\nvalue = [9, 10]"] ;
275 -> 277 ;
278 [label="annee <= 1987.5\ngini = 0.32\nsamples = 5\nvalue = [4, 1]"] ;
277 -> 278 ;
279 [label="gini = 0.0\nsamples = 1\nvalue = [0, 1]"] ;
278 -> 279 ;
280 [label="gini = 0.0\nsamples = 4\nvalue = [4, 0]"] ;
278 -> 280 ;
281 [label="Fantasy <= 0.5\ngini = 0.459\nsamples = 14\nvalue = [5, 9]"] ;
277 -> 281 ;
282 [label="Romance <= 0.5\ngini = 0.496\nsamples = 11\nvalue = [5, 6]"] ;
281 -> 282 ;
283 [label="Family <= 0.5\ngini = 0.444\nsamples = 9\nvalue = [3, 6]"] ;
282 -> 283 ;
284 [label="Thriller <= 0.5\ngini = 0.375\nsamples = 8\nvalue = [2, 6]"] ;
283 -> 284 ;
285 [label="gini = 0.0\nsamples = 5\nvalue = [0, 5]"] ;
284 -> 285 ;
286 [label="Mystery <= 0.5\ngini = 0.444\nsamples = 3\nvalue = [2, 1]"] ;
284 -> 286 ;
287 [label="gini = 0.0\nsamples = 2\nvalue = [2, 0]"] ;
286 -> 287 ;
288 [label="gini = 0.0\nsamples = 1\nvalue = [0, 1]"] ;
286 -> 288 ;
289 [label="gini = 0.0\nsamples = 1\nvalue = [1, 0]"] ;
283 -> 289 ;
290 [label="gini = 0.0\nsamples = 2\nvalue = [2, 0]"] ;
282 -> 290 ;
291 [label="gini = 0.0\nsamples = 3\nvalue = [0, 3]"] ;
281 -> 291 ;
292 [label="budget <= 13000000.0\ngini = 0.397\nsamples = 11\nvalue = [3, 8]"] ;
274 -> 292 ;
293 [label="gini = 0.0\nsamples = 5\nvalue = [0, 5]"] ;
292 -> 293 ;
294 [label="Sci-Fi <= 0.5\ngini = 0.5\nsamples = 6\nvalue = [3, 3]"] ;
292 -> 294 ;
295 [label="Family <= 0.5\ngini = 0.375\nsamples = 4\nvalue = [3, 1]"] ;
294 -> 295 ;
296 [label="gini = 0.0\nsamples = 3\nvalue = [3, 0]"] ;
295 -> 296 ;
297 [label="gini = 0.0\nsamples = 1\nvalue = [0, 1]"] ;
295 -> 297 ;
298 [label="gini = 0.0\nsamples = 2\nvalue = [0, 2]"] ;
294 -> 298 ;
299 [label="Duree <= 102.5\ngini = 0.32\nsamples = 10\nvalue = [2, 8]"] ;
273 -> 299 ;
300 [label="gini = 0.0\nsamples = 7\nvalue = [0, 7]"] ;
299 -> 300 ;
301 [label="Fantasy <= 0.5\ngini = 0.444\nsamples = 3\nvalue = [2, 1]"] ;
299 -> 301 ;
302 [label="gini = 0.0\nsamples = 2\nvalue = [2, 0]"] ;
301 -> 302 ;
303 [label="gini = 0.0\nsamples = 1\nvalue = [0, 1]"] ;
301 -> 303 ;
304 [label="Musical <= 0.5\ngini = 0.457\nsamples = 34\nvalue = [22, 12]"] ;
272 -> 304 ;
305 [label="Duree <= 106.5\ngini = 0.43\nsamples = 32\nvalue = [22, 10]"] ;
304 -> 305 ;
306 [label="Duree <= 86.5\ngini = 0.355\nsamples = 26\nvalue = [20, 6]"] ;
305 -> 306 ;
307 [label="gini = 0.0\nsamples = 1\nvalue = [0, 1]"] ;
306 -> 307 ;
308 [label="Comedy <= 0.5\ngini = 0.32\nsamples = 25\nvalue = [20, 5]"] ;
306 -> 308 ;
309 [label="gini = 0.0\nsamples = 7\nvalue = [7, 0]"] ;
308 -> 309 ;
310 [label="Thriller <= 0.5\ngini = 0.401\nsamples = 18\nvalue = [13, 5]"] ;
308 -> 310 ;
311 [label="Duree <= 100.5\ngini = 0.36\nsamples = 17\nvalue = [13, 4]"] ;
310 -> 311 ;
312 [label="annee <= 1988.5\ngini = 0.48\nsamples = 10\nvalue = [6, 4]"] ;
311 -> 312 ;
313 [label="Mystery <= 0.5\ngini = 0.49\nsamples = 7\nvalue = [3, 4]"] ;
312 -> 313 ;
314 [label="budget <= 21350000.0\ngini = 0.444\nsamples = 6\nvalue = [2, 4]"] ;
313 -> 314 ;
315 [label="Duree <= 94.5\ngini = 0.444\nsamples = 3\nvalue = [2, 1]"] ;
314 -> 315 ;
316 [label="gini = 0.0\nsamples = 1\nvalue = [0, 1]"] ;
315 -> 316 ;
317 [label="gini = 0.0\nsamples = 2\nvalue = [2, 0]"] ;
315 -> 317 ;
318 [label="gini = 0.0\nsamples = 3\nvalue = [0, 3]"] ;
314 -> 318 ;
319 [label="gini = 0.0\nsamples = 1\nvalue = [1, 0]"] ;
313 -> 319 ;
320 [label="gini = 0.0\nsamples = 3\nvalue = [3, 0]"] ;
312 -> 320 ;
321 [label="gini = 0.0\nsamples = 7\nvalue = [7, 0]"] ;
311 -> 321 ;
322 [label="gini = 0.0\nsamples = 1\nvalue = [0, 1]"] ;
310 -> 322 ;
323 [label="annee <= 1985.5\ngini = 0.444\nsamples = 6\nvalue = [2, 4]"] ;
305 -> 323 ;
324 [label="gini = 0.0\nsamples = 3\nvalue = [0, 3]"] ;
323 -> 324 ;
325 [label="Thriller <= 0.5\ngini = 0.444\nsamples = 3\nvalue = [2, 1]"] ;
323 -> 325 ;
326 [label="gini = 0.0\nsamples = 2\nvalue = [2, 0]"] ;
325 -> 326 ;
327 [label="gini = 0.0\nsamples = 1\nvalue = [0, 1]"] ;
325 -> 327 ;
328 [label="gini = 0.0\nsamples = 2\nvalue = [0, 2]"] ;
304 -> 328 ;
329 [label="gini = 0.0\nsamples = 3\nvalue = [0, 3]"] ;
271 -> 329 ;
330 [label="annee <= 1990.5\ngini = 0.32\nsamples = 25\nvalue = [20, 5]"] ;
262 -> 330 ;
331 [label="Duree <= 107.5\ngini = 0.117\nsamples = 16\nvalue = [15, 1]"] ;
330 -> 331 ;
332 [label="gini = 0.0\nsamples = 13\nvalue = [13, 0]"] ;
331 -> 332 ;
333 [label="budget <= 38500000.0\ngini = 0.444\nsamples = 3\nvalue = [2, 1]"] ;
331 -> 333 ;
334 [label="gini = 0.0\nsamples = 2\nvalue = [2, 0]"] ;
333 -> 334 ;
335 [label="gini = 0.0\nsamples = 1\nvalue = [0, 1]"] ;
333 -> 335 ;
336 [label="Duree <= 99.5\ngini = 0.494\nsamples = 9\nvalue = [5, 4]"] ;
330 -> 336 ;
337 [label="Duree <= 95.0\ngini = 0.375\nsamples = 4\nvalue = [1, 3]"] ;
336 -> 337 ;
338 [label="gini = 0.0\nsamples = 1\nvalue = [1, 0]"] ;
337 -> 338 ;
339 [label="gini = 0.0\nsamples = 3\nvalue = [0, 3]"] ;
337 -> 339 ;
340 [label="Duree <= 109.5\ngini = 0.32\nsamples = 5\nvalue = [4, 1]"] ;
336 -> 340 ;
341 [label="gini = 0.0\nsamples = 4\nvalue = [4, 0]"] ;
340 -> 341 ;
342 [label="gini = 0.0\nsamples = 1\nvalue = [0, 1]"] ;
340 -> 342 ;
343 [label="Duree <= 101.5\ngini = 0.32\nsamples = 989\nvalue = [791, 198]"] ;
261 -> 343 ;
344 [label="budget <= 33950000.0\ngini = 0.28\nsamples = 702\nvalue = [584, 118]"] ;
343 -> 344 ;
345 [label="Documentary <= 0.5\ngini = 0.334\nsamples = 453\nvalue = [357, 96]"] ;
344 -> 345 ;
346 [label="annee <= 1999.5\ngini = 0.326\nsamples = 448\nvalue = [356, 92]"] ;
345 -> 346 ;
347 [label="Duree <= 91.5\ngini = 0.421\nsamples = 116\nvalue = [81, 35]"] ;
346 -> 347 ;
348 [label="budget <= 12500000.0\ngini = 0.268\nsamples = 44\nvalue = [37, 7]"] ;
347 -> 348 ;
349 [label="annee <= 1996.5\ngini = 0.444\nsamples = 15\nvalue = [10, 5]"] ;
348 -> 349 ;
350 [label="Duree <= 78.5\ngini = 0.298\nsamples = 11\nvalue = [9, 2]"] ;
349 -> 350 ;
351 [label="gini = 0.0\nsamples = 1\nvalue = [0, 1]"] ;
350 -> 351 ;
352 [label="Thriller <= 0.5\ngini = 0.18\nsamples = 10\nvalue = [9, 1]"] ;
350 -> 352 ;
353 [label="gini = 0.0\nsamples = 8\nvalue = [8, 0]"] ;
352 -> 353 ;
354 [label="budget <= 7850000.0\ngini = 0.5\nsamples = 2\nvalue = [1, 1]"] ;
352 -> 354 ;
355 [label="gini = 0.0\nsamples = 1\nvalue = [0, 1]"] ;
354 -> 355 ;
356 [label="gini = 0.0\nsamples = 1\nvalue = [1, 0]"] ;
354 -> 356 ;
357 [label="Duree <= 86.5\ngini = 0.375\nsamples = 4\nvalue = [1, 3]"] ;
349 -> 357 ;
358 [label="gini = 0.0\nsamples = 2\nvalue = [0, 2]"] ;
357 -> 358 ;
359 [label="Duree <= 88.0\ngini = 0.5\nsamples = 2\nvalue = [1, 1]"] ;
357 -> 359 ;
360 [label="gini = 0.0\nsamples = 1\nvalue = [1, 0]"] ;
359 -> 360 ;
361 [label="gini = 0.0\nsamples = 1\nvalue = [0, 1]"] ;
359 -> 361 ;
362 [label="Duree <= 75.5\ngini = 0.128\nsamples = 29\nvalue = [27, 2]"] ;
348 -> 362 ;
363 [label="budget <= 13470000.0\ngini = 0.5\nsamples = 2\nvalue = [1, 1]"] ;
362 -> 363 ;
364 [label="gini = 0.0\nsamples = 1\nvalue = [1, 0]"] ;
363 -> 364 ;
365 [label="gini = 0.0\nsamples = 1\nvalue = [0, 1]"] ;
363 -> 365 ;
366 [label="Duree <= 88.5\ngini = 0.071\nsamples = 27\nvalue = [26, 1]"] ;
362 -> 366 ;
367 [label="gini = 0.0\nsamples = 20\nvalue = [20, 0]"] ;
366 -> 367 ;
368 [label="Duree <= 89.5\ngini = 0.245\nsamples = 7\nvalue = [6, 1]"] ;
366 -> 368 ;
369 [label="Family <= 0.5\ngini = 0.444\nsamples = 3\nvalue = [2, 1]"] ;
368 -> 369 ;
370 [label="gini = 0.0\nsamples = 1\nvalue = [0, 1]"] ;
369 -> 370 ;
371 [label="gini = 0.0\nsamples = 2\nvalue = [2, 0]"] ;
369 -> 371 ;
372 [label="gini = 0.0\nsamples = 4\nvalue = [4, 0]"] ;
368 -> 372 ;
373 [label="budget <= 16500000.0\ngini = 0.475\nsamples = 72\nvalue = [44, 28]"] ;
347 -> 373 ;
374 [label="budget <= 10500000.0\ngini = 0.495\nsamples = 31\nvalue = [14, 17]"] ;
373 -> 374 ;
375 [label="budget <= 8250000.0\ngini = 0.397\nsamples = 11\nvalue = [8, 3]"] ;
374 -> 375 ;
376 [label="annee <= 1993.0\ngini = 0.48\nsamples = 5\nvalue = [2, 3]"] ;
375 -> 376 ;
377 [label="gini = 0.0\nsamples = 2\nvalue = [2, 0]"] ;
376 -> 377 ;
378 [label="gini = 0.0\nsamples = 3\nvalue = [0, 3]"] ;
376 -> 378 ;
379 [label="gini = 0.0\nsamples = 6\nvalue = [6, 0]"] ;
375 -> 379 ;
380 [label="Romance <= 0.5\ngini = 0.42\nsamples = 20\nvalue = [6, 14]"] ;
374 -> 380 ;
381 [label="annee <= 1994.5\ngini = 0.48\nsamples = 15\nvalue = [6, 9]"] ;
380 -> 381 ;
382 [label="gini = 0.0\nsamples = 3\nvalue = [0, 3]"] ;
381 -> 382 ;
383 [label="budget <= 12500000.0\ngini = 0.5\nsamples = 12\nvalue = [6, 6]"] ;
381 -> 383 ;
384 [label="gini = 0.0\nsamples = 3\nvalue = [0, 3]"] ;
383 -> 384 ;
385 [label="budget <= 15500000.0\ngini = 0.444\nsamples = 9\nvalue = [6, 3]"] ;
383 -> 385 ;
386 [label="Music <= 0.5\ngini = 0.375\nsamples = 8\nvalue = [6, 2]"] ;
385 -> 386 ;
387 [label="Duree <= 93.0\ngini = 0.245\nsamples = 7\nvalue = [6, 1]"] ;
386 -> 387 ;
388 [label="gini = 0.0\nsamples = 1\nvalue = [0, 1]"] ;
387 -> 388 ;
389 [label="gini = 0.0\nsamples = 6\nvalue = [6, 0]"] ;
387 -> 389 ;
390 [label="gini = 0.0\nsamples = 1\nvalue = [0, 1]"] ;
386 -> 390 ;
391 [label="gini = 0.0\nsamples = 1\nvalue = [0, 1]"] ;
385 -> 391 ;
392 [label="gini = 0.0\nsamples = 5\nvalue = [0, 5]"] ;
380 -> 392 ;
393 [label="Comedy <= 0.5\ngini = 0.393\nsamples = 41\nvalue = [30, 11]"] ;
373 -> 393 ;
394 [label="gini = 0.0\nsamples = 12\nvalue = [12, 0]"] ;
393 -> 394 ;
395 [label="budget <= 32000000.0\ngini = 0.471\nsamples = 29\nvalue = [18, 11]"] ;
393 -> 395 ;
396 [label="Duree <= 93.5\ngini = 0.444\nsamples = 27\nvalue = [18, 9]"] ;
395 -> 396 ;
397 [label="gini = 0.0\nsamples = 6\nvalue = [6, 0]"] ;
396 -> 397 ;
398 [label="Duree <= 95.5\ngini = 0.49\nsamples = 21\nvalue = [12, 9]"] ;
396 -> 398 ;
399 [label="gini = 0.0\nsamples = 3\nvalue = [0, 3]"] ;
398 -> 399 ;
400 [label="annee <= 1992.5\ngini = 0.444\nsamples = 18\nvalue = [12, 6]"] ;
398 -> 400 ;
401 [label="gini = 0.0\nsamples = 3\nvalue = [3, 0]"] ;
400 -> 401 ;
402 [label="annee <= 1998.0\ngini = 0.48\nsamples = 15\nvalue = [9, 6]"] ;
400 -> 402 ;
403 [label="Action <= 0.5\ngini = 0.5\nsamples = 12\nvalue = [6, 6]"] ;
402 -> 403 ;
404 [label="Duree <= 99.0\ngini = 0.469\nsamples = 8\nvalue = [3, 5]"] ;
403 -> 404 ;
405 [label="gini = 0.0\nsamples = 3\nvalue = [0, 3]"] ;
404 -> 405 ;
406 [label="Duree <= 100.5\ngini = 0.48\nsamples = 5\nvalue = [3, 2]"] ;
404 -> 406 ;
407 [label="gini = 0.0\nsamples = 2\nvalue = [2, 0]"] ;
406 -> 407 ;
408 [label="Romance <= 0.5\ngini = 0.444\nsamples = 3\nvalue = [1, 2]"] ;
406 -> 408 ;
409 [label="gini = 0.0\nsamples = 1\nvalue = [1, 0]"] ;
408 -> 409 ;
410 [label="gini = 0.0\nsamples = 2\nvalue = [0, 2]"] ;
408 -> 410 ;
411 [label="Duree <= 97.5\ngini = 0.375\nsamples = 4\nvalue = [3, 1]"] ;
403 -> 411 ;
412 [label="gini = 0.0\nsamples = 2\nvalue = [2, 0]"] ;
411 -> 412 ;
413 [label="Adventure <= 0.5\ngini = 0.5\nsamples = 2\nvalue = [1, 1]"] ;
411 -> 413 ;
414 [label="gini = 0.0\nsamples = 1\nvalue = [1, 0]"] ;
413 -> 414 ;
415 [label="gini = 0.0\nsamples = 1\nvalue = [0, 1]"] ;
413 -> 415 ;
416 [label="gini = 0.0\nsamples = 3\nvalue = [3, 0]"] ;
402 -> 416 ;
417 [label="gini = 0.0\nsamples = 2\nvalue = [0, 2]"] ;
395 -> 417 ;
418 [label="Horror <= 0.5\ngini = 0.284\nsamples = 332\nvalue = [275, 57]"] ;
346 -> 418 ;
419 [label="Duree <= 100.5\ngini = 0.331\nsamples = 239\nvalue = [189, 50]"] ;
418 -> 419 ;
420 [label="Mystery <= 0.5\ngini = 0.317\nsamples = 228\nvalue = [183, 45]"] ;
419 -> 420 ;
421 [label="Crime <= 0.5\ngini = 0.299\nsamples = 213\nvalue = [174, 39]"] ;
420 -> 421 ;
422 [label="Duree <= 82.5\ngini = 0.26\nsamples = 163\nvalue = [138, 25]"] ;
421 -> 422 ;
423 [label="annee <= 2008.0\ngini = 0.463\nsamples = 11\nvalue = [7, 4]"] ;
422 -> 423 ;
424 [label="Comedy <= 0.5\ngini = 0.5\nsamples = 8\nvalue = [4, 4]"] ;
423 -> 424 ;
425 [label="gini = 0.0\nsamples = 2\nvalue = [0, 2]"] ;
424 -> 425 ;
426 [label="Duree <= 81.0\ngini = 0.444\nsamples = 6\nvalue = [4, 2]"] ;
424 -> 426 ;
427 [label="gini = 0.0\nsamples = 3\nvalue = [3, 0]"] ;
426 -> 427 ;
428 [label="budget <= 14000000.0\ngini = 0.444\nsamples = 3\nvalue = [1, 2]"] ;
426 -> 428 ;
429 [label="gini = 0.0\nsamples = 1\nvalue = [1, 0]"] ;
428 -> 429 ;
430 [label="gini = 0.0\nsamples = 2\nvalue = [0, 2]"] ;
428 -> 430 ;
431 [label="gini = 0.0\nsamples = 3\nvalue = [3, 0]"] ;
423 -> 431 ;
432 [label="annee <= 2002.5\ngini = 0.238\nsamples = 152\nvalue = [131, 21]"] ;
422 -> 432 ;
433 [label="budget <= 27000000.0\ngini = 0.102\nsamples = 37\nvalue = [35, 2]"] ;
432 -> 433 ;
434 [label="Duree <= 84.5\ngini = 0.059\nsamples = 33\nvalue = [32, 1]"] ;
433 -> 434 ;
435 [label="budget <= 14586050.0\ngini = 0.32\nsamples = 5\nvalue = [4, 1]"] ;
434 -> 435 ;
436 [label="gini = 0.0\nsamples = 3\nvalue = [3, 0]"] ;
435 -> 436 ;
437 [label="budget <= 19086050.0\ngini = 0.5\nsamples = 2\nvalue = [1, 1]"] ;
435 -> 437 ;
438 [label="gini = 0.0\nsamples = 1\nvalue = [0, 1]"] ;
437 -> 438 ;
439 [label="gini = 0.0\nsamples = 1\nvalue = [1, 0]"] ;
437 -> 439 ;
440 [label="gini = 0.0\nsamples = 28\nvalue = [28, 0]"] ;
434 -> 440 ;
441 [label="budget <= 28500000.0\ngini = 0.375\nsamples = 4\nvalue = [3, 1]"] ;
433 -> 441 ;
442 [label="gini = 0.0\nsamples = 1\nvalue = [0, 1]"] ;
441 -> 442 ;
443 [label="gini = 0.0\nsamples = 3\nvalue = [3, 0]"] ;
441 -> 443 ;
444 [label="Duree <= 87.5\ngini = 0.276\nsamples = 115\nvalue = [96, 19]"] ;
432 -> 444 ;
445 [label="gini = 0.0\nsamples = 14\nvalue = [14, 0]"] ;
444 -> 445 ;
446 [label="Duree <= 88.5\ngini = 0.305\nsamples = 101\nvalue = [82, 19]"] ;
444 -> 446 ;
447 [label="budget <= 14000000.0\ngini = 0.49\nsamples = 7\nvalue = [3, 4]"] ;
446 -> 447 ;
448 [label="gini = 0.0\nsamples = 3\nvalue = [0, 3]"] ;
447 -> 448 ;
449 [label="annee <= 2004.5\ngini = 0.375\nsamples = 4\nvalue = [3, 1]"] ;
447 -> 449 ;
450 [label="gini = 0.0\nsamples = 1\nvalue = [0, 1]"] ;
449 -> 450 ;
451 [label="gini = 0.0\nsamples = 3\nvalue = [3, 0]"] ;
449 -> 451 ;
452 [label="Duree <= 91.5\ngini = 0.268\nsamples = 94\nvalue = [79, 15]"] ;
446 -> 452 ;
453 [label="budget <= 9302500.0\ngini = 0.091\nsamples = 21\nvalue = [20, 1]"] ;
452 -> 453 ;
454 [label="Duree <= 90.5\ngini = 0.5\nsamples = 2\nvalue = [1, 1]"] ;
453 -> 454 ;
455 [label="gini = 0.0\nsamples = 1\nvalue = [0, 1]"] ;
454 -> 455 ;
456 [label="gini = 0.0\nsamples = 1\nvalue = [1, 0]"] ;
454 -> 456 ;
457 [label="gini = 0.0\nsamples = 19\nvalue = [19, 0]"] ;
453 -> 457 ;
458 [label="budget <= 32500000.0\ngini = 0.31\nsamples = 73\nvalue = [59, 14]"] ;
452 -> 458 ;
459 [label="budget <= 27000000.0\ngini = 0.296\nsamples = 72\nvalue = [59, 13]"] ;
458 -> 459 ;
460 [label="budget <= 24500000.0\ngini = 0.339\nsamples = 60\nvalue = [47, 13]"] ;
459 -> 460 ;
461 [label="Duree <= 92.5\ngini = 0.273\nsamples = 49\nvalue = [41, 8]"] ;
460 -> 461 ;
462 [label="Romance <= 0.5\ngini = 0.49\nsamples = 7\nvalue = [4, 3]"] ;
461 -> 462 ;
463 [label="Sport <= 0.5\ngini = 0.32\nsamples = 5\nvalue = [4, 1]"] ;
462 -> 463 ;
464 [label="gini = 0.0\nsamples = 4\nvalue = [4, 0]"] ;
463 -> 464 ;
465 [label="gini = 0.0\nsamples = 1\nvalue = [0, 1]"] ;
463 -> 465 ;
466 [label="gini = 0.0\nsamples = 2\nvalue = [0, 2]"] ;
462 -> 466 ;
467 [label="Duree <= 96.0\ngini = 0.21\nsamples = 42\nvalue = [37, 5]"] ;
461 -> 467 ;
468 [label="gini = 0.0\nsamples = 18\nvalue = [18, 0]"] ;
467 -> 468 ;
469 [label="budget <= 20500000.0\ngini = 0.33\nsamples = 24\nvalue = [19, 5]"] ;
467 -> 469 ;
470 [label="budget <= 17500000.0\ngini = 0.287\nsamples = 23\nvalue = [19, 4]"] ;
469 -> 470 ;
471 [label="budget <= 10500000.0\ngini = 0.36\nsamples = 17\nvalue = [13, 4]"] ;
470 -> 471 ;
472 [label="gini = 0.0\nsamples = 5\nvalue = [5, 0]"] ;
471 -> 472 ;
473 [label="budget <= 11500000.0\ngini = 0.444\nsamples = 12\nvalue = [8, 4]"] ;
471 -> 473 ;
474 [label="gini = 0.0\nsamples = 1\nvalue = [0, 1]"] ;
473 -> 474 ;
475 [label="budget <= 16000000.0\ngini = 0.397\nsamples = 11\nvalue = [8, 3]"] ;
473 -> 475 ;
476 [label="annee <= 2013.0\ngini = 0.245\nsamples = 7\nvalue = [6, 1]"] ;
475 -> 476 ;
477 [label="gini = 0.0\nsamples = 4\nvalue = [4, 0]"] ;
476 -> 477 ;
478 [label="gini = 0.444\nsamples = 3\nvalue = [2, 1]"] ;
476 -> 478 ;
479 [label="annee <= 2003.5\ngini = 0.5\nsamples = 4\nvalue = [2, 2]"] ;
475 -> 479 ;
480 [label="gini = 0.0\nsamples = 1\nvalue = [1, 0]"] ;
479 -> 480 ;
481 [label="gini = 0.444\nsamples = 3\nvalue = [1, 2]"] ;
479 -> 481 ;
482 [label="gini = 0.0\nsamples = 6\nvalue = [6, 0]"] ;
470 -> 482 ;
483 [label="gini = 0.0\nsamples = 1\nvalue = [0, 1]"] ;
469 -> 483 ;
484 [label="Duree <= 98.5\ngini = 0.496\nsamples = 11\nvalue = [6, 5]"] ;
460 -> 484 ;
485 [label="Romance <= 0.5\ngini = 0.469\nsamples = 8\nvalue = [3, 5]"] ;
484 -> 485 ;
486 [label="annee <= 2003.5\ngini = 0.408\nsamples = 7\nvalue = [2, 5]"] ;
485 -> 486 ;
487 [label="gini = 0.0\nsamples = 1\nvalue = [1, 0]"] ;
486 -> 487 ;
488 [label="War <= 0.5\ngini = 0.278\nsamples = 6\nvalue = [1, 5]"] ;
486 -> 488 ;
489 [label="gini = 0.0\nsamples = 5\nvalue = [0, 5]"] ;
488 -> 489 ;
490 [label="gini = 0.0\nsamples = 1\nvalue = [1, 0]"] ;
488 -> 490 ;
491 [label="gini = 0.0\nsamples = 1\nvalue = [1, 0]"] ;
485 -> 491 ;
492 [label="gini = 0.0\nsamples = 3\nvalue = [3, 0]"] ;
484 -> 492 ;
493 [label="gini = 0.0\nsamples = 12\nvalue = [12, 0]"] ;
459 -> 493 ;
494 [label="gini = 0.0\nsamples = 1\nvalue = [0, 1]"] ;
458 -> 494 ;
495 [label="budget <= 24500000.0\ngini = 0.403\nsamples = 50\nvalue = [36, 14]"] ;
421 -> 495 ;
496 [label="annee <= 2006.5\ngini = 0.461\nsamples = 36\nvalue = [23, 13]"] ;
495 -> 496 ;
497 [label="budget <= 13280000.0\ngini = 0.499\nsamples = 19\nvalue = [10, 9]"] ;
496 -> 497 ;
498 [label="annee <= 2005.0\ngini = 0.32\nsamples = 10\nvalue = [8, 2]"] ;
497 -> 498 ;
499 [label="gini = 0.0\nsamples = 8\nvalue = [8, 0]"] ;
498 -> 499 ;
500 [label="gini = 0.0\nsamples = 2\nvalue = [0, 2]"] ;
498 -> 500 ;
501 [label="Romance <= 0.5\ngini = 0.346\nsamples = 9\nvalue = [2, 7]"] ;
497 -> 501 ;
502 [label="Duree <= 89.0\ngini = 0.219\nsamples = 8\nvalue = [1, 7]"] ;
501 -> 502 ;
503 [label="Comedy <= 0.5\ngini = 0.5\nsamples = 2\nvalue = [1, 1]"] ;
502 -> 503 ;
504 [label="gini = 0.0\nsamples = 1\nvalue = [0, 1]"] ;
503 -> 504 ;
505 [label="gini = 0.0\nsamples = 1\nvalue = [1, 0]"] ;
503 -> 505 ;
506 [label="gini = 0.0\nsamples = 6\nvalue = [0, 6]"] ;
502 -> 506 ;
507 [label="gini = 0.0\nsamples = 1\nvalue = [1, 0]"] ;
501 -> 507 ;
508 [label="annee <= 2009.5\ngini = 0.36\nsamples = 17\nvalue = [13, 4]"] ;
496 -> 508 ;
509 [label="gini = 0.0\nsamples = 5\nvalue = [5, 0]"] ;
508 -> 509 ;
510 [label="annee <= 2011.0\ngini = 0.444\nsamples = 12\nvalue = [8, 4]"] ;
508 -> 510 ;
511 [label="gini = 0.0\nsamples = 2\nvalue = [0, 2]"] ;
510 -> 511 ;
512 [label="budget <= 13100000.0\ngini = 0.32\nsamples = 10\nvalue = [8, 2]"] ;
510 -> 512 ;
513 [label="Duree <= 96.0\ngini = 0.5\nsamples = 4\nvalue = [2, 2]"] ;
512 -> 513 ;
514 [label="gini = 0.0\nsamples = 2\nvalue = [0, 2]"] ;
513 -> 514 ;
515 [label="gini = 0.0\nsamples = 2\nvalue = [2, 0]"] ;
513 -> 515 ;
516 [label="gini = 0.0\nsamples = 6\nvalue = [6, 0]"] ;
512 -> 516 ;
517 [label="budget <= 30503600.0\ngini = 0.133\nsamples = 14\nvalue = [13, 1]"] ;
495 -> 517 ;
518 [label="gini = 0.0\nsamples = 10\nvalue = [10, 0]"] ;
517 -> 518 ;
519 [label="annee <= 2003.5\ngini = 0.375\nsamples = 4\nvalue = [3, 1]"] ;
517 -> 519 ;
520 [label="gini = 0.0\nsamples = 1\nvalue = [0, 1]"] ;
519 -> 520 ;
521 [label="gini = 0.0\nsamples = 3\nvalue = [3, 0]"] ;
519 -> 521 ;
522 [label="budget <= 26420000.0\ngini = 0.48\nsamples = 15\nvalue = [9, 6]"] ;
420 -> 522 ;
523 [label="budget <= 8050000.0\ngini = 0.375\nsamples = 12\nvalue = [9, 3]"] ;
522 -> 523 ;
524 [label="gini = 0.0\nsamples = 1\nvalue = [0, 1]"] ;
523 -> 524 ;
525 [label="Duree <= 96.5\ngini = 0.298\nsamples = 11\nvalue = [9, 2]"] ;
523 -> 525 ;
526 [label="gini = 0.0\nsamples = 6\nvalue = [6, 0]"] ;
525 -> 526 ;
527 [label="Sci-Fi <= 0.5\ngini = 0.48\nsamples = 5\nvalue = [3, 2]"] ;
525 -> 527 ;
528 [label="Family <= 0.5\ngini = 0.444\nsamples = 3\nvalue = [1, 2]"] ;
527 -> 528 ;
529 [label="gini = 0.0\nsamples = 2\nvalue = [0, 2]"] ;
528 -> 529 ;
530 [label="gini = 0.0\nsamples = 1\nvalue = [1, 0]"] ;
528 -> 530 ;
531 [label="gini = 0.0\nsamples = 2\nvalue = [2, 0]"] ;
527 -> 531 ;
532 [label="gini = 0.0\nsamples = 3\nvalue = [0, 3]"] ;
522 -> 532 ;
533 [label="annee <= 2006.0\ngini = 0.496\nsamples = 11\nvalue = [6, 5]"] ;
419 -> 533 ;
534 [label="gini = 0.0\nsamples = 4\nvalue = [4, 0]"] ;
533 -> 534 ;
535 [label="budget <= 16780000.0\ngini = 0.408\nsamples = 7\nvalue = [2, 5]"] ;
533 -> 535 ;
536 [label="Comedy <= 0.5\ngini = 0.444\nsamples = 3\nvalue = [2, 1]"] ;
535 -> 536 ;
537 [label="gini = 0.0\nsamples = 2\nvalue = [2, 0]"] ;
536 -> 537 ;
538 [label="gini = 0.0\nsamples = 1\nvalue = [0, 1]"] ;
536 -> 538 ;
539 [label="gini = 0.0\nsamples = 4\nvalue = [0, 4]"] ;
535 -> 539 ;
540 [label="budget <= 21991000.0\ngini = 0.139\nsamples = 93\nvalue = [86, 7]"] ;
418 -> 540 ;
541 [label="Comedy <= 0.5\ngini = 0.029\nsamples = 69\nvalue = [68, 1]"] ;
540 -> 541 ;
542 [label="gini = 0.0\nsamples = 64\nvalue = [64, 0]"] ;
541 -> 542 ;
543 [label="budget <= 8825000.0\ngini = 0.32\nsamples = 5\nvalue = [4, 1]"] ;
541 -> 543 ;
544 [label="gini = 0.0\nsamples = 1\nvalue = [0, 1]"] ;
543 -> 544 ;
545 [label="gini = 0.0\nsamples = 4\nvalue = [4, 0]"] ;
543 -> 545 ;
546 [label="Thriller <= 0.5\ngini = 0.375\nsamples = 24\nvalue = [18, 6]"] ;
540 -> 546 ;
547 [label="budget <= 23800000.0\ngini = 0.496\nsamples = 11\nvalue = [6, 5]"] ;
546 -> 547 ;
548 [label="gini = 0.0\nsamples = 2\nvalue = [0, 2]"] ;
547 -> 548 ;
549 [label="budget <= 29000000.0\ngini = 0.444\nsamples = 9\nvalue = [6, 3]"] ;
547 -> 549 ;
550 [label="Duree <= 86.0\ngini = 0.245\nsamples = 7\nvalue = [6, 1]"] ;
549 -> 550 ;
551 [label="gini = 0.0\nsamples = 1\nvalue = [0, 1]"] ;
550 -> 551 ;
552 [label="gini = 0.0\nsamples = 6\nvalue = [6, 0]"] ;
550 -> 552 ;
553 [label="gini = 0.0\nsamples = 2\nvalue = [0, 2]"] ;
549 -> 553 ;
554 [label="annee <= 2011.5\ngini = 0.142\nsamples = 13\nvalue = [12, 1]"] ;
546 -> 554 ;
555 [label="gini = 0.0\nsamples = 11\nvalue = [11, 0]"] ;
554 -> 555 ;
556 [label="Sci-Fi <= 0.5\ngini = 0.5\nsamples = 2\nvalue = [1, 1]"] ;
554 -> 556 ;
557 [label="gini = 0.0\nsamples = 1\nvalue = [0, 1]"] ;
556 -> 557 ;
558 [label="gini = 0.0\nsamples = 1\nvalue = [1, 0]"] ;
556 -> 558 ;
559 [label="annee <= 2011.0\ngini = 0.32\nsamples = 5\nvalue = [1, 4]"] ;
345 -> 559 ;
560 [label="gini = 0.0\nsamples = 4\nvalue = [0, 4]"] ;
559 -> 560 ;
561 [label="gini = 0.0\nsamples = 1\nvalue = [1, 0]"] ;
559 -> 561 ;
562 [label="budget <= 177500000.0\ngini = 0.161\nsamples = 249\nvalue = [227, 22]"] ;
344 -> 562 ;
563 [label="Duree <= 99.5\ngini = 0.155\nsamples = 248\nvalue = [227, 21]"] ;
562 -> 563 ;
564 [label="Duree <= 94.5\ngini = 0.188\nsamples = 200\nvalue = [179, 21]"] ;
563 -> 564 ;
565 [label="Duree <= 86.5\ngini = 0.114\nsamples = 115\nvalue = [108, 7]"] ;
564 -> 565 ;
566 [label="Duree <= 85.5\ngini = 0.269\nsamples = 25\nvalue = [21, 4]"] ;
565 -> 566 ;
567 [label="budget <= 55295000.0\ngini = 0.1\nsamples = 19\nvalue = [18, 1]"] ;
566 -> 567 ;
568 [label="gini = 0.0\nsamples = 14\nvalue = [14, 0]"] ;
567 -> 568 ;
569 [label="budget <= 63545000.0\ngini = 0.32\nsamples = 5\nvalue = [4, 1]"] ;
567 -> 569 ;
570 [label="gini = 0.0\nsamples = 1\nvalue = [0, 1]"] ;
569 -> 570 ;
571 [label="gini = 0.0\nsamples = 4\nvalue = [4, 0]"] ;
569 -> 571 ;
572 [label="annee <= 2001.5\ngini = 0.5\nsamples = 6\nvalue = [3, 3]"] ;
566 -> 572 ;
573 [label="gini = 0.0\nsamples = 2\nvalue = [0, 2]"] ;
572 -> 573 ;
574 [label="Thriller <= 0.5\ngini = 0.375\nsamples = 4\nvalue = [3, 1]"] ;
572 -> 574 ;
575 [label="gini = 0.0\nsamples = 3\nvalue = [3, 0]"] ;
574 -> 575 ;
576 [label="gini = 0.0\nsamples = 1\nvalue = [0, 1]"] ;
574 -> 576 ;
577 [label="annee <= 2008.5\ngini = 0.064\nsamples = 90\nvalue = [87, 3]"] ;
565 -> 577 ;
578 [label="gini = 0.0\nsamples = 64\nvalue = [64, 0]"] ;
577 -> 578 ;
579 [label="Comedy <= 0.5\ngini = 0.204\nsamples = 26\nvalue = [23, 3]"] ;
577 -> 579 ;
580 [label="budget <= 90000000.0\ngini = 0.355\nsamples = 13\nvalue = [10, 3]"] ;
579 -> 580 ;
581 [label="Adventure <= 0.5\ngini = 0.278\nsamples = 12\nvalue = [10, 2]"] ;
580 -> 581 ;
582 [label="Duree <= 92.5\ngini = 0.165\nsamples = 11\nvalue = [10, 1]"] ;
581 -> 582 ;
583 [label="gini = 0.0\nsamples = 9\nvalue = [9, 0]"] ;
582 -> 583 ;
584 [label="War <= 0.5\ngini = 0.5\nsamples = 2\nvalue = [1, 1]"] ;
582 -> 584 ;
585 [label="gini = 0.0\nsamples = 1\nvalue = [0, 1]"] ;
584 -> 585 ;
586 [label="gini = 0.0\nsamples = 1\nvalue = [1, 0]"] ;
584 -> 586 ;
587 [label="gini = 0.0\nsamples = 1\nvalue = [0, 1]"] ;
581 -> 587 ;
588 [label="gini = 0.0\nsamples = 1\nvalue = [0, 1]"] ;
580 -> 588 ;
589 [label="gini = 0.0\nsamples = 13\nvalue = [13, 0]"] ;
579 -> 589 ;
590 [label="War <= 0.5\ngini = 0.275\nsamples = 85\nvalue = [71, 14]"] ;
564 -> 590 ;
591 [label="Action <= 0.5\ngini = 0.262\nsamples = 84\nvalue = [71, 13]"] ;
590 -> 591 ;
592 [label="Duree <= 97.0\ngini = 0.359\nsamples = 47\nvalue = [36, 11]"] ;
591 -> 592 ;
593 [label="annee <= 2003.5\ngini = 0.463\nsamples = 22\nvalue = [14, 8]"] ;
592 -> 593 ;
594 [label="Horror <= 0.5\ngini = 0.198\nsamples = 9\nvalue = [8, 1]"] ;
593 -> 594 ;
595 [label="gini = 0.0\nsamples = 7\nvalue = [7, 0]"] ;
594 -> 595 ;
596 [label="Sci-Fi <= 0.5\ngini = 0.5\nsamples = 2\nvalue = [1, 1]"] ;
594 -> 596 ;
597 [label="gini = 0.0\nsamples = 1\nvalue = [1, 0]"] ;
596 -> 597 ;
598 [label="gini = 0.0\nsamples = 1\nvalue = [0, 1]"] ;
596 -> 598 ;
599 [label="Romance <= 0.5\ngini = 0.497\nsamples = 13\nvalue = [6, 7]"] ;
593 -> 599 ;
600 [label="Fantasy <= 0.5\ngini = 0.375\nsamples = 8\nvalue = [2, 6]"] ;
599 -> 600 ;
601 [label="gini = 0.0\nsamples = 5\nvalue = [0, 5]"] ;
600 -> 601 ;
602 [label="Comedy <= 0.5\ngini = 0.444\nsamples = 3\nvalue = [2, 1]"] ;
600 -> 602 ;
603 [label="gini = 0.0\nsamples = 1\nvalue = [0, 1]"] ;
602 -> 603 ;
604 [label="gini = 0.0\nsamples = 2\nvalue = [2, 0]"] ;
602 -> 604 ;
605 [label="budget <= 54000000.0\ngini = 0.32\nsamples = 5\nvalue = [4, 1]"] ;
599 -> 605 ;
606 [label="gini = 0.0\nsamples = 4\nvalue = [4, 0]"] ;
605 -> 606 ;
607 [label="gini = 0.0\nsamples = 1\nvalue = [0, 1]"] ;
605 -> 607 ;
608 [label="annee <= 2012.5\ngini = 0.211\nsamples = 25\nvalue = [22, 3]"] ;
592 -> 608 ;
609 [label="budget <= 70000000.0\ngini = 0.159\nsamples = 23\nvalue = [21, 2]"] ;
608 -> 609 ;
610 [label="gini = 0.0\nsamples = 17\nvalue = [17, 0]"] ;
609 -> 610 ;
611 [label="annee <= 2005.5\ngini = 0.444\nsamples = 6\nvalue = [4, 2]"] ;
609 -> 611 ;
612 [label="Duree <= 98.5\ngini = 0.444\nsamples = 3\nvalue = [1, 2]"] ;
611 -> 612 ;
613 [label="Sci-Fi <= 0.5\ngini = 0.5\nsamples = 2\nvalue = [1, 1]"] ;
612 -> 613 ;
614 [label="gini = 0.0\nsamples = 1\nvalue = [1, 0]"] ;
613 -> 614 ;
615 [label="gini = 0.0\nsamples = 1\nvalue = [0, 1]"] ;
613 -> 615 ;
616 [label="gini = 0.0\nsamples = 1\nvalue = [0, 1]"] ;
612 -> 616 ;
617 [label="gini = 0.0\nsamples = 3\nvalue = [3, 0]"] ;
611 -> 617 ;
618 [label="annee <= 2013.5\ngini = 0.5\nsamples = 2\nvalue = [1, 1]"] ;
608 -> 618 ;
619 [label="gini = 0.0\nsamples = 1\nvalue = [0, 1]"] ;
618 -> 619 ;
620 [label="gini = 0.0\nsamples = 1\nvalue = [1, 0]"] ;
618 -> 620 ;
621 [label="budget <= 36500000.0\ngini = 0.102\nsamples = 37\nvalue = [35, 2]"] ;
591 -> 621 ;
622 [label="Duree <= 95.5\ngini = 0.5\nsamples = 2\nvalue = [1, 1]"] ;
621 -> 622 ;
623 [label="gini = 0.0\nsamples = 1\nvalue = [0, 1]"] ;
622 -> 623 ;
624 [label="gini = 0.0\nsamples = 1\nvalue = [1, 0]"] ;
622 -> 624 ;
625 [label="budget <= 92500000.0\ngini = 0.056\nsamples = 35\nvalue = [34, 1]"] ;
621 -> 625 ;
626 [label="gini = 0.0\nsamples = 31\nvalue = [31, 0]"] ;
625 -> 626 ;
627 [label="Thriller <= 0.5\ngini = 0.375\nsamples = 4\nvalue = [3, 1]"] ;
625 -> 627 ;
628 [label="gini = 0.0\nsamples = 3\nvalue = [3, 0]"] ;
627 -> 628 ;
629 [label="gini = 0.0\nsamples = 1\nvalue = [0, 1]"] ;
627 -> 629 ;
630 [label="gini = 0.0\nsamples = 1\nvalue = [0, 1]"] ;
590 -> 630 ;
631 [label="gini = 0.0\nsamples = 48\nvalue = [48, 0]"] ;
563 -> 631 ;
632 [label="gini = 0.0\nsamples = 1\nvalue = [0, 1]"] ;
562 -> 632 ;
633 [label="budget <= 6950000.0\ngini = 0.402\nsamples = 287\nvalue = [207, 80]"] ;
343 -> 633 ;
634 [label="gini = 0.0\nsamples = 2\nvalue = [0, 2]"] ;
633 -> 634 ;
635 [label="budget <= 205000000.0\ngini = 0.398\nsamples = 285\nvalue = [207, 78]"] ;
633 -> 635 ;
636 [label="Crime <= 0.5\ngini = 0.393\nsamples = 283\nvalue = [207, 76]"] ;
635 -> 636 ;
637 [label="History <= 0.5\ngini = 0.366\nsamples = 224\nvalue = [170, 54]"] ;
636 -> 637 ;
638 [label="Musical <= 0.5\ngini = 0.362\nsamples = 223\nvalue = [170, 53]"] ;
637 -> 638 ;
639 [label="Duree <= 103.5\ngini = 0.356\nsamples = 220\nvalue = [169, 51]"] ;
638 -> 639 ;
640 [label="Adventure <= 0.5\ngini = 0.21\nsamples = 42\nvalue = [37, 5]"] ;
639 -> 640 ;
641 [label="annee <= 2012.5\ngini = 0.121\nsamples = 31\nvalue = [29, 2]"] ;
640 -> 641 ;
642 [label="Fantasy <= 0.5\ngini = 0.067\nsamples = 29\nvalue = [28, 1]"] ;
641 -> 642 ;
643 [label="gini = 0.0\nsamples = 24\nvalue = [24, 0]"] ;
642 -> 643 ;
644 [label="annee <= 2000.5\ngini = 0.32\nsamples = 5\nvalue = [4, 1]"] ;
642 -> 644 ;
645 [label="Sport <= 0.5\ngini = 0.5\nsamples = 2\nvalue = [1, 1]"] ;
644 -> 645 ;
646 [label="gini = 0.0\nsamples = 1\nvalue = [0, 1]"] ;
645 -> 646 ;
647 [label="gini = 0.0\nsamples = 1\nvalue = [1, 0]"] ;
645 -> 647 ;
648 [label="gini = 0.0\nsamples = 3\nvalue = [3, 0]"] ;
644 -> 648 ;
649 [label="Action <= 0.5\ngini = 0.5\nsamples = 2\nvalue = [1, 1]"] ;
641 -> 649 ;
650 [label="gini = 0.0\nsamples = 1\nvalue = [0, 1]"] ;
649 -> 650 ;
651 [label="gini = 0.0\nsamples = 1\nvalue = [1, 0]"] ;
649 -> 651 ;
652 [label="budget <= 25000000.0\ngini = 0.397\nsamples = 11\nvalue = [8, 3]"] ;
640 -> 652 ;
653 [label="gini = 0.0\nsamples = 1\nvalue = [0, 1]"] ;
652 -> 653 ;
654 [label="Fantasy <= 0.5\ngini = 0.32\nsamples = 10\nvalue = [8, 2]"] ;
652 -> 654 ;
655 [label="annee <= 1998.5\ngini = 0.444\nsamples = 6\nvalue = [4, 2]"] ;
654 -> 655 ;
656 [label="gini = 0.0\nsamples = 3\nvalue = [3, 0]"] ;
655 -> 656 ;
657 [label="budget <= 96000000.0\ngini = 0.444\nsamples = 3\nvalue = [1, 2]"] ;
655 -> 657 ;
658 [label="gini = 0.0\nsamples = 2\nvalue = [0, 2]"] ;
657 -> 658 ;
659 [label="gini = 0.0\nsamples = 1\nvalue = [1, 0]"] ;
657 -> 659 ;
660 [label="gini = 0.0\nsamples = 4\nvalue = [4, 0]"] ;
654 -> 660 ;
661 [label="Duree <= 104.5\ngini = 0.383\nsamples = 178\nvalue = [132, 46]"] ;
639 -> 661 ;
662 [label="budget <= 62500000.0\ngini = 0.475\nsamples = 31\nvalue = [19, 12]"] ;
661 -> 662 ;
663 [label="budget <= 41500000.0\ngini = 0.426\nsamples = 26\nvalue = [18, 8]"] ;
662 -> 663 ;
664 [label="Adventure <= 0.5\ngini = 0.492\nsamples = 16\nvalue = [9, 7]"] ;
663 -> 664 ;
665 [label="Sci-Fi <= 0.5\ngini = 0.459\nsamples = 14\nvalue = [9, 5]"] ;
664 -> 665 ;
666 [label="annee <= 2002.0\ngini = 0.5\nsamples = 10\nvalue = [5, 5]"] ;
665 -> 666 ;
667 [label="gini = 0.0\nsamples = 3\nvalue = [0, 3]"] ;
666 -> 667 ;
668 [label="annee <= 2014.5\ngini = 0.408\nsamples = 7\nvalue = [5, 2]"] ;
666 -> 668 ;
669 [label="budget <= 16000000.0\ngini = 0.278\nsamples = 6\nvalue = [5, 1]"] ;
668 -> 669 ;
670 [label="Family <= 0.5\ngini = 0.5\nsamples = 2\nvalue = [1, 1]"] ;
669 -> 670 ;
671 [label="gini = 0.0\nsamples = 1\nvalue = [0, 1]"] ;
670 -> 671 ;
672 [label="gini = 0.0\nsamples = 1\nvalue = [1, 0]"] ;
670 -> 672 ;
673 [label="gini = 0.0\nsamples = 4\nvalue = [4, 0]"] ;
669 -> 673 ;
674 [label="gini = 0.0\nsamples = 1\nvalue = [0, 1]"] ;
668 -> 674 ;
675 [label="gini = 0.0\nsamples = 4\nvalue = [4, 0]"] ;
665 -> 675 ;
676 [label="gini = 0.0\nsamples = 2\nvalue = [0, 2]"] ;
664 -> 676 ;
677 [label="Romance <= 0.5\ngini = 0.18\nsamples = 10\nvalue = [9, 1]"] ;
663 -> 677 ;
678 [label="gini = 0.0\nsamples = 8\nvalue = [8, 0]"] ;
677 -> 678 ;
679 [label="Fantasy <= 0.5\ngini = 0.5\nsamples = 2\nvalue = [1, 1]"] ;
677 -> 679 ;
680 [label="gini = 0.0\nsamples = 1\nvalue = [1, 0]"] ;
679 -> 680 ;
681 [label="gini = 0.0\nsamples = 1\nvalue = [0, 1]"] ;
679 -> 681 ;
682 [label="budget <= 92500000.0\ngini = 0.32\nsamples = 5\nvalue = [1, 4]"] ;
662 -> 682 ;
683 [label="gini = 0.0\nsamples = 4\nvalue = [0, 4]"] ;
682 -> 683 ;
684 [label="gini = 0.0\nsamples = 1\nvalue = [1, 0]"] ;
682 -> 684 ;
685 [label="budget <= 21000000.0\ngini = 0.356\nsamples = 147\nvalue = [113, 34]"] ;
661 -> 685 ;
686 [label="annee <= 1993.5\ngini = 0.198\nsamples = 36\nvalue = [32, 4]"] ;
685 -> 686 ;
687 [label="gini = 0.0\nsamples = 1\nvalue = [0, 1]"] ;
686 -> 687 ;
688 [label="Romance <= 0.5\ngini = 0.157\nsamples = 35\nvalue = [32, 3]"] ;
686 -> 688 ;
689 [label="gini = 0.0\nsamples = 26\nvalue = [26, 0]"] ;
688 -> 689 ;
690 [label="budget <= 13610500.0\ngini = 0.444\nsamples = 9\nvalue = [6, 3]"] ;
688 -> 690 ;
691 [label="gini = 0.0\nsamples = 3\nvalue = [0, 3]"] ;
690 -> 691 ;
692 [label="gini = 0.0\nsamples = 6\nvalue = [6, 0]"] ;
690 -> 692 ;
693 [label="annee <= 1997.5\ngini = 0.394\nsamples = 111\nvalue = [81, 30]"] ;
685 -> 693 ;
694 [label="budget <= 75000000.0\ngini = 0.124\nsamples = 15\nvalue = [14, 1]"] ;
693 -> 694 ;
695 [label="gini = 0.0\nsamples = 13\nvalue = [13, 0]"] ;
694 -> 695 ;
696 [label="budget <= 98000000.0\ngini = 0.5\nsamples = 2\nvalue = [1, 1]"] ;
694 -> 696 ;
697 [label="gini = 0.0\nsamples = 1\nvalue = [0, 1]"] ;
696 -> 697 ;
698 [label="gini = 0.0\nsamples = 1\nvalue = [1, 0]"] ;
696 -> 698 ;
699 [label="budget <= 23500000.0\ngini = 0.422\nsamples = 96\nvalue = [67, 29]"] ;
693 -> 699 ;
700 [label="annee <= 2005.5\ngini = 0.375\nsamples = 4\nvalue = [1, 3]"] ;
699 -> 700 ;
701 [label="gini = 0.0\nsamples = 3\nvalue = [0, 3]"] ;
700 -> 701 ;
702 [label="gini = 0.0\nsamples = 1\nvalue = [1, 0]"] ;
700 -> 702 ;
703 [label="budget <= 57500000.0\ngini = 0.405\nsamples = 92\nvalue = [66, 26]"] ;
699 -> 703 ;
704 [label="Sci-Fi <= 0.5\ngini = 0.452\nsamples = 58\nvalue = [38, 20]"] ;
703 -> 704 ;
705 [label="budget <= 54500000.0\ngini = 0.363\nsamples = 42\nvalue = [32, 10]"] ;
704 -> 705 ;
706 [label="annee <= 1998.5\ngini = 0.32\nsamples = 40\nvalue = [32, 8]"] ;
705 -> 706 ;
707 [label="gini = 0.0\nsamples = 1\nvalue = [0, 1]"] ;
706 -> 707 ;
708 [label="annee <= 2012.5\ngini = 0.295\nsamples = 39\nvalue = [32, 7]"] ;
706 -> 708 ;
709 [label="Music <= 0.5\ngini = 0.213\nsamples = 33\nvalue = [29, 4]"] ;
708 -> 709 ;
710 [label="annee <= 2008.5\ngini = 0.17\nsamples = 32\nvalue = [29, 3]"] ;
709 -> 710 ;
711 [label="gini = 0.0\nsamples = 16\nvalue = [16, 0]"] ;
710 -> 711 ;
712 [label="annee <= 2009.5\ngini = 0.305\nsamples = 16\nvalue = [13, 3]"] ;
710 -> 712 ;
713 [label="Duree <= 108.5\ngini = 0.5\nsamples = 4\nvalue = [2, 2]"] ;
712 -> 713 ;
714 [label="gini = 0.0\nsamples = 2\nvalue = [0, 2]"] ;
713 -> 714 ;
715 [label="gini = 0.0\nsamples = 2\nvalue = [2, 0]"] ;
713 -> 715 ;
716 [label="Romance <= 0.5\ngini = 0.153\nsamples = 12\nvalue = [11, 1]"] ;
712 -> 716 ;
717 [label="gini = 0.0\nsamples = 7\nvalue = [7, 0]"] ;
716 -> 717 ;
718 [label="budget <= 37500000.0\ngini = 0.32\nsamples = 5\nvalue = [4, 1]"] ;
716 -> 718 ;
719 [label="Duree <= 108.5\ngini = 0.444\nsamples = 3\nvalue = [2, 1]"] ;
718 -> 719 ;
720 [label="gini = 0.0\nsamples = 2\nvalue = [2, 0]"] ;
719 -> 720 ;
721 [label="gini = 0.0\nsamples = 1\nvalue = [0, 1]"] ;
719 -> 721 ;
722 [label="gini = 0.0\nsamples = 2\nvalue = [2, 0]"] ;
718 -> 722 ;
723 [label="gini = 0.0\nsamples = 1\nvalue = [0, 1]"] ;
709 -> 723 ;
724 [label="Romance <= 0.5\ngini = 0.5\nsamples = 6\nvalue = [3, 3]"] ;
708 -> 724 ;
725 [label="Duree <= 108.0\ngini = 0.375\nsamples = 4\nvalue = [1, 3]"] ;
724 -> 725 ;
726 [label="gini = 0.0\nsamples = 3\nvalue = [0, 3]"] ;
725 -> 726 ;
727 [label="gini = 0.0\nsamples = 1\nvalue = [1, 0]"] ;
725 -> 727 ;
728 [label="gini = 0.0\nsamples = 2\nvalue = [2, 0]"] ;
724 -> 728 ;
729 [label="gini = 0.0\nsamples = 2\nvalue = [0, 2]"] ;
705 -> 729 ;
730 [label="annee <= 2001.0\ngini = 0.469\nsamples = 16\nvalue = [6, 10]"] ;
704 -> 730 ;
731 [label="gini = 0.0\nsamples = 2\nvalue = [2, 0]"] ;
730 -> 731 ;
732 [label="annee <= 2007.5\ngini = 0.408\nsamples = 14\nvalue = [4, 10]"] ;
730 -> 732 ;
733 [label="gini = 0.0\nsamples = 5\nvalue = [0, 5]"] ;
732 -> 733 ;
734 [label="annee <= 2008.5\ngini = 0.494\nsamples = 9\nvalue = [4, 5]"] ;
732 -> 734 ;
735 [label="gini = 0.0\nsamples = 2\nvalue = [2, 0]"] ;
734 -> 735 ;
736 [label="Adventure <= 0.5\ngini = 0.408\nsamples = 7\nvalue = [2, 5]"] ;
734 -> 736 ;
737 [label="gini = 0.0\nsamples = 5\nvalue = [0, 5]"] ;
736 -> 737 ;
738 [label="gini = 0.0\nsamples = 2\nvalue = [2, 0]"] ;
736 -> 738 ;
739 [label="budget <= 95000000.0\ngini = 0.291\nsamples = 34\nvalue = [28, 6]"] ;
703 -> 739 ;
740 [label="Sci-Fi <= 0.5\ngini = 0.159\nsamples = 23\nvalue = [21, 2]"] ;
739 -> 740 ;
741 [label="annee <= 2009.5\ngini = 0.245\nsamples = 14\nvalue = [12, 2]"] ;
740 -> 741 ;
742 [label="Romance <= 0.5\ngini = 0.375\nsamples = 8\nvalue = [6, 2]"] ;
741 -> 742 ;
743 [label="Fantasy <= 0.5\ngini = 0.48\nsamples = 5\nvalue = [3, 2]"] ;
742 -> 743 ;
744 [label="annee <= 2003.5\ngini = 0.444\nsamples = 3\nvalue = [1, 2]"] ;
743 -> 744 ;
745 [label="gini = 0.0\nsamples = 1\nvalue = [1, 0]"] ;
744 -> 745 ;
746 [label="gini = 0.0\nsamples = 2\nvalue = [0, 2]"] ;
744 -> 746 ;
747 [label="gini = 0.0\nsamples = 2\nvalue = [2, 0]"] ;
743 -> 747 ;
748 [label="gini = 0.0\nsamples = 3\nvalue = [3, 0]"] ;
742 -> 748 ;
749 [label="gini = 0.0\nsamples = 6\nvalue = [6, 0]"] ;
741 -> 749 ;
750 [label="gini = 0.0\nsamples = 9\nvalue = [9, 0]"] ;
740 -> 750 ;
751 [label="Adventure <= 0.5\ngini = 0.463\nsamples = 11\nvalue = [7, 4]"] ;
739 -> 751 ;
752 [label="gini = 0.0\nsamples = 3\nvalue = [3, 0]"] ;
751 -> 752 ;
753 [label="annee <= 2005.0\ngini = 0.5\nsamples = 8\nvalue = [4, 4]"] ;
751 -> 753 ;
754 [label="gini = 0.0\nsamples = 2\nvalue = [0, 2]"] ;
753 -> 754 ;
755 [label="Fantasy <= 0.5\ngini = 0.444\nsamples = 6\nvalue = [4, 2]"] ;
753 -> 755 ;
756 [label="gini = 0.0\nsamples = 2\nvalue = [0, 2]"] ;
755 -> 756 ;
757 [label="gini = 0.0\nsamples = 4\nvalue = [4, 0]"] ;
755 -> 757 ;
758 [label="budget <= 48500000.0\ngini = 0.444\nsamples = 3\nvalue = [1, 2]"] ;
638 -> 758 ;
759 [label="gini = 0.0\nsamples = 2\nvalue = [0, 2]"] ;
758 -> 759 ;
760 [label="gini = 0.0\nsamples = 1\nvalue = [1, 0]"] ;
758 -> 760 ;
761 [label="gini = 0.0\nsamples = 1\nvalue = [0, 1]"] ;
637 -> 761 ;
762 [label="budget <= 19500000.0\ngini = 0.468\nsamples = 59\nvalue = [37, 22]"] ;
636 -> 762 ;
763 [label="annee <= 2006.0\ngini = 0.444\nsamples = 15\nvalue = [5, 10]"] ;
762 -> 763 ;
764 [label="Fantasy <= 0.5\ngini = 0.198\nsamples = 9\nvalue = [1, 8]"] ;
763 -> 764 ;
765 [label="gini = 0.0\nsamples = 8\nvalue = [0, 8]"] ;
764 -> 765 ;
766 [label="gini = 0.0\nsamples = 1\nvalue = [1, 0]"] ;
764 -> 766 ;
767 [label="Duree <= 109.0\ngini = 0.444\nsamples = 6\nvalue = [4, 2]"] ;
763 -> 767 ;
768 [label="budget <= 11250000.0\ngini = 0.32\nsamples = 5\nvalue = [4, 1]"] ;
767 -> 768 ;
769 [label="annee <= 2009.0\ngini = 0.5\nsamples = 2\nvalue = [1, 1]"] ;
768 -> 769 ;
770 [label="gini = 0.0\nsamples = 1\nvalue = [1, 0]"] ;
769 -> 770 ;
771 [label="gini = 0.0\nsamples = 1\nvalue = [0, 1]"] ;
769 -> 771 ;
772 [label="gini = 0.0\nsamples = 3\nvalue = [3, 0]"] ;
768 -> 772 ;
773 [label="gini = 0.0\nsamples = 1\nvalue = [0, 1]"] ;
767 -> 773 ;
774 [label="Thriller <= 0.5\ngini = 0.397\nsamples = 44\nvalue = [32, 12]"] ;
762 -> 774 ;
775 [label="budget <= 36000000.0\ngini = 0.497\nsamples = 13\nvalue = [6, 7]"] ;
774 -> 775 ;
776 [label="gini = 0.0\nsamples = 6\nvalue = [0, 6]"] ;
775 -> 776 ;
777 [label="annee <= 2011.5\ngini = 0.245\nsamples = 7\nvalue = [6, 1]"] ;
775 -> 777 ;
778 [label="gini = 0.0\nsamples = 5\nvalue = [5, 0]"] ;
777 -> 778 ;
779 [label="Action <= 0.5\ngini = 0.5\nsamples = 2\nvalue = [1, 1]"] ;
777 -> 779 ;
780 [label="gini = 0.0\nsamples = 1\nvalue = [1, 0]"] ;
779 -> 780 ;
781 [label="gini = 0.0\nsamples = 1\nvalue = [0, 1]"] ;
779 -> 781 ;
782 [label="budget <= 30125000.0\ngini = 0.271\nsamples = 31\nvalue = [26, 5]"] ;
774 -> 782 ;
783 [label="gini = 0.0\nsamples = 15\nvalue = [15, 0]"] ;
782 -> 783 ;
784 [label="annee <= 2010.5\ngini = 0.43\nsamples = 16\nvalue = [11, 5]"] ;
782 -> 784 ;
785 [label="budget <= 32075000.0\ngini = 0.337\nsamples = 14\nvalue = [11, 3]"] ;
784 -> 785 ;
786 [label="gini = 0.0\nsamples = 1\nvalue = [0, 1]"] ;
785 -> 786 ;
787 [label="Duree <= 109.5\ngini = 0.26\nsamples = 13\nvalue = [11, 2]"] ;
785 -> 787 ;
788 [label="annee <= 2002.0\ngini = 0.165\nsamples = 11\nvalue = [10, 1]"] ;
787 -> 788 ;
789 [label="annee <= 2000.0\ngini = 0.444\nsamples = 3\nvalue = [2, 1]"] ;
788 -> 789 ;
790 [label="gini = 0.0\nsamples = 2\nvalue = [2, 0]"] ;
789 -> 790 ;
791 [label="gini = 0.0\nsamples = 1\nvalue = [0, 1]"] ;
789 -> 791 ;
792 [label="gini = 0.0\nsamples = 8\nvalue = [8, 0]"] ;
788 -> 792 ;
793 [label="Adventure <= 0.5\ngini = 0.5\nsamples = 2\nvalue = [1, 1]"] ;
787 -> 793 ;
794 [label="gini = 0.0\nsamples = 1\nvalue = [0, 1]"] ;
793 -> 794 ;
795 [label="gini = 0.0\nsamples = 1\nvalue = [1, 0]"] ;
793 -> 795 ;
796 [label="gini = 0.0\nsamples = 2\nvalue = [0, 2]"] ;
784 -> 796 ;
797 [label="gini = 0.0\nsamples = 2\nvalue = [0, 2]"] ;
635 -> 797 ;
798 [label="budget <= 19000000.0\ngini = 0.465\nsamples = 152\nvalue = [56, 96]"] ;
128 -> 798 ;
799 [label="Thriller <= 0.5\ngini = 0.142\nsamples = 13\nvalue = [1, 12]"] ;
798 -> 799 ;
800 [label="gini = 0.0\nsamples = 10\nvalue = [0, 10]"] ;
799 -> 800 ;
801 [label="Adventure <= 0.5\ngini = 0.444\nsamples = 3\nvalue = [1, 2]"] ;
799 -> 801 ;
802 [label="gini = 0.0\nsamples = 2\nvalue = [0, 2]"] ;
801 -> 802 ;
803 [label="gini = 0.0\nsamples = 1\nvalue = [1, 0]"] ;
801 -> 803 ;
804 [label="budget <= 82500000.0\ngini = 0.478\nsamples = 139\nvalue = [55, 84]"] ;
798 -> 804 ;
805 [label="Duree <= 95.5\ngini = 0.5\nsamples = 74\nvalue = [37, 37]"] ;
804 -> 805 ;
806 [label="annee <= 2000.5\ngini = 0.496\nsamples = 64\nvalue = [35, 29]"] ;
805 -> 806 ;
807 [label="Fantasy <= 0.5\ngini = 0.43\nsamples = 16\nvalue = [5, 11]"] ;
806 -> 807 ;
808 [label="gini = 0.0\nsamples = 5\nvalue = [0, 5]"] ;
807 -> 808 ;
809 [label="Duree <= 84.5\ngini = 0.496\nsamples = 11\nvalue = [5, 6]"] ;
807 -> 809 ;
810 [label="annee <= 1987.0\ngini = 0.32\nsamples = 5\nvalue = [1, 4]"] ;
809 -> 810 ;
811 [label="gini = 0.0\nsamples = 1\nvalue = [1, 0]"] ;
810 -> 811 ;
812 [label="gini = 0.0\nsamples = 4\nvalue = [0, 4]"] ;
810 -> 812 ;
813 [label="annee <= 1993.0\ngini = 0.444\nsamples = 6\nvalue = [4, 2]"] ;
809 -> 813 ;
814 [label="gini = 0.0\nsamples = 2\nvalue = [0, 2]"] ;
813 -> 814 ;
815 [label="gini = 0.0\nsamples = 4\nvalue = [4, 0]"] ;
813 -> 815 ;
816 [label="Duree <= 88.5\ngini = 0.469\nsamples = 48\nvalue = [30, 18]"] ;
806 -> 816 ;
817 [label="Fantasy <= 0.5\ngini = 0.5\nsamples = 26\nvalue = [13, 13]"] ;
816 -> 817 ;
818 [label="Duree <= 84.5\ngini = 0.444\nsamples = 18\nvalue = [6, 12]"] ;
817 -> 818 ;
819 [label="Duree <= 67.5\ngini = 0.408\nsamples = 7\nvalue = [5, 2]"] ;
818 -> 819 ;
820 [label="gini = 0.0\nsamples = 1\nvalue = [0, 1]"] ;
819 -> 820 ;
821 [label="budget <= 65000000.0\ngini = 0.278\nsamples = 6\nvalue = [5, 1]"] ;
819 -> 821 ;
822 [label="gini = 0.0\nsamples = 4\nvalue = [4, 0]"] ;
821 -> 822 ;
823 [label="annee <= 2008.0\ngini = 0.5\nsamples = 2\nvalue = [1, 1]"] ;
821 -> 823 ;
824 [label="gini = 0.0\nsamples = 1\nvalue = [0, 1]"] ;
823 -> 824 ;
825 [label="gini = 0.0\nsamples = 1\nvalue = [1, 0]"] ;
823 -> 825 ;
826 [label="annee <= 2013.0\ngini = 0.165\nsamples = 11\nvalue = [1, 10]"] ;
818 -> 826 ;
827 [label="gini = 0.0\nsamples = 9\nvalue = [0, 9]"] ;
826 -> 827 ;
828 [label="annee <= 2014.5\ngini = 0.5\nsamples = 2\nvalue = [1, 1]"] ;
826 -> 828 ;
829 [label="gini = 0.0\nsamples = 1\nvalue = [1, 0]"] ;
828 -> 829 ;
830 [label="gini = 0.0\nsamples = 1\nvalue = [0, 1]"] ;
828 -> 830 ;
831 [label="Romance <= 0.5\ngini = 0.219\nsamples = 8\nvalue = [7, 1]"] ;
817 -> 831 ;
832 [label="gini = 0.0\nsamples = 7\nvalue = [7, 0]"] ;
831 -> 832 ;
833 [label="gini = 0.0\nsamples = 1\nvalue = [0, 1]"] ;
831 -> 833 ;
834 [label="Fantasy <= 0.5\ngini = 0.351\nsamples = 22\nvalue = [17, 5]"] ;
816 -> 834 ;
835 [label="gini = 0.0\nsamples = 11\nvalue = [11, 0]"] ;
834 -> 835 ;
836 [label="budget <= 61500000.0\ngini = 0.496\nsamples = 11\nvalue = [6, 5]"] ;
834 -> 836 ;
837 [label="Adventure <= 0.5\ngini = 0.32\nsamples = 5\nvalue = [1, 4]"] ;
836 -> 837 ;
838 [label="gini = 0.0\nsamples = 1\nvalue = [1, 0]"] ;
837 -> 838 ;
839 [label="gini = 0.0\nsamples = 4\nvalue = [0, 4]"] ;
837 -> 839 ;
840 [label="Mystery <= 0.5\ngini = 0.278\nsamples = 6\nvalue = [5, 1]"] ;
836 -> 840 ;
841 [label="gini = 0.0\nsamples = 5\nvalue = [5, 0]"] ;
840 -> 841 ;
842 [label="gini = 0.0\nsamples = 1\nvalue = [0, 1]"] ;
840 -> 842 ;
843 [label="Mystery <= 0.5\ngini = 0.32\nsamples = 10\nvalue = [2, 8]"] ;
805 -> 843 ;
844 [label="Duree <= 103.5\ngini = 0.198\nsamples = 9\nvalue = [1, 8]"] ;
843 -> 844 ;
845 [label="gini = 0.0\nsamples = 7\nvalue = [0, 7]"] ;
844 -> 845 ;
846 [label="Adventure <= 0.5\ngini = 0.5\nsamples = 2\nvalue = [1, 1]"] ;
844 -> 846 ;
847 [label="gini = 0.0\nsamples = 1\nvalue = [0, 1]"] ;
846 -> 847 ;
848 [label="gini = 0.0\nsamples = 1\nvalue = [1, 0]"] ;
846 -> 848 ;
849 [label="gini = 0.0\nsamples = 1\nvalue = [1, 0]"] ;
843 -> 849 ;
850 [label="Duree <= 84.5\ngini = 0.4\nsamples = 65\nvalue = [18, 47]"] ;
804 -> 850 ;
851 [label="annee <= 2001.0\ngini = 0.375\nsamples = 8\nvalue = [6, 2]"] ;
850 -> 851 ;
852 [label="budget <= 113750000.0\ngini = 0.444\nsamples = 3\nvalue = [1, 2]"] ;
851 -> 852 ;
853 [label="gini = 0.0\nsamples = 2\nvalue = [0, 2]"] ;
852 -> 853 ;
854 [label="gini = 0.0\nsamples = 1\nvalue = [1, 0]"] ;
852 -> 854 ;
855 [label="gini = 0.0\nsamples = 5\nvalue = [5, 0]"] ;
851 -> 855 ;
856 [label="Duree <= 104.5\ngini = 0.332\nsamples = 57\nvalue = [12, 45]"] ;
850 -> 856 ;
857 [label="budget <= 101500000.0\ngini = 0.269\nsamples = 50\nvalue = [8, 42]"] ;
856 -> 857 ;
858 [label="gini = 0.0\nsamples = 11\nvalue = [0, 11]"] ;
857 -> 858 ;
859 [label="budget <= 112500000.0\ngini = 0.326\nsamples = 39\nvalue = [8, 31]"] ;
857 -> 859 ;
860 [label="annee <= 2010.0\ngini = 0.444\nsamples = 3\nvalue = [2, 1]"] ;
859 -> 860 ;
861 [label="gini = 0.0\nsamples = 1\nvalue = [0, 1]"] ;
860 -> 861 ;
862 [label="gini = 0.0\nsamples = 2\nvalue = [2, 0]"] ;
860 -> 862 ;
863 [label="Sport <= 0.5\ngini = 0.278\nsamples = 36\nvalue = [6, 30]"] ;
859 -> 863 ;
864 [label="Duree <= 93.5\ngini = 0.245\nsamples = 35\nvalue = [5, 30]"] ;
863 -> 864 ;
865 [label="budget <= 149500000.0\ngini = 0.391\nsamples = 15\nvalue = [4, 11]"] ;
864 -> 865 ;
866 [label="gini = 0.0\nsamples = 8\nvalue = [0, 8]"] ;
865 -> 866 ;
867 [label="budget <= 175000000.0\ngini = 0.49\nsamples = 7\nvalue = [4, 3]"] ;
865 -> 867 ;
868 [label="annee <= 2005.5\ngini = 0.444\nsamples = 6\nvalue = [4, 2]"] ;
867 -> 868 ;
869 [label="gini = 0.0\nsamples = 1\nvalue = [0, 1]"] ;
868 -> 869 ;
870 [label="Action <= 0.5\ngini = 0.32\nsamples = 5\nvalue = [4, 1]"] ;
868 -> 870 ;
871 [label="gini = 0.0\nsamples = 3\nvalue = [3, 0]"] ;
870 -> 871 ;
872 [label="Duree <= 88.5\ngini = 0.5\nsamples = 2\nvalue = [1, 1]"] ;
870 -> 872 ;
873 [label="gini = 0.0\nsamples = 1\nvalue = [1, 0]"] ;
872 -> 873 ;
874 [label="gini = 0.0\nsamples = 1\nvalue = [0, 1]"] ;
872 -> 874 ;
875 [label="gini = 0.0\nsamples = 1\nvalue = [0, 1]"] ;
867 -> 875 ;
876 [label="budget <= 132500000.0\ngini = 0.095\nsamples = 20\nvalue = [1, 19]"] ;
864 -> 876 ;
877 [label="annee <= 2010.5\ngini = 0.444\nsamples = 3\nvalue = [1, 2]"] ;
876 -> 877 ;
878 [label="gini = 0.0\nsamples = 2\nvalue = [0, 2]"] ;
877 -> 878 ;
879 [label="gini = 0.0\nsamples = 1\nvalue = [1, 0]"] ;
877 -> 879 ;
880 [label="gini = 0.0\nsamples = 17\nvalue = [0, 17]"] ;
876 -> 880 ;
881 [label="gini = 0.0\nsamples = 1\nvalue = [1, 0]"] ;
863 -> 881 ;
882 [label="Duree <= 106.5\ngini = 0.49\nsamples = 7\nvalue = [4, 3]"] ;
856 -> 882 ;
883 [label="gini = 0.0\nsamples = 3\nvalue = [3, 0]"] ;
882 -> 883 ;
884 [label="annee <= 2006.5\ngini = 0.375\nsamples = 4\nvalue = [1, 3]"] ;
882 -> 884 ;
885 [label="gini = 0.0\nsamples = 1\nvalue = [1, 0]"] ;
884 -> 885 ;
886 [label="gini = 0.0\nsamples = 3\nvalue = [0, 3]"] ;
884 -> 886 ;
887 [label="Duree <= 134.5\ngini = 0.49\nsamples = 512\nvalue = [219, 293]"] ;
127 -> 887 ;
888 [label="annee <= 1992.5\ngini = 0.5\nsamples = 398\nvalue = [193, 205]"] ;
887 -> 888 ;
889 [label="Family <= 0.5\ngini = 0.355\nsamples = 39\nvalue = [9, 30]"] ;
888 -> 889 ;
890 [label="Duree <= 115.5\ngini = 0.307\nsamples = 37\nvalue = [7, 30]"] ;
889 -> 890 ;
891 [label="annee <= 1987.5\ngini = 0.5\nsamples = 8\nvalue = [4, 4]"] ;
890 -> 891 ;
892 [label="gini = 0.0\nsamples = 2\nvalue = [0, 2]"] ;
891 -> 892 ;
893 [label="budget <= 26500000.0\ngini = 0.444\nsamples = 6\nvalue = [4, 2]"] ;
891 -> 893 ;
894 [label="gini = 0.0\nsamples = 3\nvalue = [3, 0]"] ;
893 -> 894 ;
895 [label="annee <= 1990.5\ngini = 0.444\nsamples = 3\nvalue = [1, 2]"] ;
893 -> 895 ;
896 [label="Comedy <= 0.5\ngini = 0.5\nsamples = 2\nvalue = [1, 1]"] ;
895 -> 896 ;
897 [label="gini = 0.0\nsamples = 1\nvalue = [0, 1]"] ;
896 -> 897 ;
898 [label="gini = 0.0\nsamples = 1\nvalue = [1, 0]"] ;
896 -> 898 ;
899 [label="gini = 0.0\nsamples = 1\nvalue = [0, 1]"] ;
895 -> 899 ;
900 [label="Horror <= 0.5\ngini = 0.185\nsamples = 29\nvalue = [3, 26]"] ;
890 -> 900 ;
901 [label="annee <= 1985.5\ngini = 0.071\nsamples = 27\nvalue = [1, 26]"] ;
900 -> 901 ;
902 [label="budget <= 24500000.0\ngini = 0.5\nsamples = 2\nvalue = [1, 1]"] ;
901 -> 902 ;
903 [label="gini = 0.0\nsamples = 1\nvalue = [0, 1]"] ;
902 -> 903 ;
904 [label="gini = 0.0\nsamples = 1\nvalue = [1, 0]"] ;
902 -> 904 ;
905 [label="gini = 0.0\nsamples = 25\nvalue = [0, 25]"] ;
901 -> 905 ;
906 [label="gini = 0.0\nsamples = 2\nvalue = [2, 0]"] ;
900 -> 906 ;
907 [label="gini = 0.0\nsamples = 2\nvalue = [2, 0]"] ;
889 -> 907 ;
908 [label="budget <= 21170000.0\ngini = 0.5\nsamples = 359\nvalue = [184, 175]"] ;
888 -> 908 ;
909 [label="Horror <= 0.5\ngini = 0.448\nsamples = 56\nvalue = [19, 37]"] ;
908 -> 909 ;
910 [label="Action <= 0.5\ngini = 0.381\nsamples = 43\nvalue = [11, 32]"] ;
909 -> 910 ;
911 [label="budget <= 19105000.0\ngini = 0.313\nsamples = 36\nvalue = [7, 29]"] ;
910 -> 911 ;
912 [label="Comedy <= 0.5\ngini = 0.257\nsamples = 33\nvalue = [5, 28]"] ;
911 -> 912 ;
913 [label="Music <= 0.5\ngini = 0.391\nsamples = 15\nvalue = [4, 11]"] ;
912 -> 913 ;
914 [label="Duree <= 126.0\ngini = 0.337\nsamples = 14\nvalue = [3, 11]"] ;
913 -> 914 ;
915 [label="Mystery <= 0.5\ngini = 0.26\nsamples = 13\nvalue = [2, 11]"] ;
914 -> 915 ;
916 [label="gini = 0.0\nsamples = 8\nvalue = [0, 8]"] ;
915 -> 916 ;
917 [label="annee <= 2001.5\ngini = 0.48\nsamples = 5\nvalue = [2, 3]"] ;
915 -> 917 ;
918 [label="gini = 0.0\nsamples = 2\nvalue = [0, 2]"] ;
917 -> 918 ;
919 [label="annee <= 2011.0\ngini = 0.444\nsamples = 3\nvalue = [2, 1]"] ;
917 -> 919 ;
920 [label="gini = 0.0\nsamples = 2\nvalue = [2, 0]"] ;
919 -> 920 ;
921 [label="gini = 0.0\nsamples = 1\nvalue = [0, 1]"] ;
919 -> 921 ;
922 [label="gini = 0.0\nsamples = 1\nvalue = [1, 0]"] ;
914 -> 922 ;
923 [label="gini = 0.0\nsamples = 1\nvalue = [1, 0]"] ;
913 -> 923 ;
924 [label="Fantasy <= 0.5\ngini = 0.105\nsamples = 18\nvalue = [1, 17]"] ;
912 -> 924 ;
925 [label="gini = 0.0\nsamples = 14\nvalue = [0, 14]"] ;
924 -> 925 ;
926 [label="Romance <= 0.5\ngini = 0.375\nsamples = 4\nvalue = [1, 3]"] ;
924 -> 926 ;
927 [label="gini = 0.0\nsamples = 3\nvalue = [0, 3]"] ;
926 -> 927 ;
928 [label="gini = 0.0\nsamples = 1\nvalue = [1, 0]"] ;
926 -> 928 ;
929 [label="annee <= 2009.0\ngini = 0.444\nsamples = 3\nvalue = [2, 1]"] ;
911 -> 929 ;
930 [label="gini = 0.0\nsamples = 1\nvalue = [0, 1]"] ;
929 -> 930 ;
931 [label="gini = 0.0\nsamples = 2\nvalue = [2, 0]"] ;
929 -> 931 ;
932 [label="budget <= 11120000.0\ngini = 0.49\nsamples = 7\nvalue = [4, 3]"] ;
910 -> 932 ;
933 [label="gini = 0.0\nsamples = 3\nvalue = [3, 0]"] ;
932 -> 933 ;
934 [label="annee <= 2000.0\ngini = 0.375\nsamples = 4\nvalue = [1, 3]"] ;
932 -> 934 ;
935 [label="gini = 0.0\nsamples = 1\nvalue = [1, 0]"] ;
934 -> 935 ;
936 [label="gini = 0.0\nsamples = 3\nvalue = [0, 3]"] ;
934 -> 936 ;
937 [label="budget <= 16500000.0\ngini = 0.473\nsamples = 13\nvalue = [8, 5]"] ;
909 -> 937 ;
938 [label="Duree <= 116.5\ngini = 0.397\nsamples = 11\nvalue = [8, 3]"] ;
937 -> 938 ;
939 [label="annee <= 2004.5\ngini = 0.5\nsamples = 6\nvalue = [3, 3]"] ;
938 -> 939 ;
940 [label="gini = 0.0\nsamples = 2\nvalue = [0, 2]"] ;
939 -> 940 ;
941 [label="budget <= 13250000.0\ngini = 0.375\nsamples = 4\nvalue = [3, 1]"] ;
939 -> 941 ;
942 [label="gini = 0.0\nsamples = 3\nvalue = [3, 0]"] ;
941 -> 942 ;
943 [label="gini = 0.0\nsamples = 1\nvalue = [0, 1]"] ;
941 -> 943 ;
944 [label="gini = 0.0\nsamples = 5\nvalue = [5, 0]"] ;
938 -> 944 ;
945 [label="gini = 0.0\nsamples = 2\nvalue = [0, 2]"] ;
937 -> 945 ;
946 [label="annee <= 2005.5\ngini = 0.496\nsamples = 303\nvalue = [165, 138]"] ;
908 -> 946 ;
947 [label="Comedy <= 0.5\ngini = 0.465\nsamples = 147\nvalue = [93, 54]"] ;
946 -> 947 ;
948 [label="budget <= 49000000.0\ngini = 0.489\nsamples = 101\nvalue = [58, 43]"] ;
947 -> 948 ;
949 [label="annee <= 2000.5\ngini = 0.488\nsamples = 26\nvalue = [11, 15]"] ;
948 -> 949 ;
950 [label="annee <= 1999.5\ngini = 0.494\nsamples = 18\nvalue = [10, 8]"] ;
949 -> 950 ;
951 [label="Duree <= 112.5\ngini = 0.498\nsamples = 15\nvalue = [7, 8]"] ;
950 -> 951 ;
952 [label="annee <= 1995.5\ngini = 0.32\nsamples = 5\nvalue = [4, 1]"] ;
951 -> 952 ;
953 [label="gini = 0.0\nsamples = 3\nvalue = [3, 0]"] ;
952 -> 953 ;
954 [label="budget <= 35000000.0\ngini = 0.5\nsamples = 2\nvalue = [1, 1]"] ;
952 -> 954 ;
955 [label="gini = 0.0\nsamples = 1\nvalue = [1, 0]"] ;
954 -> 955 ;
956 [label="gini = 0.0\nsamples = 1\nvalue = [0, 1]"] ;
954 -> 956 ;
957 [label="annee <= 1995.5\ngini = 0.42\nsamples = 10\nvalue = [3, 7]"] ;
951 -> 957 ;
958 [label="gini = 0.0\nsamples = 4\nvalue = [0, 4]"] ;
957 -> 958 ;
959 [label="annee <= 1998.5\ngini = 0.5\nsamples = 6\nvalue = [3, 3]"] ;
957 -> 959 ;
960 [label="gini = 0.0\nsamples = 3\nvalue = [3, 0]"] ;
959 -> 960 ;
961 [label="gini = 0.0\nsamples = 3\nvalue = [0, 3]"] ;
959 -> 961 ;
962 [label="gini = 0.0\nsamples = 3\nvalue = [3, 0]"] ;
950 -> 962 ;
963 [label="annee <= 2004.0\ngini = 0.219\nsamples = 8\nvalue = [1, 7]"] ;
949 -> 963 ;
964 [label="gini = 0.0\nsamples = 6\nvalue = [0, 6]"] ;
963 -> 964 ;
965 [label="Sci-Fi <= 0.5\ngini = 0.5\nsamples = 2\nvalue = [1, 1]"] ;
963 -> 965 ;
966 [label="gini = 0.0\nsamples = 1\nvalue = [1, 0]"] ;
965 -> 966 ;
967 [label="gini = 0.0\nsamples = 1\nvalue = [0, 1]"] ;
965 -> 967 ;
968 [label="War <= 0.5\ngini = 0.468\nsamples = 75\nvalue = [47, 28]"] ;
948 -> 968 ;
969 [label="annee <= 2004.5\ngini = 0.459\nsamples = 73\nvalue = [47, 26]"] ;
968 -> 969 ;
970 [label="Horror <= 0.5\ngini = 0.472\nsamples = 68\nvalue = [42, 26]"] ;
969 -> 970 ;
971 [label="annee <= 2000.5\ngini = 0.485\nsamples = 63\nvalue = [37, 26]"] ;
970 -> 971 ;
972 [label="annee <= 1994.5\ngini = 0.431\nsamples = 35\nvalue = [24, 11]"] ;
971 -> 972 ;
973 [label="budget <= 64000000.0\ngini = 0.375\nsamples = 4\nvalue = [1, 3]"] ;
972 -> 973 ;
974 [label="gini = 0.0\nsamples = 3\nvalue = [0, 3]"] ;
973 -> 974 ;
975 [label="gini = 0.0\nsamples = 1\nvalue = [1, 0]"] ;
973 -> 975 ;
976 [label="Duree <= 120.0\ngini = 0.383\nsamples = 31\nvalue = [23, 8]"] ;
972 -> 976 ;
977 [label="gini = 0.0\nsamples = 7\nvalue = [7, 0]"] ;
976 -> 977 ;
978 [label="annee <= 1999.5\ngini = 0.444\nsamples = 24\nvalue = [16, 8]"] ;
976 -> 978 ;
979 [label="Duree <= 131.5\ngini = 0.48\nsamples = 20\nvalue = [12, 8]"] ;
978 -> 979 ;
980 [label="budget <= 96500000.0\ngini = 0.498\nsamples = 17\nvalue = [9, 8]"] ;
979 -> 980 ;
981 [label="Duree <= 123.5\ngini = 0.486\nsamples = 12\nvalue = [5, 7]"] ;
980 -> 981 ;
982 [label="gini = 0.0\nsamples = 3\nvalue = [0, 3]"] ;
981 -> 982 ;
983 [label="budget <= 85000000.0\ngini = 0.494\nsamples = 9\nvalue = [5, 4]"] ;
981 -> 983 ;
984 [label="annee <= 1996.0\ngini = 0.408\nsamples = 7\nvalue = [5, 2]"] ;
983 -> 984 ;
985 [label="gini = 0.0\nsamples = 1\nvalue = [0, 1]"] ;
984 -> 985 ;
986 [label="annee <= 1998.5\ngini = 0.278\nsamples = 6\nvalue = [5, 1]"] ;
984 -> 986 ;
987 [label="gini = 0.0\nsamples = 5\nvalue = [5, 0]"] ;
986 -> 987 ;
988 [label="gini = 0.0\nsamples = 1\nvalue = [0, 1]"] ;
986 -> 988 ;
989 [label="gini = 0.0\nsamples = 2\nvalue = [0, 2]"] ;
983 -> 989 ;
990 [label="Duree <= 126.0\ngini = 0.32\nsamples = 5\nvalue = [4, 1]"] ;
980 -> 990 ;
991 [label="gini = 0.0\nsamples = 3\nvalue = [3, 0]"] ;
990 -> 991 ;
992 [label="Adventure <= 0.5\ngini = 0.5\nsamples = 2\nvalue = [1, 1]"] ;
990 -> 992 ;
993 [label="gini = 0.0\nsamples = 1\nvalue = [0, 1]"] ;
992 -> 993 ;
994 [label="gini = 0.0\nsamples = 1\nvalue = [1, 0]"] ;
992 -> 994 ;
995 [label="gini = 0.0\nsamples = 3\nvalue = [3, 0]"] ;
979 -> 995 ;
996 [label="gini = 0.0\nsamples = 4\nvalue = [4, 0]"] ;
978 -> 996 ;
997 [label="Duree <= 115.5\ngini = 0.497\nsamples = 28\nvalue = [13, 15]"] ;
971 -> 997 ;
998 [label="gini = 0.0\nsamples = 4\nvalue = [0, 4]"] ;
997 -> 998 ;
999 [label="Duree <= 133.5\ngini = 0.497\nsamples = 24\nvalue = [13, 11]"] ;
997 -> 999 ;
1000 [label="Adventure <= 0.5\ngini = 0.483\nsamples = 22\nvalue = [13, 9]"] ;
999 -> 1000 ;
1001 [label="annee <= 2002.5\ngini = 0.48\nsamples = 10\nvalue = [4, 6]"] ;
1000 -> 1001 ;
1002 [label="gini = 0.0\nsamples = 4\nvalue = [0, 4]"] ;
1001 -> 1002 ;
1003 [label="Thriller <= 0.5\ngini = 0.444\nsamples = 6\nvalue = [4, 2]"] ;
1001 -> 1003 ;
1004 [label="gini = 0.0\nsamples = 2\nvalue = [0, 2]"] ;
1003 -> 1004 ;
1005 [label="gini = 0.0\nsamples = 4\nvalue = [4, 0]"] ;
1003 -> 1005 ;
1006 [label="budget <= 99000000.0\ngini = 0.375\nsamples = 12\nvalue = [9, 3]"] ;
1000 -> 1006 ;
1007 [label="gini = 0.0\nsamples = 5\nvalue = [5, 0]"] ;
1006 -> 1007 ;
1008 [label="budget <= 140500000.0\ngini = 0.49\nsamples = 7\nvalue = [4, 3]"] ;
1006 -> 1008 ;
1009 [label="Sci-Fi <= 0.5\ngini = 0.48\nsamples = 5\nvalue = [2, 3]"] ;
1008 -> 1009 ;
1010 [label="gini = 0.0\nsamples = 2\nvalue = [0, 2]"] ;
1009 -> 1010 ;
1011 [label="Fantasy <= 0.5\ngini = 0.444\nsamples = 3\nvalue = [2, 1]"] ;
1009 -> 1011 ;
1012 [label="gini = 0.0\nsamples = 2\nvalue = [2, 0]"] ;
1011 -> 1012 ;
1013 [label="gini = 0.0\nsamples = 1\nvalue = [0, 1]"] ;
1011 -> 1013 ;
1014 [label="gini = 0.0\nsamples = 2\nvalue = [2, 0]"] ;
1008 -> 1014 ;
1015 [label="gini = 0.0\nsamples = 2\nvalue = [0, 2]"] ;
999 -> 1015 ;
1016 [label="gini = 0.0\nsamples = 5\nvalue = [5, 0]"] ;
970 -> 1016 ;
1017 [label="gini = 0.0\nsamples = 5\nvalue = [5, 0]"] ;
969 -> 1017 ;
1018 [label="gini = 0.0\nsamples = 2\nvalue = [0, 2]"] ;
968 -> 1018 ;
1019 [label="annee <= 1998.5\ngini = 0.364\nsamples = 46\nvalue = [35, 11]"] ;
947 -> 1019 ;
1020 [label="annee <= 1993.5\ngini = 0.5\nsamples = 12\nvalue = [6, 6]"] ;
1019 -> 1020 ;
1021 [label="gini = 0.0\nsamples = 2\nvalue = [2, 0]"] ;
1020 -> 1021 ;
1022 [label="budget <= 35500000.0\ngini = 0.48\nsamples = 10\nvalue = [4, 6]"] ;
1020 -> 1022 ;
1023 [label="Music <= 0.5\ngini = 0.32\nsamples = 5\nvalue = [1, 4]"] ;
1022 -> 1023 ;
1024 [label="gini = 0.0\nsamples = 4\nvalue = [0, 4]"] ;
1023 -> 1024 ;
1025 [label="gini = 0.0\nsamples = 1\nvalue = [1, 0]"] ;
1023 -> 1025 ;
1026 [label="budget <= 46500000.0\ngini = 0.48\nsamples = 5\nvalue = [3, 2]"] ;
1022 -> 1026 ;
1027 [label="gini = 0.0\nsamples = 2\nvalue = [2, 0]"] ;
1026 -> 1027 ;
1028 [label="budget <= 86500000.0\ngini = 0.444\nsamples = 3\nvalue = [1, 2]"] ;
1026 -> 1028 ;
1029 [label="gini = 0.0\nsamples = 2\nvalue = [0, 2]"] ;
1028 -> 1029 ;
1030 [label="gini = 0.0\nsamples = 1\nvalue = [1, 0]"] ;
1028 -> 1030 ;
1031 [label="Duree <= 127.5\ngini = 0.251\nsamples = 34\nvalue = [29, 5]"] ;
1019 -> 1031 ;
1032 [label="budget <= 140000000.0\ngini = 0.175\nsamples = 31\nvalue = [28, 3]"] ;
1031 -> 1032 ;
1033 [label="Musical <= 0.5\ngini = 0.124\nsamples = 30\nvalue = [28, 2]"] ;
1032 -> 1033 ;
1034 [label="annee <= 2004.5\ngini = 0.067\nsamples = 29\nvalue = [28, 1]"] ;
1033 -> 1034 ;
1035 [label="gini = 0.0\nsamples = 21\nvalue = [21, 0]"] ;
1034 -> 1035 ;
1036 [label="Romance <= 0.5\ngini = 0.219\nsamples = 8\nvalue = [7, 1]"] ;
1034 -> 1036 ;
1037 [label="gini = 0.0\nsamples = 6\nvalue = [6, 0]"] ;
1036 -> 1037 ;
1038 [label="Thriller <= 0.5\ngini = 0.5\nsamples = 2\nvalue = [1, 1]"] ;
1036 -> 1038 ;
1039 [label="gini = 0.0\nsamples = 1\nvalue = [0, 1]"] ;
1038 -> 1039 ;
1040 [label="gini = 0.0\nsamples = 1\nvalue = [1, 0]"] ;
1038 -> 1040 ;
1041 [label="gini = 0.0\nsamples = 1\nvalue = [0, 1]"] ;
1033 -> 1041 ;
1042 [label="gini = 0.0\nsamples = 1\nvalue = [0, 1]"] ;
1032 -> 1042 ;
1043 [label="Musical <= 0.5\ngini = 0.444\nsamples = 3\nvalue = [1, 2]"] ;
1031 -> 1043 ;
1044 [label="gini = 0.0\nsamples = 2\nvalue = [0, 2]"] ;
1043 -> 1044 ;
1045 [label="gini = 0.0\nsamples = 1\nvalue = [1, 0]"] ;
1043 -> 1045 ;
1046 [label="Action <= 0.5\ngini = 0.497\nsamples = 156\nvalue = [72, 84]"] ;
946 -> 1046 ;
1047 [label="annee <= 2007.5\ngini = 0.465\nsamples = 57\nvalue = [36, 21]"] ;
1046 -> 1047 ;
1048 [label="Duree <= 116.5\ngini = 0.444\nsamples = 12\nvalue = [4, 8]"] ;
1047 -> 1048 ;
1049 [label="Thriller <= 0.5\ngini = 0.5\nsamples = 8\nvalue = [4, 4]"] ;
1048 -> 1049 ;
1050 [label="budget <= 32500000.0\ngini = 0.444\nsamples = 6\nvalue = [4, 2]"] ;
1049 -> 1050 ;
1051 [label="gini = 0.0\nsamples = 1\nvalue = [0, 1]"] ;
1050 -> 1051 ;
1052 [label="Animation <= 0.5\ngini = 0.32\nsamples = 5\nvalue = [4, 1]"] ;
1050 -> 1052 ;
1053 [label="gini = 0.0\nsamples = 4\nvalue = [4, 0]"] ;
1052 -> 1053 ;
1054 [label="gini = 0.0\nsamples = 1\nvalue = [0, 1]"] ;
1052 -> 1054 ;
1055 [label="gini = 0.0\nsamples = 2\nvalue = [0, 2]"] ;
1049 -> 1055 ;
1056 [label="gini = 0.0\nsamples = 4\nvalue = [0, 4]"] ;
1048 -> 1056 ;
1057 [label="Duree <= 119.5\ngini = 0.411\nsamples = 45\nvalue = [32, 13]"] ;
1047 -> 1057 ;
1058 [label="Music <= 0.5\ngini = 0.285\nsamples = 29\nvalue = [24, 5]"] ;
1057 -> 1058 ;
1059 [label="Sci-Fi <= 0.5\ngini = 0.198\nsamples = 27\nvalue = [24, 3]"] ;
1058 -> 1059 ;
1060 [label="annee <= 2011.5\ngini = 0.147\nsamples = 25\nvalue = [23, 2]"] ;
1059 -> 1060 ;
1061 [label="gini = 0.0\nsamples = 13\nvalue = [13, 0]"] ;
1060 -> 1061 ;
1062 [label="annee <= 2012.5\ngini = 0.278\nsamples = 12\nvalue = [10, 2]"] ;
1060 -> 1062 ;
1063 [label="budget <= 60000000.0\ngini = 0.5\nsamples = 4\nvalue = [2, 2]"] ;
1062 -> 1063 ;
1064 [label="gini = 0.0\nsamples = 2\nvalue = [0, 2]"] ;
1063 -> 1064 ;
1065 [label="gini = 0.0\nsamples = 2\nvalue = [2, 0]"] ;
1063 -> 1065 ;
1066 [label="gini = 0.0\nsamples = 8\nvalue = [8, 0]"] ;
1062 -> 1066 ;
1067 [label="annee <= 2013.0\ngini = 0.5\nsamples = 2\nvalue = [1, 1]"] ;
1059 -> 1067 ;
1068 [label="gini = 0.0\nsamples = 1\nvalue = [0, 1]"] ;
1067 -> 1068 ;
1069 [label="gini = 0.0\nsamples = 1\nvalue = [1, 0]"] ;
1067 -> 1069 ;
1070 [label="gini = 0.0\nsamples = 2\nvalue = [0, 2]"] ;
1058 -> 1070 ;
1071 [label="Duree <= 124.5\ngini = 0.5\nsamples = 16\nvalue = [8, 8]"] ;
1057 -> 1071 ;
1072 [label="Crime <= 0.5\ngini = 0.278\nsamples = 6\nvalue = [1, 5]"] ;
1071 -> 1072 ;
1073 [label="gini = 0.0\nsamples = 5\nvalue = [0, 5]"] ;
1072 -> 1073 ;
1074 [label="gini = 0.0\nsamples = 1\nvalue = [1, 0]"] ;
1072 -> 1074 ;
1075 [label="annee <= 2014.5\ngini = 0.42\nsamples = 10\nvalue = [7, 3]"] ;
1071 -> 1075 ;
1076 [label="Mystery <= 0.5\ngini = 0.346\nsamples = 9\nvalue = [7, 2]"] ;
1075 -> 1076 ;
1077 [label="budget <= 33750000.0\ngini = 0.219\nsamples = 8\nvalue = [7, 1]"] ;
1076 -> 1077 ;
1078 [label="Duree <= 128.0\ngini = 0.5\nsamples = 2\nvalue = [1, 1]"] ;
1077 -> 1078 ;
1079 [label="gini = 0.0\nsamples = 1\nvalue = [0, 1]"] ;
1078 -> 1079 ;
1080 [label="gini = 0.0\nsamples = 1\nvalue = [1, 0]"] ;
1078 -> 1080 ;
1081 [label="gini = 0.0\nsamples = 6\nvalue = [6, 0]"] ;
1077 -> 1081 ;
1082 [label="gini = 0.0\nsamples = 1\nvalue = [0, 1]"] ;
1076 -> 1082 ;
1083 [label="gini = 0.0\nsamples = 1\nvalue = [0, 1]"] ;
1075 -> 1083 ;
1084 [label="Romance <= 0.5\ngini = 0.463\nsamples = 99\nvalue = [36, 63]"] ;
1046 -> 1084 ;
1085 [label="Thriller <= 0.5\ngini = 0.447\nsamples = 92\nvalue = [31, 61]"] ;
1084 -> 1085 ;
1086 [label="annee <= 2008.5\ngini = 0.363\nsamples = 42\nvalue = [10, 32]"] ;
1085 -> 1086 ;
1087 [label="budget <= 145000000.0\ngini = 0.496\nsamples = 11\nvalue = [5, 6]"] ;
1086 -> 1087 ;
1088 [label="Duree <= 114.0\ngini = 0.444\nsamples = 9\nvalue = [3, 6]"] ;
1087 -> 1088 ;
1089 [label="gini = 0.0\nsamples = 1\nvalue = [1, 0]"] ;
1088 -> 1089 ;
1090 [label="Sport <= 0.5\ngini = 0.375\nsamples = 8\nvalue = [2, 6]"] ;
1088 -> 1090 ;
1091 [label="Duree <= 116.0\ngini = 0.245\nsamples = 7\nvalue = [1, 6]"] ;
1090 -> 1091 ;
1092 [label="Animation <= 0.5\ngini = 0.5\nsamples = 2\nvalue = [1, 1]"] ;
1091 -> 1092 ;
1093 [label="gini = 0.0\nsamples = 1\nvalue = [1, 0]"] ;
1092 -> 1093 ;
1094 [label="gini = 0.0\nsamples = 1\nvalue = [0, 1]"] ;
1092 -> 1094 ;
1095 [label="gini = 0.0\nsamples = 5\nvalue = [0, 5]"] ;
1091 -> 1095 ;
1096 [label="gini = 0.0\nsamples = 1\nvalue = [1, 0]"] ;
1090 -> 1096 ;
1097 [label="gini = 0.0\nsamples = 2\nvalue = [2, 0]"] ;
1087 -> 1097 ;
1098 [label="annee <= 2014.5\ngini = 0.271\nsamples = 31\nvalue = [5, 26]"] ;
1086 -> 1098 ;
1099 [label="budget <= 80000000.0\ngini = 0.204\nsamples = 26\nvalue = [3, 23]"] ;
1098 -> 1099 ;
1100 [label="budget <= 60000000.0\ngini = 0.444\nsamples = 9\nvalue = [3, 6]"] ;
1099 -> 1100 ;
1101 [label="budget <= 34500000.0\ngini = 0.245\nsamples = 7\nvalue = [1, 6]"] ;
1100 -> 1101 ;
1102 [label="budget <= 31000000.0\ngini = 0.444\nsamples = 3\nvalue = [1, 2]"] ;
1101 -> 1102 ;
1103 [label="gini = 0.0\nsamples = 2\nvalue = [0, 2]"] ;
1102 -> 1103 ;
1104 [label="gini = 0.0\nsamples = 1\nvalue = [1, 0]"] ;
1102 -> 1104 ;
1105 [label="gini = 0.0\nsamples = 4\nvalue = [0, 4]"] ;
1101 -> 1105 ;
1106 [label="gini = 0.0\nsamples = 2\nvalue = [2, 0]"] ;
1100 -> 1106 ;
1107 [label="gini = 0.0\nsamples = 17\nvalue = [0, 17]"] ;
1099 -> 1107 ;
1108 [label="budget <= 153000000.0\ngini = 0.48\nsamples = 5\nvalue = [2, 3]"] ;
1098 -> 1108 ;
1109 [label="gini = 0.0\nsamples = 3\nvalue = [0, 3]"] ;
1108 -> 1109 ;
1110 [label="gini = 0.0\nsamples = 2\nvalue = [2, 0]"] ;
1108 -> 1110 ;
1111 [label="annee <= 2014.5\ngini = 0.487\nsamples = 50\nvalue = [21, 29]"] ;
1085 -> 1111 ;
1112 [label="Sci-Fi <= 0.5\ngini = 0.499\nsamples = 44\nvalue = [21, 23]"] ;
1111 -> 1112 ;
1113 [label="Fantasy <= 0.5\ngini = 0.452\nsamples = 29\nvalue = [10, 19]"] ;
1112 -> 1113 ;
1114 [label="budget <= 49000000.0\ngini = 0.417\nsamples = 27\nvalue = [8, 19]"] ;
1113 -> 1114 ;
1115 [label="Duree <= 114.0\ngini = 0.48\nsamples = 5\nvalue = [3, 2]"] ;
1114 -> 1115 ;
1116 [label="gini = 0.0\nsamples = 2\nvalue = [0, 2]"] ;
1115 -> 1116 ;
1117 [label="gini = 0.0\nsamples = 3\nvalue = [3, 0]"] ;
1115 -> 1117 ;
1118 [label="Duree <= 133.5\ngini = 0.351\nsamples = 22\nvalue = [5, 17]"] ;
1114 -> 1118 ;
1119 [label="Crime <= 0.5\ngini = 0.308\nsamples = 21\nvalue = [4, 17]"] ;
1118 -> 1119 ;
1120 [label="annee <= 2009.0\ngini = 0.48\nsamples = 10\nvalue = [4, 6]"] ;
1119 -> 1120 ;
1121 [label="budget <= 120000000.0\ngini = 0.32\nsamples = 5\nvalue = [1, 4]"] ;
1120 -> 1121 ;
1122 [label="gini = 0.0\nsamples = 3\nvalue = [0, 3]"] ;
1121 -> 1122 ;
1123 [label="Duree <= 121.5\ngini = 0.5\nsamples = 2\nvalue = [1, 1]"] ;
1121 -> 1123 ;
1124 [label="gini = 0.0\nsamples = 1\nvalue = [0, 1]"] ;
1123 -> 1124 ;
1125 [label="gini = 0.0\nsamples = 1\nvalue = [1, 0]"] ;
1123 -> 1125 ;
1126 [label="Duree <= 132.0\ngini = 0.48\nsamples = 5\nvalue = [3, 2]"] ;
1120 -> 1126 ;
1127 [label="budget <= 60000000.0\ngini = 0.375\nsamples = 4\nvalue = [3, 1]"] ;
1126 -> 1127 ;
1128 [label="gini = 0.0\nsamples = 1\nvalue = [0, 1]"] ;
1127 -> 1128 ;
1129 [label="gini = 0.0\nsamples = 3\nvalue = [3, 0]"] ;
1127 -> 1129 ;
1130 [label="gini = 0.0\nsamples = 1\nvalue = [0, 1]"] ;
1126 -> 1130 ;
1131 [label="gini = 0.0\nsamples = 11\nvalue = [0, 11]"] ;
1119 -> 1131 ;
1132 [label="gini = 0.0\nsamples = 1\nvalue = [1, 0]"] ;
1118 -> 1132 ;
1133 [label="gini = 0.0\nsamples = 2\nvalue = [2, 0]"] ;
1113 -> 1133 ;
1134 [label="budget <= 36000000.0\ngini = 0.391\nsamples = 15\nvalue = [11, 4]"] ;
1112 -> 1134 ;
1135 [label="annee <= 2011.0\ngini = 0.444\nsamples = 3\nvalue = [1, 2]"] ;
1134 -> 1135 ;
1136 [label="gini = 0.0\nsamples = 1\nvalue = [1, 0]"] ;
1135 -> 1136 ;
1137 [label="gini = 0.0\nsamples = 2\nvalue = [0, 2]"] ;
1135 -> 1137 ;
1138 [label="Horror <= 0.5\ngini = 0.278\nsamples = 12\nvalue = [10, 2]"] ;
1134 -> 1138 ;
1139 [label="annee <= 2007.5\ngini = 0.165\nsamples = 11\nvalue = [10, 1]"] ;
1138 -> 1139 ;
1140 [label="gini = 0.0\nsamples = 1\nvalue = [0, 1]"] ;
1139 -> 1140 ;
1141 [label="gini = 0.0\nsamples = 10\nvalue = [10, 0]"] ;
1139 -> 1141 ;
1142 [label="gini = 0.0\nsamples = 1\nvalue = [0, 1]"] ;
1138 -> 1142 ;
1143 [label="gini = 0.0\nsamples = 6\nvalue = [0, 6]"] ;
1111 -> 1143 ;
1144 [label="Fantasy <= 0.5\ngini = 0.408\nsamples = 7\nvalue = [5, 2]"] ;
1084 -> 1144 ;
1145 [label="gini = 0.0\nsamples = 4\nvalue = [4, 0]"] ;
1144 -> 1145 ;
1146 [label="Mystery <= 0.5\ngini = 0.444\nsamples = 3\nvalue = [1, 2]"] ;
1144 -> 1146 ;
1147 [label="gini = 0.0\nsamples = 2\nvalue = [0, 2]"] ;
1146 -> 1147 ;
1148 [label="gini = 0.0\nsamples = 1\nvalue = [1, 0]"] ;
1146 -> 1148 ;
1149 [label="Sci-Fi <= 0.5\ngini = 0.352\nsamples = 114\nvalue = [26, 88]"] ;
887 -> 1149 ;
1150 [label="Sport <= 0.5\ngini = 0.248\nsamples = 69\nvalue = [10, 59]"] ;
1149 -> 1150 ;
1151 [label="Duree <= 156.5\ngini = 0.23\nsamples = 68\nvalue = [9, 59]"] ;
1150 -> 1151 ;
1152 [label="Duree <= 145.0\ngini = 0.305\nsamples = 48\nvalue = [9, 39]"] ;
1151 -> 1152 ;
1153 [label="annee <= 2012.5\ngini = 0.128\nsamples = 29\nvalue = [2, 27]"] ;
1152 -> 1153 ;
1154 [label="gini = 0.0\nsamples = 26\nvalue = [0, 26]"] ;
1153 -> 1154 ;
1155 [label="Action <= 0.5\ngini = 0.444\nsamples = 3\nvalue = [2, 1]"] ;
1153 -> 1155 ;
1156 [label="gini = 0.0\nsamples = 2\nvalue = [2, 0]"] ;
1155 -> 1156 ;
1157 [label="gini = 0.0\nsamples = 1\nvalue = [0, 1]"] ;
1155 -> 1157 ;
1158 [label="Western <= 0.5\ngini = 0.465\nsamples = 19\nvalue = [7, 12]"] ;
1152 -> 1158 ;
1159 [label="annee <= 2007.5\ngini = 0.415\nsamples = 17\nvalue = [5, 12]"] ;
1158 -> 1159 ;
1160 [label="annee <= 2002.5\ngini = 0.5\nsamples = 10\nvalue = [5, 5]"] ;
1159 -> 1160 ;
1161 [label="gini = 0.0\nsamples = 3\nvalue = [0, 3]"] ;
1160 -> 1161 ;
1162 [label="Duree <= 151.5\ngini = 0.408\nsamples = 7\nvalue = [5, 2]"] ;
1160 -> 1162 ;
1163 [label="Adventure <= 0.5\ngini = 0.48\nsamples = 5\nvalue = [3, 2]"] ;
1162 -> 1163 ;
1164 [label="Action <= 0.5\ngini = 0.375\nsamples = 4\nvalue = [3, 1]"] ;
1163 -> 1164 ;
1165 [label="Duree <= 148.0\ngini = 0.5\nsamples = 2\nvalue = [1, 1]"] ;
1164 -> 1165 ;
1166 [label="gini = 0.0\nsamples = 1\nvalue = [0, 1]"] ;
1165 -> 1166 ;
1167 [label="gini = 0.0\nsamples = 1\nvalue = [1, 0]"] ;
1165 -> 1167 ;
1168 [label="gini = 0.0\nsamples = 2\nvalue = [2, 0]"] ;
1164 -> 1168 ;
1169 [label="gini = 0.0\nsamples = 1\nvalue = [0, 1]"] ;
1163 -> 1169 ;
1170 [label="gini = 0.0\nsamples = 2\nvalue = [2, 0]"] ;
1162 -> 1170 ;
1171 [label="gini = 0.0\nsamples = 7\nvalue = [0, 7]"] ;
1159 -> 1171 ;
1172 [label="gini = 0.0\nsamples = 2\nvalue = [2, 0]"] ;
1158 -> 1172 ;
1173 [label="gini = 0.0\nsamples = 20\nvalue = [0, 20]"] ;
1151 -> 1173 ;
1174 [label="gini = 0.0\nsamples = 1\nvalue = [1, 0]"] ;
1150 -> 1174 ;
1175 [label="budget <= 65500000.0\ngini = 0.458\nsamples = 45\nvalue = [16, 29]"] ;
1149 -> 1175 ;
1176 [label="annee <= 1986.5\ngini = 0.486\nsamples = 12\nvalue = [7, 5]"] ;
1175 -> 1176 ;
1177 [label="gini = 0.0\nsamples = 2\nvalue = [0, 2]"] ;
1176 -> 1177 ;
1178 [label="budget <= 9250000.0\ngini = 0.42\nsamples = 10\nvalue = [7, 3]"] ;
1176 -> 1178 ;
1179 [label="gini = 0.0\nsamples = 1\nvalue = [0, 1]"] ;
1178 -> 1179 ;
1180 [label="Duree <= 171.0\ngini = 0.346\nsamples = 9\nvalue = [7, 2]"] ;
1178 -> 1180 ;
1181 [label="budget <= 61500000.0\ngini = 0.219\nsamples = 8\nvalue = [7, 1]"] ;
1180 -> 1181 ;
1182 [label="gini = 0.0\nsamples = 6\nvalue = [6, 0]"] ;
1181 -> 1182 ;
1183 [label="annee <= 1995.5\ngini = 0.5\nsamples = 2\nvalue = [1, 1]"] ;
1181 -> 1183 ;
1184 [label="gini = 0.0\nsamples = 1\nvalue = [1, 0]"] ;
1183 -> 1184 ;
1185 [label="gini = 0.0\nsamples = 1\nvalue = [0, 1]"] ;
1183 -> 1185 ;
1186 [label="gini = 0.0\nsamples = 1\nvalue = [0, 1]"] ;
1180 -> 1186 ;
1187 [label="budget <= 172500000.0\ngini = 0.397\nsamples = 33\nvalue = [9, 24]"] ;
1175 -> 1187 ;
1188 [label="annee <= 2004.0\ngini = 0.255\nsamples = 20\nvalue = [3, 17]"] ;
1187 -> 1188 ;
1189 [label="Duree <= 140.0\ngini = 0.42\nsamples = 10\nvalue = [3, 7]"] ;
1188 -> 1189 ;
1190 [label="annee <= 1997.5\ngini = 0.48\nsamples = 5\nvalue = [3, 2]"] ;
1189 -> 1190 ;
1191 [label="gini = 0.0\nsamples = 1\nvalue = [0, 1]"] ;
1190 -> 1191 ;
1192 [label="budget <= 143500000.0\ngini = 0.375\nsamples = 4\nvalue = [3, 1]"] ;
1190 -> 1192 ;
1193 [label="gini = 0.0\nsamples = 3\nvalue = [3, 0]"] ;
1192 -> 1193 ;
1194 [label="gini = 0.0\nsamples = 1\nvalue = [0, 1]"] ;
1192 -> 1194 ;
1195 [label="gini = 0.0\nsamples = 5\nvalue = [0, 5]"] ;
1189 -> 1195 ;
1196 [label="gini = 0.0\nsamples = 10\nvalue = [0, 10]"] ;
1188 -> 1196 ;
1197 [label="annee <= 2011.5\ngini = 0.497\nsamples = 13\nvalue = [6, 7]"] ;
1187 -> 1197 ;
1198 [label="Duree <= 177.0\ngini = 0.278\nsamples = 6\nvalue = [5, 1]"] ;
1197 -> 1198 ;
1199 [label="gini = 0.0\nsamples = 5\nvalue = [5, 0]"] ;
1198 -> 1199 ;
1200 [label="gini = 0.0\nsamples = 1\nvalue = [0, 1]"] ;
1198 -> 1200 ;
1201 [label="budget <= 205000000.0\ngini = 0.245\nsamples = 7\nvalue = [1, 6]"] ;
1197 -> 1201 ;
1202 [label="gini = 0.0\nsamples = 3\nvalue = [0, 3]"] ;
1201 -> 1202 ;
1203 [label="budget <= 215000000.0\ngini = 0.375\nsamples = 4\nvalue = [1, 3]"] ;
1201 -> 1203 ;
1204 [label="gini = 0.0\nsamples = 1\nvalue = [1, 0]"] ;
1203 -> 1204 ;
1205 [label="gini = 0.0\nsamples = 3\nvalue = [0, 3]"] ;
1203 -> 1205 ;
1206 [label="budget <= 15660000.0\ngini = 0.411\nsamples = 2269\nvalue = [655, 1614]"] ;
0 -> 1206 [labeldistance=2.5, labelangle=-45, headlabel="False"] ;
1207 [label="Duree <= 104.5\ngini = 0.283\nsamples = 1113\nvalue = [190, 923]"] ;
1206 -> 1207 ;
1208 [label="budget <= 2750000.0\ngini = 0.387\nsamples = 480\nvalue = [126, 354]"] ;
1207 -> 1208 ;
1209 [label="annee <= 2004.5\ngini = 0.209\nsamples = 177\nvalue = [21, 156]"] ;
1208 -> 1209 ;
1210 [label="Music <= 0.5\ngini = 0.069\nsamples = 112\nvalue = [4, 108]"] ;
1209 -> 1210 ;
1211 [label="Biography <= 0.5\ngini = 0.053\nsamples = 110\nvalue = [3, 107]"] ;
1210 -> 1211 ;
1212 [label="budget <= 1140000.0\ngini = 0.037\nsamples = 106\nvalue = [2, 104]"] ;
1211 -> 1212 ;
1213 [label="gini = 0.0\nsamples = 72\nvalue = [0, 72]"] ;
1212 -> 1213 ;
1214 [label="budget <= 1225000.0\ngini = 0.111\nsamples = 34\nvalue = [2, 32]"] ;
1212 -> 1214 ;
1215 [label="annee <= 1995.5\ngini = 0.444\nsamples = 3\nvalue = [1, 2]"] ;
1214 -> 1215 ;
1216 [label="gini = 0.0\nsamples = 2\nvalue = [0, 2]"] ;
1215 -> 1216 ;
1217 [label="gini = 0.0\nsamples = 1\nvalue = [1, 0]"] ;
1215 -> 1217 ;
1218 [label="Thriller <= 0.5\ngini = 0.062\nsamples = 31\nvalue = [1, 30]"] ;
1214 -> 1218 ;
1219 [label="gini = 0.0\nsamples = 25\nvalue = [0, 25]"] ;
1218 -> 1219 ;
1220 [label="annee <= 1982.0\ngini = 0.278\nsamples = 6\nvalue = [1, 5]"] ;
1218 -> 1220 ;
1221 [label="gini = 0.0\nsamples = 5\nvalue = [0, 5]"] ;
1220 -> 1221 ;
1222 [label="gini = 0.0\nsamples = 1\nvalue = [1, 0]"] ;
1220 -> 1222 ;
1223 [label="Thriller <= 0.5\ngini = 0.375\nsamples = 4\nvalue = [1, 3]"] ;
1211 -> 1223 ;
1224 [label="gini = 0.0\nsamples = 3\nvalue = [0, 3]"] ;
1223 -> 1224 ;
1225 [label="gini = 0.0\nsamples = 1\nvalue = [1, 0]"] ;
1223 -> 1225 ;
1226 [label="Romance <= 0.5\ngini = 0.5\nsamples = 2\nvalue = [1, 1]"] ;
1210 -> 1226 ;
1227 [label="gini = 0.0\nsamples = 1\nvalue = [0, 1]"] ;
1226 -> 1227 ;
1228 [label="gini = 0.0\nsamples = 1\nvalue = [1, 0]"] ;
1226 -> 1228 ;
1229 [label="Horror <= 0.5\ngini = 0.386\nsamples = 65\nvalue = [17, 48]"] ;
1209 -> 1229 ;
1230 [label="budget <= 11085.0\ngini = 0.306\nsamples = 53\nvalue = [10, 43]"] ;
1229 -> 1230 ;
1231 [label="gini = 0.0\nsamples = 1\nvalue = [1, 0]"] ;
1230 -> 1231 ;
1232 [label="Duree <= 78.5\ngini = 0.286\nsamples = 52\nvalue = [9, 43]"] ;
1230 -> 1232 ;
1233 [label="gini = 0.0\nsamples = 1\nvalue = [1, 0]"] ;
1232 -> 1233 ;
1234 [label="Thriller <= 0.5\ngini = 0.265\nsamples = 51\nvalue = [8, 43]"] ;
1232 -> 1234 ;
1235 [label="Duree <= 89.5\ngini = 0.206\nsamples = 43\nvalue = [5, 38]"] ;
1234 -> 1235 ;
1236 [label="gini = 0.0\nsamples = 11\nvalue = [0, 11]"] ;
1235 -> 1236 ;
1237 [label="budget <= 2317500.0\ngini = 0.264\nsamples = 32\nvalue = [5, 27]"] ;
1235 -> 1237 ;
1238 [label="Duree <= 94.5\ngini = 0.231\nsamples = 30\nvalue = [4, 26]"] ;
1237 -> 1238 ;
1239 [label="budget <= 487500.0\ngini = 0.397\nsamples = 11\nvalue = [3, 8]"] ;
1238 -> 1239 ;
1240 [label="gini = 0.0\nsamples = 4\nvalue = [0, 4]"] ;
1239 -> 1240 ;
1241 [label="budget <= 1780000.0\ngini = 0.49\nsamples = 7\nvalue = [3, 4]"] ;
1239 -> 1241 ;
1242 [label="Animation <= 0.5\ngini = 0.48\nsamples = 5\nvalue = [3, 2]"] ;
1241 -> 1242 ;
1243 [label="annee <= 2006.0\ngini = 0.375\nsamples = 4\nvalue = [3, 1]"] ;
1242 -> 1243 ;
1244 [label="Duree <= 93.5\ngini = 0.5\nsamples = 2\nvalue = [1, 1]"] ;
1243 -> 1244 ;
1245 [label="gini = 0.0\nsamples = 1\nvalue = [1, 0]"] ;
1244 -> 1245 ;
1246 [label="gini = 0.0\nsamples = 1\nvalue = [0, 1]"] ;
1244 -> 1246 ;
1247 [label="gini = 0.0\nsamples = 2\nvalue = [2, 0]"] ;
1243 -> 1247 ;
1248 [label="gini = 0.0\nsamples = 1\nvalue = [0, 1]"] ;
1242 -> 1248 ;
1249 [label="gini = 0.0\nsamples = 2\nvalue = [0, 2]"] ;
1241 -> 1249 ;
1250 [label="budget <= 124300.0\ngini = 0.1\nsamples = 19\nvalue = [1, 18]"] ;
1238 -> 1250 ;
1251 [label="budget <= 57500.0\ngini = 0.5\nsamples = 2\nvalue = [1, 1]"] ;
1250 -> 1251 ;
