digraph Tree {
node [shape=box] ;
0 [label="Drama <= 0.5\ngini = 0.491\nsamples = 4587\nvalue = [1985, 2602]"] ;
1 [label="annee <= 1984.5\ngini = 0.489\nsamples = 2318\nvalue = [1330, 988]"] ;
0 -> 1 [labeldistance=2.5, labelangle=45, headlabel="True"] ;
2 [label="annee <= 1976.5\ngini = 0.328\nsamples = 319\nvalue = [66, 253]"] ;
1 -> 2 ;
3 [label="budget <= 95000.0\ngini = 0.169\nsamples = 183\nvalue = [17, 166]"] ;
2 -> 3 ;
4 [label="annee <= 1958.5\ngini = 0.497\nsamples = 13\nvalue = [6, 7]"] ;
3 -> 4 ;
5 [label="gini = 0.0\nsamples = 5\nvalue = [0, 5]"] ;
4 -> 5 ;
6 [label="Thriller <= 0.5\ngini = 0.375\nsamples = 8\nvalue = [6, 2]"] ;
4 -> 6 ;
7 [label="budget <= 71766.0\ngini = 0.245\nsamples = 7\nvalue = [6, 1]"] ;
6 -> 7 ;
8 [label="gini = 0.0\nsamples = 5\nvalue = [5, 0]"] ;
7 -> 8 ;
9 [label="Duree <= 86.0\ngini = 0.5\nsamples = 2\nvalue = [1, 1]"] ;
7 -> 9 ;
10 [label="gini = 0.0\nsamples = 1\nvalue = [1, 0]"] ;
9 -> 10 ;
11 [label="gini = 0.0\nsamples = 1\nvalue = [0, 1]"] ;
9 -> 11 ;
12 [label="gini = 0.0\nsamples = 1\nvalue = [0, 1]"] ;
6 -> 12 ;
13 [label="Sci-Fi <= 0.5\ngini = 0.121\nsamples = 170\nvalue = [11, 159]"] ;
3 -> 13 ;
14 [label="budget <= 22000000.0\ngini = 0.054\nsamples = 145\nvalue = [4, 141]"] ;
13 -> 14 ;
15 [label="budget <= 11000000.0\ngini = 0.041\nsamples = 144\nvalue = [3, 141]"] ;
14 -> 15 ;
16 [label="annee <= 1965.5\ngini = 0.029\nsamples = 137\nvalue = [2, 135]"] ;
15 -> 16 ;
17 [label="gini = 0.0\nsamples = 77\nvalue = [0, 77]"] ;
16 -> 17 ;
18 [label="annee <= 1966.5\ngini = 0.064\nsamples = 60\nvalue = [2, 58]"] ;
16 -> 18 ;
19 [label="Family <= 0.5\ngini = 0.375\nsamples = 4\nvalue = [1, 3]"] ;
18 -> 19 ;
20 [label="gini = 0.0\nsamples = 3\nvalue = [0, 3]"] ;
19 -> 20 ;
21 [label="gini = 0.0\nsamples = 1\nvalue = [1, 0]"] ;
19 -> 21 ;
22 [label="Duree <= 123.5\ngini = 0.035\nsamples = 56\nvalue = [1, 55]"] ;
18 -> 22 ;
23 [label="gini = 0.0\nsamples = 45\nvalue = [0, 45]"] ;
22 -> 23 ;
24 [label="Thriller <= 0.5\ngini = 0.165\nsamples = 11\nvalue = [1, 10]"] ;
22 -> 24 ;
25 [label="gini = 0.0\nsamples = 9\nvalue = [0, 9]"] ;
24 -> 25 ;
26 [label="Duree <= 133.5\ngini = 0.5\nsamples = 2\nvalue = [1, 1]"] ;
24 -> 26 ;
27 [label="gini = 0.0\nsamples = 1\nvalue = [1, 0]"] ;
26 -> 27 ;
28 [label="gini = 0.0\nsamples = 1\nvalue = [0, 1]"] ;
26 -> 28 ;
29 [label="budget <= 12500000.0\ngini = 0.245\nsamples = 7\nvalue = [1, 6]"] ;
15 -> 29 ;
30 [label="Western <= 0.5\ngini = 0.5\nsamples = 2\nvalue = [1, 1]"] ;
29 -> 30 ;
31 [label="gini = 0.0\nsamples = 1\nvalue = [1, 0]"] ;
30 -> 31 ;
32 [label="gini = 0.0\nsamples = 1\nvalue = [0, 1]"] ;
30 -> 32 ;
33 [label="gini = 0.0\nsamples = 5\nvalue = [0, 5]"] ;
29 -> 33 ;
34 [label="gini = 0.0\nsamples = 1\nvalue = [1, 0]"] ;
14 -> 34 ;
35 [label="Action <= 0.5\ngini = 0.403\nsamples = 25\nvalue = [7, 18]"] ;
13 -> 35 ;
36 [label="budget <= 265500.0\ngini = 0.208\nsamples = 17\nvalue = [2, 15]"] ;
35 -> 36 ;
37 [label="annee <= 1966.5\ngini = 0.5\nsamples = 2\nvalue = [1, 1]"] ;
36 -> 37 ;
38 [label="gini = 0.0\nsamples = 1\nvalue = [1, 0]"] ;
37 -> 38 ;
39 [label="gini = 0.0\nsamples = 1\nvalue = [0, 1]"] ;
37 -> 39 ;
40 [label="Comedy <= 0.5\ngini = 0.124\nsamples = 15\nvalue = [1, 14]"] ;
36 -> 40 ;
41 [label="gini = 0.0\nsamples = 12\nvalue = [0, 12]"] ;
40 -> 41 ;
42 [label="Fantasy <= 0.5\ngini = 0.444\nsamples = 3\nvalue = [1, 2]"] ;
40 -> 42 ;
43 [label="gini = 0.0\nsamples = 2\nvalue = [0, 2]"] ;
42 -> 43 ;
44 [label="gini = 0.0\nsamples = 1\nvalue = [1, 0]"] ;
42 -> 44 ;
45 [label="annee <= 1963.0\ngini = 0.469\nsamples = 8\nvalue = [5, 3]"] ;
35 -> 45 ;
46 [label="gini = 0.0\nsamples = 2\nvalue = [0, 2]"] ;
45 -> 46 ;
47 [label="Duree <= 108.5\ngini = 0.278\nsamples = 6\nvalue = [5, 1]"] ;
45 -> 47 ;
48 [label="gini = 0.0\nsamples = 5\nvalue = [5, 0]"] ;
47 -> 48 ;
49 [label="gini = 0.0\nsamples = 1\nvalue = [0, 1]"] ;
47 -> 49 ;
50 [label="budget <= 33250000.0\ngini = 0.461\nsamples = 136\nvalue = [49, 87]"] ;
2 -> 50 ;
51 [label="Horror <= 0.5\ngini = 0.443\nsamples = 127\nvalue = [42, 85]"] ;
50 -> 51 ;
52 [label="Sci-Fi <= 0.5\ngini = 0.362\nsamples = 80\nvalue = [19, 61]"] ;
51 -> 52 ;
53 [label="Fantasy <= 0.5\ngini = 0.419\nsamples = 57\nvalue = [17, 40]"] ;
52 -> 53 ;
54 [label="budget <= 1390000.0\ngini = 0.351\nsamples = 44\nvalue = [10, 34]"] ;
53 -> 54 ;
55 [label="gini = 0.0\nsamples = 2\nvalue = [2, 0]"] ;
54 -> 55 ;
56 [label="Action <= 0.5\ngini = 0.308\nsamples = 42\nvalue = [8, 34]"] ;
54 -> 56 ;
57 [label="War <= 0.5\ngini = 0.191\nsamples = 28\nvalue = [3, 25]"] ;
56 -> 57 ;
58 [label="Duree <= 86.5\ngini = 0.142\nsamples = 26\nvalue = [2, 24]"] ;
57 -> 58 ;
59 [label="Duree <= 84.5\ngini = 0.444\nsamples = 3\nvalue = [1, 2]"] ;
58 -> 59 ;
60 [label="gini = 0.0\nsamples = 2\nvalue = [0, 2]"] ;
59 -> 60 ;
61 [label="gini = 0.0\nsamples = 1\nvalue = [1, 0]"] ;
59 -> 61 ;
62 [label="budget <= 4250000.0\ngini = 0.083\nsamples = 23\nvalue = [1, 22]"] ;
58 -> 62 ;
63 [label="annee <= 1980.5\ngini = 0.198\nsamples = 9\nvalue = [1, 8]"] ;
62 -> 63 ;
64 [label="gini = 0.0\nsamples = 5\nvalue = [0, 5]"] ;
63 -> 64 ;
65 [label="annee <= 1982.0\ngini = 0.375\nsamples = 4\nvalue = [1, 3]"] ;
63 -> 65 ;
66 [label="gini = 0.0\nsamples = 1\nvalue = [1, 0]"] ;
65 -> 66 ;
67 [label="gini = 0.0\nsamples = 3\nvalue = [0, 3]"] ;
65 -> 67 ;
68 [label="gini = 0.0\nsamples = 14\nvalue = [0, 14]"] ;
62 -> 68 ;
69 [label="annee <= 1980.5\ngini = 0.5\nsamples = 2\nvalue = [1, 1]"] ;
57 -> 69 ;
70 [label="gini = 0.0\nsamples = 1\nvalue = [1, 0]"] ;
69 -> 70 ;
71 [label="gini = 0.0\nsamples = 1\nvalue = [0, 1]"] ;
69 -> 71 ;
72 [label="budget <= 9500000.0\ngini = 0.459\nsamples = 14\nvalue = [5, 9]"] ;
56 -> 72 ;
73 [label="Duree <= 122.0\ngini = 0.32\nsamples = 5\nvalue = [4, 1]"] ;
72 -> 73 ;
74 [label="gini = 0.0\nsamples = 4\nvalue = [4, 0]"] ;
73 -> 74 ;
75 [label="gini = 0.0\nsamples = 1\nvalue = [0, 1]"] ;
73 -> 75 ;
76 [label="Duree <= 100.0\ngini = 0.198\nsamples = 9\nvalue = [1, 8]"] ;
72 -> 76 ;
77 [label="annee <= 1981.5\ngini = 0.5\nsamples = 2\nvalue = [1, 1]"] ;
76 -> 77 ;
78 [label="gini = 0.0\nsamples = 1\nvalue = [1, 0]"] ;
77 -> 78 ;
79 [label="gini = 0.0\nsamples = 1\nvalue = [0, 1]"] ;
77 -> 79 ;
80 [label="gini = 0.0\nsamples = 7\nvalue = [0, 7]"] ;
76 -> 80 ;
81 [label="Musical <= 0.5\ngini = 0.497\nsamples = 13\nvalue = [7, 6]"] ;
53 -> 81 ;
82 [label="annee <= 1982.5\ngini = 0.48\nsamples = 10\nvalue = [4, 6]"] ;
81 -> 82 ;
83 [label="Duree <= 130.5\ngini = 0.278\nsamples = 6\nvalue = [1, 5]"] ;
82 -> 83 ;
84 [label="gini = 0.0\nsamples = 5\nvalue = [0, 5]"] ;
83 -> 84 ;
85 [label="gini = 0.0\nsamples = 1\nvalue = [1, 0]"] ;
83 -> 85 ;
86 [label="budget <= 29500000.0\ngini = 0.375\nsamples = 4\nvalue = [3, 1]"] ;
82 -> 86 ;
87 [label="gini = 0.0\nsamples = 3\nvalue = [3, 0]"] ;
86 -> 87 ;
88 [label="gini = 0.0\nsamples = 1\nvalue = [0, 1]"] ;
86 -> 88 ;
89 [label="gini = 0.0\nsamples = 3\nvalue = [3, 0]"] ;
81 -> 89 ;
90 [label="budget <= 19000000.0\ngini = 0.159\nsamples = 23\nvalue = [2, 21]"] ;
52 -> 90 ;
91 [label="gini = 0.0\nsamples = 17\nvalue = [0, 17]"] ;
90 -> 91 ;
92 [label="budget <= 24500000.0\ngini = 0.444\nsamples = 6\nvalue = [2, 4]"] ;
90 -> 92 ;
93 [label="gini = 0.0\nsamples = 2\nvalue = [2, 0]"] ;
92 -> 93 ;
94 [label="gini = 0.0\nsamples = 4\nvalue = [0, 4]"] ;
92 -> 94 ;
95 [label="Thriller <= 0.5\ngini = 0.5\nsamples = 47\nvalue = [23, 24]"] ;
51 -> 95 ;
96 [label="Duree <= 108.0\ngini = 0.482\nsamples = 37\nvalue = [15, 22]"] ;
95 -> 96 ;
97 [label="budget <= 900000.0\ngini = 0.5\nsamples = 30\nvalue = [15, 15]"] ;
96 -> 97 ;
98 [label="budget <= 437500.0\ngini = 0.444\nsamples = 15\nvalue = [10, 5]"] ;
97 -> 98 ;
99 [label="Duree <= 87.0\ngini = 0.494\nsamples = 9\nvalue = [4, 5]"] ;
98 -> 99 ;
100 [label="Duree <= 83.0\ngini = 0.32\nsamples = 5\nvalue = [4, 1]"] ;
99 -> 100 ;
101 [label="gini = 0.0\nsamples = 1\nvalue = [0, 1]"] ;
100 -> 101 ;
102 [label="gini = 0.0\nsamples = 4\nvalue = [4, 0]"] ;
100 -> 102 ;
103 [label="gini = 0.0\nsamples = 4\nvalue = [0, 4]"] ;
99 -> 103 ;
104 [label="gini = 0.0\nsamples = 6\nvalue = [6, 0]"] ;
98 -> 104 ;
105 [label="budget <= 2250000.0\ngini = 0.444\nsamples = 15\nvalue = [5, 10]"] ;
97 -> 105 ;
106 [label="gini = 0.0\nsamples = 5\nvalue = [0, 5]"] ;
105 -> 106 ;
107 [label="budget <= 2890000.0\ngini = 0.5\nsamples = 10\nvalue = [5, 5]"] ;
105 -> 107 ;
108 [label="gini = 0.0\nsamples = 2\nvalue = [2, 0]"] ;
107 -> 108 ;
109 [label="budget <= 6440000.0\ngini = 0.469\nsamples = 8\nvalue = [3, 5]"] ;
107 -> 109 ;
110 [label="gini = 0.0\nsamples = 3\nvalue = [0, 3]"] ;
109 -> 110 ;
111 [label="Comedy <= 0.5\ngini = 0.48\nsamples = 5\nvalue = [3, 2]"] ;
109 -> 111 ;
112 [label="gini = 0.0\nsamples = 3\nvalue = [3, 0]"] ;
111 -> 112 ;
113 [label="gini = 0.0\nsamples = 2\nvalue = [0, 2]"] ;
111 -> 113 ;
114 [label="gini = 0.0\nsamples = 7\nvalue = [0, 7]"] ;
96 -> 114 ;
115 [label="budget <= 775000.0\ngini = 0.32\nsamples = 10\nvalue = [8, 2]"] ;
95 -> 115 ;
116 [label="gini = 0.0\nsamples = 1\nvalue = [0, 1]"] ;
115 -> 116 ;
117 [label="Sci-Fi <= 0.5\ngini = 0.198\nsamples = 9\nvalue = [8, 1]"] ;
115 -> 117 ;
118 [label="gini = 0.0\nsamples = 7\nvalue = [7, 0]"] ;
117 -> 118 ;
119 [label="budget <= 12500000.0\ngini = 0.5\nsamples = 2\nvalue = [1, 1]"] ;
117 -> 119 ;
120 [label="gini = 0.0\nsamples = 1\nvalue = [0, 1]"] ;
119 -> 120 ;
121 [label="gini = 0.0\nsamples = 1\nvalue = [1, 0]"] ;
119 -> 121 ;
122 [label="budget <= 39500000.0\ngini = 0.346\nsamples = 9\nvalue = [7, 2]"] ;
50 -> 122 ;
123 [label="gini = 0.0\nsamples = 7\nvalue = [7, 0]"] ;
122 -> 123 ;
124 [label="gini = 0.0\nsamples = 2\nvalue = [0, 2]"] ;
122 -> 124 ;
125 [label="Duree <= 110.5\ngini = 0.465\nsamples = 1999\nvalue = [1264, 735]"] ;
1 -> 125 ;
126 [label="Animation <= 0.5\ngini = 0.418\nsamples = 1487\nvalue = [1045, 442]"] ;
125 -> 126 ;
127 [label="budget <= 6160000.0\ngini = 0.384\nsamples = 1335\nvalue = [989, 346]"] ;
126 -> 127 ;
128 [label="Horror <= 0.5\ngini = 0.494\nsamples = 222\nvalue = [123, 99]"] ;
127 -> 128 ;
129 [label="annee <= 2003.5\ngini = 0.478\nsamples = 104\nvalue = [41, 63]"] ;
128 -> 129 ;
130 [label="Sport <= 0.5\ngini = 0.343\nsamples = 41\nvalue = [9, 32]"] ;
129 -> 130 ;
131 [label="Duree <= 86.5\ngini = 0.32\nsamples = 40\nvalue = [8, 32]"] ;
130 -> 131 ;
132 [label="Action <= 0.5\ngini = 0.48\nsamples = 5\nvalue = [2, 3]"] ;
131 -> 132 ;
133 [label="gini = 0.0\nsamples = 3\nvalue = [0, 3]"] ;
132 -> 133 ;
134 [label="gini = 0.0\nsamples = 2\nvalue = [2, 0]"] ;
132 -> 134 ;
135 [label="Comedy <= 0.5\ngini = 0.284\nsamples = 35\nvalue = [6, 29]"] ;
131 -> 135 ;
136 [label="gini = 0.0\nsamples = 7\nvalue = [0, 7]"] ;
135 -> 136 ;
137 [label="budget <= 3433000.0\ngini = 0.337\nsamples = 28\nvalue = [6, 22]"] ;
135 -> 137 ;
138 [label="budget <= 450000.0\ngini = 0.231\nsamples = 15\nvalue = [2, 13]"] ;
137 -> 138 ;
139 [label="annee <= 1991.5\ngini = 0.5\nsamples = 2\nvalue = [1, 1]"] ;
138 -> 139 ;
140 [label="gini = 0.0\nsamples = 1\nvalue = [1, 0]"] ;
139 -> 140 ;
141 [label="gini = 0.0\nsamples = 1\nvalue = [0, 1]"] ;
139 -> 141 ;
142 [label="budget <= 1100000.0\ngini = 0.142\nsamples = 13\nvalue = [1, 12]"] ;
138 -> 142 ;
143 [label="annee <= 1995.5\ngini = 0.32\nsamples = 5\nvalue = [1, 4]"] ;
142 -> 143 ;
144 [label="gini = 0.0\nsamples = 3\nvalue = [0, 3]"] ;
143 -> 144 ;
145 [label="Fantasy <= 0.5\ngini = 0.5\nsamples = 2\nvalue = [1, 1]"] ;
143 -> 145 ;
146 [label="gini = 0.0\nsamples = 1\nvalue = [1, 0]"] ;
145 -> 146 ;
147 [label="gini = 0.0\nsamples = 1\nvalue = [0, 1]"] ;
145 -> 147 ;
148 [label="gini = 0.0\nsamples = 8\nvalue = [0, 8]"] ;
142 -> 148 ;
149 [label="Thriller <= 0.5\ngini = 0.426\nsamples = 13\nvalue = [4, 9]"] ;
137 -> 149 ;
150 [label="Romance <= 0.5\ngini = 0.375\nsamples = 12\nvalue = [3, 9]"] ;
149 -> 150 ;
151 [label="Duree <= 104.0\ngini = 0.219\nsamples = 8\nvalue = [1, 7]"] ;
150 -> 151 ;
152 [label="gini = 0.0\nsamples = 6\nvalue = [0, 6]"] ;
151 -> 152 ;
153 [label="budget <= 4500000.0\ngini = 0.5\nsamples = 2\nvalue = [1, 1]"] ;
151 -> 153 ;
154 [label="gini = 0.0\nsamples = 1\nvalue = [0, 1]"] ;
153 -> 154 ;
155 [label="gini = 0.0\nsamples = 1\nvalue = [1, 0]"] ;
153 -> 155 ;
156 [label="budget <= 5500000.0\ngini = 0.5\nsamples = 4\nvalue = [2, 2]"] ;
150 -> 156 ;
157 [label="gini = 0.0\nsamples = 2\nvalue = [0, 2]"] ;
156 -> 157 ;
158 [label="gini = 0.0\nsamples = 2\nvalue = [2, 0]"] ;
156 -> 158 ;
159 [label="gini = 0.0\nsamples = 1\nvalue = [1, 0]"] ;
149 -> 159 ;
160 [label="gini = 0.0\nsamples = 1\nvalue = [1, 0]"] ;
130 -> 160 ;
161 [label="budget <= 2950000.0\ngini = 0.5\nsamples = 63\nvalue = [32, 31]"] ;
129 -> 161 ;
162 [label="Crime <= 0.5\ngini = 0.436\nsamples = 28\nvalue = [9, 19]"] ;
161 -> 162 ;
163 [label="Documentary <= 0.5\ngini = 0.476\nsamples = 23\nvalue = [9, 14]"] ;
162 -> 163 ;
164 [label="Duree <= 105.0\ngini = 0.498\nsamples = 15\nvalue = [8, 7]"] ;
163 -> 164 ;
165 [label="Action <= 0.5\ngini = 0.444\nsamples = 12\nvalue = [8, 4]"] ;
164 -> 165 ;
166 [label="budget <= 450000.0\ngini = 0.245\nsamples = 7\nvalue = [6, 1]"] ;
165 -> 166 ;
167 [label="gini = 0.0\nsamples = 1\nvalue = [0, 1]"] ;
166 -> 167 ;
168 [label="gini = 0.0\nsamples = 6\nvalue = [6, 0]"] ;
166 -> 168 ;
169 [label="budget <= 1397500.0\ngini = 0.48\nsamples = 5\nvalue = [2, 3]"] ;
165 -> 169 ;
170 [label="gini = 0.0\nsamples = 2\nvalue = [0, 2]"] ;
169 -> 170 ;
171 [label="budget <= 2450000.0\ngini = 0.444\nsamples = 3\nvalue = [2, 1]"] ;
169 -> 171 ;
172 [label="gini = 0.0\nsamples = 2\nvalue = [2, 0]"] ;
171 -> 172 ;
173 [label="gini = 0.0\nsamples = 1\nvalue = [0, 1]"] ;
171 -> 173 ;
174 [label="gini = 0.0\nsamples = 3\nvalue = [0, 3]"] ;
164 -> 174 ;
175 [label="annee <= 2007.5\ngini = 0.219\nsamples = 8\nvalue = [1, 7]"] ;
163 -> 175 ;
176 [label="Comedy <= 0.5\ngini = 0.5\nsamples = 2\nvalue = [1, 1]"] ;
175 -> 176 ;
177 [label="gini = 0.0\nsamples = 1\nvalue = [0, 1]"] ;
176 -> 177 ;
178 [label="gini = 0.0\nsamples = 1\nvalue = [1, 0]"] ;
176 -> 178 ;
179 [label="gini = 0.0\nsamples = 6\nvalue = [0, 6]"] ;
175 -> 179 ;
180 [label="gini = 0.0\nsamples = 5\nvalue = [0, 5]"] ;
162 -> 180 ;
181 [label="Duree <= 93.5\ngini = 0.451\nsamples = 35\nvalue = [23, 12]"] ;
161 -> 181 ;
182 [label="Sci-Fi <= 0.5\ngini = 0.124\nsamples = 15\nvalue = [14, 1]"] ;
181 -> 182 ;
183 [label="gini = 0.0\nsamples = 13\nvalue = [13, 0]"] ;
182 -> 183 ;
184 [label="budget <= 4750000.0\ngini = 0.5\nsamples = 2\nvalue = [1, 1]"] ;
182 -> 184 ;
185 [label="gini = 0.0\nsamples = 1\nvalue = [1, 0]"] ;
184 -> 185 ;
186 [label="gini = 0.0\nsamples = 1\nvalue = [0, 1]"] ;
184 -> 186 ;
187 [label="Action <= 0.5\ngini = 0.495\nsamples = 20\nvalue = [9, 11]"] ;
181 -> 187 ;
188 [label="Sci-Fi <= 0.5\ngini = 0.391\nsamples = 15\nvalue = [4, 11]"] ;
187 -> 188 ;
189 [label="annee <= 2009.5\ngini = 0.26\nsamples = 13\nvalue = [2, 11]"] ;
188 -> 189 ;
190 [label="annee <= 2006.5\ngini = 0.48\nsamples = 5\nvalue = [2, 3]"] ;
189 -> 190 ;
191 [label="gini = 0.0\nsamples = 3\nvalue = [0, 3]"] ;
190 -> 191 ;
192 [label="gini = 0.0\nsamples = 2\nvalue = [2, 0]"] ;
190 -> 192 ;
193 [label="gini = 0.0\nsamples = 8\nvalue = [0, 8]"] ;
189 -> 193 ;
194 [label="gini = 0.0\nsamples = 2\nvalue = [2, 0]"] ;
188 -> 194 ;
195 [label="gini = 0.0\nsamples = 5\nvalue = [5, 0]"] ;
187 -> 195 ;
196 [label="annee <= 2008.5\ngini = 0.424\nsamples = 118\nvalue = [82, 36]"] ;
128 -> 196 ;
197 [label="Thriller <= 0.5\ngini = 0.486\nsamples = 72\nvalue = [42, 30]"] ;
196 -> 197 ;
198 [label="Duree <= 101.5\ngini = 0.5\nsamples = 49\nvalue = [24, 25]"] ;
197 -> 198 ;
199 [label="annee <= 1987.5\ngini = 0.485\nsamples = 41\nvalue = [24, 17]"] ;
198 -> 199 ;
200 [label="Duree <= 88.5\ngini = 0.444\nsamples = 12\nvalue = [4, 8]"] ;
199 -> 200 ;
201 [label="budget <= 2850000.0\ngini = 0.219\nsamples = 8\nvalue = [1, 7]"] ;
200 -> 201 ;
202 [label="budget <= 2000000.0\ngini = 0.444\nsamples = 3\nvalue = [1, 2]"] ;
201 -> 202 ;
203 [label="gini = 0.0\nsamples = 2\nvalue = [0, 2]"] ;
202 -> 203 ;
204 [label="gini = 0.0\nsamples = 1\nvalue = [1, 0]"] ;
202 -> 204 ;
205 [label="gini = 0.0\nsamples = 5\nvalue = [0, 5]"] ;
201 -> 205 ;
206 [label="Sci-Fi <= 0.5\ngini = 0.375\nsamples = 4\nvalue = [3, 1]"] ;
200 -> 206 ;
207 [label="gini = 0.0\nsamples = 3\nvalue = [3, 0]"] ;
206 -> 207 ;
208 [label="gini = 0.0\nsamples = 1\nvalue = [0, 1]"] ;
206 -> 208 ;
209 [label="budget <= 5177500.0\ngini = 0.428\nsamples = 29\nvalue = [20, 9]"] ;
199 -> 209 ;
210 [label="budget <= 1100000.0\ngini = 0.384\nsamples = 27\nvalue = [20, 7]"] ;
209 -> 210 ;
211 [label="gini = 0.0\nsamples = 7\nvalue = [7, 0]"] ;
210 -> 211 ;
212 [label="Duree <= 88.5\ngini = 0.455\nsamples = 20\nvalue = [13, 7]"] ;
210 -> 212 ;
213 [label="gini = 0.0\nsamples = 4\nvalue = [4, 0]"] ;
212 -> 213 ;
214 [label="budget <= 4400000.0\ngini = 0.492\nsamples = 16\nvalue = [9, 7]"] ;
212 -> 214 ;
215 [label="budget <= 2243000.0\ngini = 0.486\nsamples = 12\nvalue = [5, 7]"] ;
214 -> 215 ;
216 [label="Comedy <= 0.5\ngini = 0.469\nsamples = 8\nvalue = [5, 3]"] ;
215 -> 216 ;
217 [label="annee <= 1999.5\ngini = 0.48\nsamples = 5\nvalue = [2, 3]"] ;
216 -> 217 ;
218 [label="gini = 0.0\nsamples = 2\nvalue = [0, 2]"] ;
217 -> 218 ;
219 [label="annee <= 2007.5\ngini = 0.444\nsamples = 3\nvalue = [2, 1]"] ;
217 -> 219 ;
220 [label="gini = 0.0\nsamples = 2\nvalue = [2, 0]"] ;
219 -> 220 ;
221 [label="gini = 0.0\nsamples = 1\nvalue = [0, 1]"] ;
219 -> 221 ;
222 [label="gini = 0.0\nsamples = 3\nvalue = [3, 0]"] ;
216 -> 222 ;
223 [label="gini = 0.0\nsamples = 4\nvalue = [0, 4]"] ;
215 -> 223 ;
224 [label="gini = 0.0\nsamples = 4\nvalue = [4, 0]"] ;
214 -> 224 ;
225 [label="gini = 0.0\nsamples = 2\nvalue = [0, 2]"] ;
209 -> 225 ;
226 [label="gini = 0.0\nsamples = 8\nvalue = [0, 8]"] ;
198 -> 226 ;
227 [label="annee <= 2006.5\ngini = 0.34\nsamples = 23\nvalue = [18, 5]"] ;
197 -> 227 ;
228 [label="Crime <= 0.5\ngini = 0.198\nsamples = 18\nvalue = [16, 2]"] ;
227 -> 228 ;
229 [label="Duree <= 86.5\ngini = 0.111\nsamples = 17\nvalue = [16, 1]"] ;
228 -> 229 ;
230 [label="budget <= 3850000.0\ngini = 0.32\nsamples = 5\nvalue = [4, 1]"] ;
229 -> 230 ;
231 [label="gini = 0.0\nsamples = 4\nvalue = [4, 0]"] ;
230 -> 231 ;
232 [label="gini = 0.0\nsamples = 1\nvalue = [0, 1]"] ;
230 -> 232 ;
233 [label="gini = 0.0\nsamples = 12\nvalue = [12, 0]"] ;
229 -> 233 ;
234 [label="gini = 0.0\nsamples = 1\nvalue = [0, 1]"] ;
228 -> 234 ;
235 [label="Duree <= 97.5\ngini = 0.48\nsamples = 5\nvalue = [2, 3]"] ;
227 -> 235 ;
236 [label="gini = 0.0\nsamples = 3\nvalue = [0, 3]"] ;
235 -> 236 ;
237 [label="gini = 0.0\nsamples = 2\nvalue = [2, 0]"] ;
235 -> 237 ;
238 [label="Duree <= 105.5\ngini = 0.227\nsamples = 46\nvalue = [40, 6]"] ;
196 -> 238 ;
239 [label="Adventure <= 0.5\ngini = 0.169\nsamples = 43\nvalue = [39, 4]"] ;
238 -> 239 ;
240 [label="Action <= 0.5\ngini = 0.133\nsamples = 42\nvalue = [39, 3]"] ;
239 -> 240 ;
241 [label="budget <= 5300000.0\ngini = 0.095\nsamples = 40\nvalue = [38, 2]"] ;
240 -> 241 ;
242 [label="Mystery <= 0.5\ngini = 0.054\nsamples = 36\nvalue = [35, 1]"] ;
241 -> 242 ;
243 [label="gini = 0.0\nsamples = 30\nvalue = [30, 0]"] ;
242 -> 243 ;
244 [label="Duree <= 96.0\ngini = 0.278\nsamples = 6\nvalue = [5, 1]"] ;
242 -> 244 ;
245 [label="gini = 0.0\nsamples = 5\nvalue = [5, 0]"] ;
244 -> 245 ;
246 [label="gini = 0.0\nsamples = 1\nvalue = [0, 1]"] ;
244 -> 246 ;
247 [label="Duree <= 87.0\ngini = 0.375\nsamples = 4\nvalue = [3, 1]"] ;
241 -> 247 ;
248 [label="gini = 0.0\nsamples = 1\nvalue = [0, 1]"] ;
247 -> 248 ;
249 [label="gini = 0.0\nsamples = 3\nvalue = [3, 0]"] ;
247 -> 249 ;
250 [label="Crime <= 0.5\ngini = 0.5\nsamples = 2\nvalue = [1, 1]"] ;
240 -> 250 ;
251 [label="gini = 0.0\nsamples = 1\nvalue = [0, 1]"] ;
250 -> 251 ;
252 [label="gini = 0.0\nsamples = 1\nvalue = [1, 0]"] ;
250 -> 252 ;
253 [label="gini = 0.0\nsamples = 1\nvalue = [0, 1]"] ;
239 -> 253 ;
254 [label="annee <= 2011.5\ngini = 0.444\nsamples = 3\nvalue = [1, 2]"] ;
238 -> 254 ;
255 [label="gini = 0.0\nsamples = 1\nvalue = [1, 0]"] ;
254 -> 255 ;
256 [label="gini = 0.0\nsamples = 2\nvalue = [0, 2]"] ;
254 -> 256 ;
257 [label="annee <= 1991.5\ngini = 0.345\nsamples = 1113\nvalue = [866, 247]"] ;
127 -> 257 ;
258 [label="budget <= 27400000.0\ngini = 0.478\nsamples = 124\nvalue = [75, 49]"] ;
257 -> 258 ;
259 [label="budget <= 8750000.0\ngini = 0.494\nsamples = 99\nvalue = [55, 44]"] ;
258 -> 259 ;
260 [label="Duree <= 107.0\ngini = 0.32\nsamples = 15\nvalue = [12, 3]"] ;
259 -> 260 ;
261 [label="Fantasy <= 0.5\ngini = 0.142\nsamples = 13\nvalue = [12, 1]"] ;
260 -> 261 ;
262 [label="gini = 0.0\nsamples = 11\nvalue = [11, 0]"] ;
261 -> 262 ;
263 [label="Duree <= 92.0\ngini = 0.5\nsamples = 2\nvalue = [1, 1]"] ;
261 -> 263 ;
264 [label="gini = 0.0\nsamples = 1\nvalue = [1, 0]"] ;
263 -> 264 ;
265 [label="gini = 0.0\nsamples = 1\nvalue = [0, 1]"] ;
263 -> 265 ;
266 [label="gini = 0.0\nsamples = 2\nvalue = [0, 2]"] ;
260 -> 266 ;
267 [label="budget <= 25500000.0\ngini = 0.5\nsamples = 84\nvalue = [43, 41]"] ;
259 -> 267 ;
268 [label="budget <= 16950000.0\ngini = 0.498\nsamples = 81\nvalue = [43, 38]"] ;
267 -> 268 ;
269 [label="Adventure <= 0.5\ngini = 0.494\nsamples = 47\nvalue = [21, 26]"] ;
268 -> 269 ;
270 [label="Duree <= 101.0\ngini = 0.5\nsamples = 37\nvalue = [19, 18]"] ;
269 -> 270 ;
271 [label="budget <= 10750000.0\ngini = 0.473\nsamples = 26\nvalue = [16, 10]"] ;
270 -> 271 ;
272 [label="gini = 0.0\nsamples = 7\nvalue = [7, 0]"] ;
271 -> 272 ;
273 [label="Comedy <= 0.5\ngini = 0.499\nsamples = 19\nvalue = [9, 10]"] ;
271 -> 273 ;
274 [label="annee <= 1987.5\ngini = 0.32\nsamples = 5\nvalue = [4, 1]"] ;
273 -> 274 ;
275 [label="gini = 0.0\nsamples = 1\nvalue = [0, 1]"] ;
274 -> 275 ;
276 [label="gini = 0.0\nsamples = 4\nvalue = [4, 0]"] ;
274 -> 276 ;
277 [label="Fantasy <= 0.5\ngini = 0.459\nsamples = 14\nvalue = [5, 9]"] ;
273 -> 277 ;
278 [label="Romance <= 0.5\ngini = 0.496\nsamples = 11\nvalue = [5, 6]"] ;
277 -> 278 ;
279 [label="Thriller <= 0.5\ngini = 0.444\nsamples = 9\nvalue = [3, 6]"] ;
278 -> 279 ;
280 [label="Family <= 0.5\ngini = 0.278\nsamples = 6\nvalue = [1, 5]"] ;
279 -> 280 ;
281 [label="gini = 0.0\nsamples = 5\nvalue = [0, 5]"] ;
280 -> 281 ;
282 [label="gini = 0.0\nsamples = 1\nvalue = [1, 0]"] ;
280 -> 282 ;
283 [label="Duree <= 94.5\ngini = 0.444\nsamples = 3\nvalue = [2, 1]"] ;
279 -> 283 ;
284 [label="gini = 0.0\nsamples = 2\nvalue = [2, 0]"] ;
283 -> 284 ;
285 [label="gini = 0.0\nsamples = 1\nvalue = [0, 1]"] ;
283 -> 285 ;
286 [label="gini = 0.0\nsamples = 2\nvalue = [2, 0]"] ;
278 -> 286 ;
287 [label="gini = 0.0\nsamples = 3\nvalue = [0, 3]"] ;
277 -> 287 ;
288 [label="budget <= 13000000.0\ngini = 0.397\nsamples = 11\nvalue = [3, 8]"] ;
270 -> 288 ;
289 [label="gini = 0.0\nsamples = 5\nvalue = [0, 5]"] ;
288 -> 289 ;
290 [label="Sci-Fi <= 0.5\ngini = 0.5\nsamples = 6\nvalue = [3, 3]"] ;
288 -> 290 ;
291 [label="Family <= 0.5\ngini = 0.375\nsamples = 4\nvalue = [3, 1]"] ;
290 -> 291 ;
292 [label="gini = 0.0\nsamples = 3\nvalue = [3, 0]"] ;
291 -> 292 ;
293 [label="gini = 0.0\nsamples = 1\nvalue = [0, 1]"] ;
291 -> 293 ;
294 [label="gini = 0.0\nsamples = 2\nvalue = [0, 2]"] ;
290 -> 294 ;
295 [label="Duree <= 102.5\ngini = 0.32\nsamples = 10\nvalue = [2, 8]"] ;
269 -> 295 ;
296 [label="gini = 0.0\nsamples = 7\nvalue = [0, 7]"] ;
295 -> 296 ;
297 [label="Duree <= 109.0\ngini = 0.444\nsamples = 3\nvalue = [2, 1]"] ;
295 -> 297 ;
298 [label="gini = 0.0\nsamples = 2\nvalue = [2, 0]"] ;
297 -> 298 ;
299 [label="gini = 0.0\nsamples = 1\nvalue = [0, 1]"] ;
297 -> 299 ;
300 [label="Musical <= 0.5\ngini = 0.457\nsamples = 34\nvalue = [22, 12]"] ;
268 -> 300 ;
301 [label="Duree <= 106.5\ngini = 0.43\nsamples = 32\nvalue = [22, 10]"] ;
300 -> 301 ;
302 [label="Duree <= 86.5\ngini = 0.355\nsamples = 26\nvalue = [20, 6]"] ;
301 -> 302 ;
303 [label="gini = 0.0\nsamples = 1\nvalue = [0, 1]"] ;
302 -> 303 ;
304 [label="Comedy <= 0.5\ngini = 0.32\nsamples = 25\nvalue = [20, 5]"] ;
302 -> 304 ;
305 [label="gini = 0.0\nsamples = 7\nvalue = [7, 0]"] ;
304 -> 305 ;
306 [label="Thriller <= 0.5\ngini = 0.401\nsamples = 18\nvalue = [13, 5]"] ;
304 -> 306 ;
307 [label="Duree <= 100.5\ngini = 0.36\nsamples = 17\nvalue = [13, 4]"] ;
306 -> 307 ;
308 [label="annee <= 1988.5\ngini = 0.48\nsamples = 10\nvalue = [6, 4]"] ;
307 -> 308 ;
309 [label="Mystery <= 0.5\ngini = 0.49\nsamples = 7\nvalue = [3, 4]"] ;
308 -> 309 ;
310 [label="budget <= 21350000.0\ngini = 0.444\nsamples = 6\nvalue = [2, 4]"] ;
309 -> 310 ;
311 [label="annee <= 1986.0\ngini = 0.444\nsamples = 3\nvalue = [2, 1]"] ;
310 -> 311 ;
312 [label="gini = 0.0\nsamples = 1\nvalue = [0, 1]"] ;
311 -> 312 ;
313 [label="gini = 0.0\nsamples = 2\nvalue = [2, 0]"] ;
311 -> 313 ;
314 [label="gini = 0.0\nsamples = 3\nvalue = [0, 3]"] ;
310 -> 314 ;
315 [label="gini = 0.0\nsamples = 1\nvalue = [1, 0]"] ;
309 -> 315 ;
316 [label="gini = 0.0\nsamples = 3\nvalue = [3, 0]"] ;
308 -> 316 ;
317 [label="gini = 0.0\nsamples = 7\nvalue = [7, 0]"] ;
307 -> 317 ;
318 [label="gini = 0.0\nsamples = 1\nvalue = [0, 1]"] ;
306 -> 318 ;
319 [label="annee <= 1985.5\ngini = 0.444\nsamples = 6\nvalue = [2, 4]"] ;
301 -> 319 ;
320 [label="gini = 0.0\nsamples = 3\nvalue = [0, 3]"] ;
319 -> 320 ;
321 [label="Thriller <= 0.5\ngini = 0.444\nsamples = 3\nvalue = [2, 1]"] ;
319 -> 321 ;
322 [label="gini = 0.0\nsamples = 2\nvalue = [2, 0]"] ;
321 -> 322 ;
323 [label="gini = 0.0\nsamples = 1\nvalue = [0, 1]"] ;
321 -> 323 ;
324 [label="gini = 0.0\nsamples = 2\nvalue = [0, 2]"] ;
300 -> 324 ;
325 [label="gini = 0.0\nsamples = 3\nvalue = [0, 3]"] ;
267 -> 325 ;
326 [label="annee <= 1990.5\ngini = 0.32\nsamples = 25\nvalue = [20, 5]"] ;
258 -> 326 ;
327 [label="Duree <= 107.5\ngini = 0.117\nsamples = 16\nvalue = [15, 1]"] ;
326 -> 327 ;
328 [label="gini = 0.0\nsamples = 13\nvalue = [13, 0]"] ;
327 -> 328 ;
329 [label="budget <= 38500000.0\ngini = 0.444\nsamples = 3\nvalue = [2, 1]"] ;
327 -> 329 ;
330 [label="gini = 0.0\nsamples = 2\nvalue = [2, 0]"] ;
329 -> 330 ;
331 [label="gini = 0.0\nsamples = 1\nvalue = [0, 1]"] ;
329 -> 331 ;
332 [label="Duree <= 99.5\ngini = 0.494\nsamples = 9\nvalue = [5, 4]"] ;
326 -> 332 ;
333 [label="budget <= 39000000.0\ngini = 0.375\nsamples = 4\nvalue = [1, 3]"] ;
332 -> 333 ;
334 [label="gini = 0.0\nsamples = 3\nvalue = [0, 3]"] ;
333 -> 334 ;
335 [label="gini = 0.0\nsamples = 1\nvalue = [1, 0]"] ;
333 -> 335 ;
336 [label="Duree <= 109.5\ngini = 0.32\nsamples = 5\nvalue = [4, 1]"] ;
332 -> 336 ;
337 [label="gini = 0.0\nsamples = 4\nvalue = [4, 0]"] ;
336 -> 337 ;
338 [label="gini = 0.0\nsamples = 1\nvalue = [0, 1]"] ;
336 -> 338 ;
339 [label="Duree <= 101.5\ngini = 0.32\nsamples = 989\nvalue = [791, 198]"] ;
257 -> 339 ;
340 [label="budget <= 33950000.0\ngini = 0.28\nsamples = 702\nvalue = [584, 118]"] ;
339 -> 340 ;
341 [label="Documentary <= 0.5\ngini = 0.334\nsamples = 453\nvalue = [357, 96]"] ;
340 -> 341 ;
342 [label="annee <= 1999.5\ngini = 0.326\nsamples = 448\nvalue = [356, 92]"] ;
341 -> 342 ;
343 [label="Duree <= 91.5\ngini = 0.421\nsamples = 116\nvalue = [81, 35]"] ;
342 -> 343 ;
344 [label="budget <= 12500000.0\ngini = 0.268\nsamples = 44\nvalue = [37, 7]"] ;
343 -> 344 ;
345 [label="annee <= 1996.5\ngini = 0.444\nsamples = 15\nvalue = [10, 5]"] ;
344 -> 345 ;
346 [label="Duree <= 78.5\ngini = 0.298\nsamples = 11\nvalue = [9, 2]"] ;
345 -> 346 ;
347 [label="gini = 0.0\nsamples = 1\nvalue = [0, 1]"] ;
346 -> 347 ;
348 [label="Thriller <= 0.5\ngini = 0.18\nsamples = 10\nvalue = [9, 1]"] ;
346 -> 348 ;
349 [label="gini = 0.0\nsamples = 8\nvalue = [8, 0]"] ;
348 -> 349 ;
350 [label="budget <= 7850000.0\ngini = 0.5\nsamples = 2\nvalue = [1, 1]"] ;
348 -> 350 ;
351 [label="gini = 0.0\nsamples = 1\nvalue = [0, 1]"] ;
350 -> 351 ;
352 [label="gini = 0.0\nsamples = 1\nvalue = [1, 0]"] ;
350 -> 352 ;
353 [label="Duree <= 86.5\ngini = 0.375\nsamples = 4\nvalue = [1, 3]"] ;
345 -> 353 ;
354 [label="gini = 0.0\nsamples = 2\nvalue = [0, 2]"] ;
353 -> 354 ;
355 [label="Crime <= 0.5\ngini = 0.5\nsamples = 2\nvalue = [1, 1]"] ;
353 -> 355 ;
356 [label="gini = 0.0\nsamples = 1\nvalue = [0, 1]"] ;
355 -> 356 ;
357 [label="gini = 0.0\nsamples = 1\nvalue = [1, 0]"] ;
355 -> 357 ;
358 [label="Duree <= 75.5\ngini = 0.128\nsamples = 29\nvalue = [27, 2]"] ;
344 -> 358 ;
359 [label="annee <= 1997.0\ngini = 0.5\nsamples = 2\nvalue = [1, 1]"] ;
358 -> 359 ;
360 [label="gini = 0.0\nsamples = 1\nvalue = [1, 0]"] ;
359 -> 360 ;
361 [label="gini = 0.0\nsamples = 1\nvalue = [0, 1]"] ;
359 -> 361 ;
362 [label="Duree <= 88.5\ngini = 0.071\nsamples = 27\nvalue = [26, 1]"] ;
358 -> 362 ;
363 [label="gini = 0.0\nsamples = 20\nvalue = [20, 0]"] ;
362 -> 363 ;
364 [label="Duree <= 89.5\ngini = 0.245\nsamples = 7\nvalue = [6, 1]"] ;
362 -> 364 ;
365 [label="Family <= 0.5\ngini = 0.444\nsamples = 3\nvalue = [2, 1]"] ;
364 -> 365 ;
366 [label="gini = 0.0\nsamples = 1\nvalue = [0, 1]"] ;
365 -> 366 ;
367 [label="gini = 0.0\nsamples = 2\nvalue = [2, 0]"] ;
365 -> 367 ;
368 [label="gini = 0.0\nsamples = 4\nvalue = [4, 0]"] ;
364 -> 368 ;
369 [label="budget <= 16500000.0\ngini = 0.475\nsamples = 72\nvalue = [44, 28]"] ;
343 -> 369 ;
370 [label="budget <= 10500000.0\ngini = 0.495\nsamples = 31\nvalue = [14, 17]"] ;
369 -> 370 ;
371 [label="budget <= 8250000.0\ngini = 0.397\nsamples = 11\nvalue = [8, 3]"] ;
370 -> 371 ;
372 [label="annee <= 1993.0\ngini = 0.48\nsamples = 5\nvalue = [2, 3]"] ;
371 -> 372 ;
373 [label="gini = 0.0\nsamples = 2\nvalue = [2, 0]"] ;
372 -> 373 ;
374 [label="gini = 0.0\nsamples = 3\nvalue = [0, 3]"] ;
372 -> 374 ;
375 [label="gini = 0.0\nsamples = 6\nvalue = [6, 0]"] ;
371 -> 375 ;
376 [label="budget <= 12500000.0\ngini = 0.42\nsamples = 20\nvalue = [6, 14]"] ;
370 -> 376 ;
377 [label="gini = 0.0\nsamples = 5\nvalue = [0, 5]"] ;
376 -> 377 ;
378 [label="annee <= 1994.5\ngini = 0.48\nsamples = 15\nvalue = [6, 9]"] ;
376 -> 378 ;
379 [label="gini = 0.0\nsamples = 4\nvalue = [0, 4]"] ;
378 -> 379 ;
380 [label="Romance <= 0.5\ngini = 0.496\nsamples = 11\nvalue = [6, 5]"] ;
378 -> 380 ;
381 [label="budget <= 15500000.0\ngini = 0.444\nsamples = 9\nvalue = [6, 3]"] ;
380 -> 381 ;
382 [label="Music <= 0.5\ngini = 0.375\nsamples = 8\nvalue = [6, 2]"] ;
381 -> 382 ;
383 [label="Duree <= 93.0\ngini = 0.245\nsamples = 7\nvalue = [6, 1]"] ;
382 -> 383 ;
384 [label="gini = 0.0\nsamples = 1\nvalue = [0, 1]"] ;
383 -> 384 ;
385 [label="gini = 0.0\nsamples = 6\nvalue = [6, 0]"] ;
383 -> 385 ;
386 [label="gini = 0.0\nsamples = 1\nvalue = [0, 1]"] ;
382 -> 386 ;
387 [label="gini = 0.0\nsamples = 1\nvalue = [0, 1]"] ;
381 -> 387 ;
388 [label="gini = 0.0\nsamples = 2\nvalue = [0, 2]"] ;
380 -> 388 ;
389 [label="Comedy <= 0.5\ngini = 0.393\nsamples = 41\nvalue = [30, 11]"] ;
369 -> 389 ;
390 [label="gini = 0.0\nsamples = 12\nvalue = [12, 0]"] ;
389 -> 390 ;
391 [label="budget <= 32000000.0\ngini = 0.471\nsamples = 29\nvalue = [18, 11]"] ;
389 -> 391 ;
392 [label="Duree <= 93.5\ngini = 0.444\nsamples = 27\nvalue = [18, 9]"] ;
391 -> 392 ;
393 [label="gini = 0.0\nsamples = 6\nvalue = [6, 0]"] ;
392 -> 393 ;
394 [label="Duree <= 95.5\ngini = 0.49\nsamples = 21\nvalue = [12, 9]"] ;
392 -> 394 ;
395 [label="gini = 0.0\nsamples = 3\nvalue = [0, 3]"] ;
394 -> 395 ;
396 [label="annee <= 1992.5\ngini = 0.444\nsamples = 18\nvalue = [12, 6]"] ;
394 -> 396 ;
397 [label="gini = 0.0\nsamples = 3\nvalue = [3, 0]"] ;
396 -> 397 ;
398 [label="annee <= 1998.0\ngini = 0.48\nsamples = 15\nvalue = [9, 6]"] ;
396 -> 398 ;
399 [label="Action <= 0.5\ngini = 0.5\nsamples = 12\nvalue = [6, 6]"] ;
398 -> 399 ;
400 [label="Duree <= 99.0\ngini = 0.469\nsamples = 8\nvalue = [3, 5]"] ;
399 -> 400 ;
401 [label="gini = 0.0\nsamples = 3\nvalue = [0, 3]"] ;
400 -> 401 ;
402 [label="Duree <= 100.5\ngini = 0.48\nsamples = 5\nvalue = [3, 2]"] ;
400 -> 402 ;
403 [label="gini = 0.0\nsamples = 2\nvalue = [2, 0]"] ;
402 -> 403 ;
404 [label="Adventure <= 0.5\ngini = 0.444\nsamples = 3\nvalue = [1, 2]"] ;
402 -> 404 ;
405 [label="gini = 0.0\nsamples = 2\nvalue = [0, 2]"] ;
404 -> 405 ;
406 [label="gini = 0.0\nsamples = 1\nvalue = [1, 0]"] ;
404 -> 406 ;
407 [label="Duree <= 97.5\ngini = 0.375\nsamples = 4\nvalue = [3, 1]"] ;
399 -> 407 ;
408 [label="gini = 0.0\nsamples = 2\nvalue = [2, 0]"] ;
407 -> 408 ;
409 [label="Duree <= 99.5\ngini = 0.5\nsamples = 2\nvalue = [1, 1]"] ;
407 -> 409 ;
410 [label="gini = 0.0\nsamples = 1\nvalue = [0, 1]"] ;
409 -> 410 ;
411 [label="gini = 0.0\nsamples = 1\nvalue = [1, 0]"] ;
409 -> 411 ;
412 [label="gini = 0.0\nsamples = 3\nvalue = [3, 0]"] ;
398 -> 412 ;
413 [label="gini = 0.0\nsamples = 2\nvalue = [0, 2]"] ;
391 -> 413 ;
414 [label="Horror <= 0.5\ngini = 0.284\nsamples = 332\nvalue = [275, 57]"] ;
342 -> 414 ;
415 [label="Duree <= 100.5\ngini = 0.331\nsamples = 239\nvalue = [189, 50]"] ;
414 -> 415 ;
416 [label="Mystery <= 0.5\ngini = 0.317\nsamples = 228\nvalue = [183, 45]"] ;
415 -> 416 ;
417 [label="Crime <= 0.5\ngini = 0.299\nsamples = 213\nvalue = [174, 39]"] ;
416 -> 417 ;
418 [label="Duree <= 82.5\ngini = 0.26\nsamples = 163\nvalue = [138, 25]"] ;
417 -> 418 ;
419 [label="annee <= 2008.0\ngini = 0.463\nsamples = 11\nvalue = [7, 4]"] ;
418 -> 419 ;
420 [label="Comedy <= 0.5\ngini = 0.5\nsamples = 8\nvalue = [4, 4]"] ;
419 -> 420 ;
421 [label="gini = 0.0\nsamples = 2\nvalue = [0, 2]"] ;
420 -> 421 ;
422 [label="Duree <= 81.0\ngini = 0.444\nsamples = 6\nvalue = [4, 2]"] ;
420 -> 422 ;
423 [label="gini = 0.0\nsamples = 3\nvalue = [3, 0]"] ;
422 -> 423 ;
424 [label="Action <= 0.5\ngini = 0.444\nsamples = 3\nvalue = [1, 2]"] ;
422 -> 424 ;
425 [label="gini = 0.0\nsamples = 2\nvalue = [0, 2]"] ;
424 -> 425 ;
426 [label="gini = 0.0\nsamples = 1\nvalue = [1, 0]"] ;
424 -> 426 ;
427 [label="gini = 0.0\nsamples = 3\nvalue = [3, 0]"] ;
419 -> 427 ;
428 [label="annee <= 2002.5\ngini = 0.238\nsamples = 152\nvalue = [131, 21]"] ;
418 -> 428 ;
429 [label="budget <= 27000000.0\ngini = 0.102\nsamples = 37\nvalue = [35, 2]"] ;
428 -> 429 ;
430 [label="Duree <= 84.5\ngini = 0.059\nsamples = 33\nvalue = [32, 1]"] ;
429 -> 430 ;
431 [label="budget <= 14586050.0\ngini = 0.32\nsamples = 5\nvalue = [4, 1]"] ;
430 -> 431 ;
432 [label="gini = 0.0\nsamples = 3\nvalue = [3, 0]"] ;
431 -> 432 ;
433 [label="budget <= 19086050.0\ngini = 0.5\nsamples = 2\nvalue = [1, 1]"] ;
431 -> 433 ;
434 [label="gini = 0.0\nsamples = 1\nvalue = [0, 1]"] ;
433 -> 434 ;
435 [label="gini = 0.0\nsamples = 1\nvalue = [1, 0]"] ;
433 -> 435 ;
436 [label="gini = 0.0\nsamples = 28\nvalue = [28, 0]"] ;
430 -> 436 ;
437 [label="budget <= 28500000.0\ngini = 0.375\nsamples = 4\nvalue = [3, 1]"] ;
429 -> 437 ;
438 [label="gini = 0.0\nsamples = 1\nvalue = [0, 1]"] ;
437 -> 438 ;
439 [label="gini = 0.0\nsamples = 3\nvalue = [3, 0]"] ;
437 -> 439 ;
440 [label="Duree <= 87.5\ngini = 0.276\nsamples = 115\nvalue = [96, 19]"] ;
428 -> 440 ;
441 [label="gini = 0.0\nsamples = 14\nvalue = [14, 0]"] ;
440 -> 441 ;
442 [label="Duree <= 88.5\ngini = 0.305\nsamples = 101\nvalue = [82, 19]"] ;
440 -> 442 ;
443 [label="budget <= 14000000.0\ngini = 0.49\nsamples = 7\nvalue = [3, 4]"] ;
442 -> 443 ;
444 [label="gini = 0.0\nsamples = 3\nvalue = [0, 3]"] ;
443 -> 444 ;
445 [label="annee <= 2004.5\ngini = 0.375\nsamples = 4\nvalue = [3, 1]"] ;
443 -> 445 ;
446 [label="gini = 0.0\nsamples = 1\nvalue = [0, 1]"] ;
445 -> 446 ;
447 [label="gini = 0.0\nsamples = 3\nvalue = [3, 0]"] ;
445 -> 447 ;
448 [label="Duree <= 91.5\ngini = 0.268\nsamples = 94\nvalue = [79, 15]"] ;
442 -> 448 ;
449 [label="budget <= 9302500.0\ngini = 0.091\nsamples = 21\nvalue = [20, 1]"] ;
448 -> 449 ;
450 [label="budget <= 8650000.0\ngini = 0.5\nsamples = 2\nvalue = [1, 1]"] ;
449 -> 450 ;
451 [label="gini = 0.0\nsamples = 1\nvalue = [1, 0]"] ;
450 -> 451 ;
452 [label="gini = 0.0\nsamples = 1\nvalue = [0, 1]"] ;
450 -> 452 ;
453 [label="gini = 0.0\nsamples = 19\nvalue = [19, 0]"] ;
449 -> 453 ;
454 [label="budget <= 32500000.0\ngini = 0.31\nsamples = 73\nvalue = [59, 14]"] ;
448 -> 454 ;
455 [label="budget <= 27000000.0\ngini = 0.296\nsamples = 72\nvalue = [59, 13]"] ;
454 -> 455 ;
456 [label="budget <= 24500000.0\ngini = 0.339\nsamples = 60\nvalue = [47, 13]"] ;
455 -> 456 ;
457 [label="Duree <= 92.5\ngini = 0.273\nsamples = 49\nvalue = [41, 8]"] ;
456 -> 457 ;
458 [label="Romance <= 0.5\ngini = 0.49\nsamples = 7\nvalue = [4, 3]"] ;
457 -> 458 ;
459 [label="Sport <= 0.5\ngini = 0.32\nsamples = 5\nvalue = [4, 1]"] ;
458 -> 459 ;
460 [label="gini = 0.0\nsamples = 4\nvalue = [4, 0]"] ;
459 -> 460 ;
461 [label="gini = 0.0\nsamples = 1\nvalue = [0, 1]"] ;
459 -> 461 ;
462 [label="gini = 0.0\nsamples = 2\nvalue = [0, 2]"] ;
458 -> 462 ;
463 [label="Duree <= 96.0\ngini = 0.21\nsamples = 42\nvalue = [37, 5]"] ;
457 -> 463 ;
464 [label="gini = 0.0\nsamples = 18\nvalue = [18, 0]"] ;
463 -> 464 ;
465 [label="budget <= 20500000.0\ngini = 0.33\nsamples = 24\nvalue = [19, 5]"] ;
463 -> 465 ;
466 [label="gini = 0.287\nsamples = 23\nvalue = [19, 4]"] ;
465 -> 466 ;
467 [label="gini = 0.0\nsamples = 1\nvalue = [0, 1]"] ;
465 -> 467 ;
468 [label="Romance <= 0.5\ngini = 0.496\nsamples = 11\nvalue = [6, 5]"] ;
456 -> 468 ;
469 [label="Duree <= 98.5\ngini = 0.469\nsamples = 8\nvalue = [3, 5]"] ;
468 -> 469 ;
470 [label="War <= 0.5\ngini = 0.408\nsamples = 7\nvalue = [2, 5]"] ;
469 -> 470 ;
471 [label="gini = 0.278\nsamples = 6\nvalue = [1, 5]"] ;
470 -> 471 ;
472 [label="gini = 0.0\nsamples = 1\nvalue = [1, 0]"] ;
470 -> 472 ;
473 [label="gini = 0.0\nsamples = 1\nvalue = [1, 0]"] ;
469 -> 473 ;
474 [label="gini = 0.0\nsamples = 3\nvalue = [3, 0]"] ;
468 -> 474 ;
475 [label="gini = 0.0\nsamples = 12\nvalue = [12, 0]"] ;
455 -> 475 ;
476 [label="gini = 0.0\nsamples = 1\nvalue = [0, 1]"] ;
454 -> 476 ;
477 [label="budget <= 24500000.0\ngini = 0.403\nsamples = 50\nvalue = [36, 14]"] ;
417 -> 477 ;
478 [label="annee <= 2006.5\ngini = 0.461\nsamples = 36\nvalue = [23, 13]"] ;
477 -> 478 ;
479 [label="budget <= 13280000.0\ngini = 0.499\nsamples = 19\nvalue = [10, 9]"] ;
478 -> 479 ;
480 [label="annee <= 2005.0\ngini = 0.32\nsamples = 10\nvalue = [8, 2]"] ;
479 -> 480 ;
481 [label="gini = 0.0\nsamples = 8\nvalue = [8, 0]"] ;
480 -> 481 ;
482 [label="gini = 0.0\nsamples = 2\nvalue = [0, 2]"] ;
480 -> 482 ;
483 [label="Romance <= 0.5\ngini = 0.346\nsamples = 9\nvalue = [2, 7]"] ;
479 -> 483 ;
484 [label="Duree <= 89.0\ngini = 0.219\nsamples = 8\nvalue = [1, 7]"] ;
483 -> 484 ;
485 [label="Thriller <= 0.5\ngini = 0.5\nsamples = 2\nvalue = [1, 1]"] ;
484 -> 485 ;
486 [label="gini = 0.0\nsamples = 1\nvalue = [1, 0]"] ;
485 -> 486 ;
487 [label="gini = 0.0\nsamples = 1\nvalue = [0, 1]"] ;
485 -> 487 ;
488 [label="gini = 0.0\nsamples = 6\nvalue = [0, 6]"] ;
484 -> 488 ;
489 [label="gini = 0.0\nsamples = 1\nvalue = [1, 0]"] ;
483 -> 489 ;
490 [label="budget <= 17000000.0\ngini = 0.36\nsamples = 17\nvalue = [13, 4]"] ;
478 -> 490 ;
491 [label="budget <= 15500000.0\ngini = 0.444\nsamples = 12\nvalue = [8, 4]"] ;
490 -> 491 ;
492 [label="budget <= 13100000.0\ngini = 0.397\nsamples = 11\nvalue = [8, 3]"] ;
491 -> 492 ;
493 [label="annee <= 2009.5\ngini = 0.469\nsamples = 8\nvalue = [5, 3]"] ;
492 -> 493 ;
494 [label="gini = 0.0\nsamples = 3\nvalue = [3, 0]"] ;
493 -> 494 ;
495 [label="Duree <= 96.0\ngini = 0.48\nsamples = 5\nvalue = [2, 3]"] ;
493 -> 495 ;
496 [label="gini = 0.0\nsamples = 2\nvalue = [0, 2]"] ;
495 -> 496 ;
497 [label="budget <= 8250000.0\ngini = 0.444\nsamples = 3\nvalue = [2, 1]"] ;
495 -> 497 ;
498 [label="gini = 0.0\nsamples = 1\nvalue = [0, 1]"] ;
497 -> 498 ;
499 [label="gini = 0.0\nsamples = 2\nvalue = [2, 0]"] ;
497 -> 499 ;
500 [label="gini = 0.0\nsamples = 3\nvalue = [3, 0]"] ;
492 -> 500 ;
501 [label="gini = 0.0\nsamples = 1\nvalue = [0, 1]"] ;
491 -> 501 ;
502 [label="gini = 0.0\nsamples = 5\nvalue = [5, 0]"] ;
490 -> 502 ;
503 [label="annee <= 2003.5\ngini = 0.133\nsamples = 14\nvalue = [13, 1]"] ;
477 -> 503 ;
504 [label="annee <= 2002.5\ngini = 0.375\nsamples = 4\nvalue = [3, 1]"] ;
503 -> 504 ;
505 [label="gini = 0.0\nsamples = 3\nvalue = [3, 0]"] ;
504 -> 505 ;
506 [label="gini = 0.0\nsamples = 1\nvalue = [0, 1]"] ;
504 -> 506 ;
507 [label="gini = 0.0\nsamples = 10\nvalue = [10, 0]"] ;
503 -> 507 ;
508 [label="budget <= 26420000.0\ngini = 0.48\nsamples = 15\nvalue = [9, 6]"] ;
416 -> 508 ;
509 [label="budget <= 8050000.0\ngini = 0.375\nsamples = 12\nvalue = [9, 3]"] ;
508 -> 509 ;
510 [label="gini = 0.0\nsamples = 1\nvalue = [0, 1]"] ;
509 -> 510 ;
511 [label="Duree <= 96.5\ngini = 0.298\nsamples = 11\nvalue = [9, 2]"] ;
509 -> 511 ;
512 [label="gini = 0.0\nsamples = 6\nvalue = [6, 0]"] ;
511 -> 512 ;
513 [label="Sci-Fi <= 0.5\ngini = 0.48\nsamples = 5\nvalue = [3, 2]"] ;
511 -> 513 ;
514 [label="Crime <= 0.5\ngini = 0.444\nsamples = 3\nvalue = [1, 2]"] ;
513 -> 514 ;
515 [label="gini = 0.0\nsamples = 2\nvalue = [0, 2]"] ;
514 -> 515 ;
516 [label="gini = 0.0\nsamples = 1\nvalue = [1, 0]"] ;
514 -> 516 ;
517 [label="gini = 0.0\nsamples = 2\nvalue = [2, 0]"] ;
513 -> 517 ;
518 [label="gini = 0.0\nsamples = 3\nvalue = [0, 3]"] ;
508 -> 518 ;
519 [label="annee <= 2006.0\ngini = 0.496\nsamples = 11\nvalue = [6, 5]"] ;
415 -> 519 ;
520 [label="gini = 0.0\nsamples = 4\nvalue = [4, 0]"] ;
519 -> 520 ;
521 [label="budget <= 16780000.0\ngini = 0.408\nsamples = 7\nvalue = [2, 5]"] ;
519 -> 521 ;
522 [label="Comedy <= 0.5\ngini = 0.444\nsamples = 3\nvalue = [2, 1]"] ;
521 -> 522 ;
523 [label="gini = 0.0\nsamples = 2\nvalue = [2, 0]"] ;
522 -> 523 ;
524 [label="gini = 0.0\nsamples = 1\nvalue = [0, 1]"] ;
522 -> 524 ;
525 [label="gini = 0.0\nsamples = 4\nvalue = [0, 4]"] ;
521 -> 525 ;
526 [label="budget <= 21991000.0\ngini = 0.139\nsamples = 93\nvalue = [86, 7]"] ;
414 -> 526 ;
527 [label="Comedy <= 0.5\ngini = 0.029\nsamples = 69\nvalue = [68, 1]"] ;
526 -> 527 ;
528 [label="gini = 0.0\nsamples = 64\nvalue = [64, 0]"] ;
527 -> 528 ;
529 [label="budget <= 8825000.0\ngini = 0.32\nsamples = 5\nvalue = [4, 1]"] ;
527 -> 529 ;
530 [label="gini = 0.0\nsamples = 1\nvalue = [0, 1]"] ;
529 -> 530 ;
531 [label="gini = 0.0\nsamples = 4\nvalue = [4, 0]"] ;
529 -> 531 ;
532 [label="Thriller <= 0.5\ngini = 0.375\nsamples = 24\nvalue = [18, 6]"] ;
526 -> 532 ;
533 [label="budget <= 23800000.0\ngini = 0.496\nsamples = 11\nvalue = [6, 5]"] ;
532 -> 533 ;
534 [label="gini = 0.0\nsamples = 2\nvalue = [0, 2]"] ;
533 -> 534 ;
535 [label="budget <= 29000000.0\ngini = 0.444\nsamples = 9\nvalue = [6, 3]"] ;
533 -> 535 ;
536 [label="Duree <= 86.0\ngini = 0.245\nsamples = 7\nvalue = [6, 1]"] ;
535 -> 536 ;
537 [label="gini = 0.0\nsamples = 1\nvalue = [0, 1]"] ;
536 -> 537 ;
538 [label="gini = 0.0\nsamples = 6\nvalue = [6, 0]"] ;
536 -> 538 ;
539 [label="gini = 0.0\nsamples = 2\nvalue = [0, 2]"] ;
535 -> 539 ;
540 [label="annee <= 2011.5\ngini = 0.142\nsamples = 13\nvalue = [12, 1]"] ;
532 -> 540 ;
541 [label="gini = 0.0\nsamples = 11\nvalue = [11, 0]"] ;
540 -> 541 ;
542 [label="Duree <= 94.0\ngini = 0.5\nsamples = 2\nvalue = [1, 1]"] ;
540 -> 542 ;
543 [label="gini = 0.0\nsamples = 1\nvalue = [1, 0]"] ;
542 -> 543 ;
544 [label="gini = 0.0\nsamples = 1\nvalue = [0, 1]"] ;
542 -> 544 ;
545 [label="annee <= 2011.0\ngini = 0.32\nsamples = 5\nvalue = [1, 4]"] ;
341 -> 545 ;
546 [label="gini = 0.0\nsamples = 4\nvalue = [0, 4]"] ;
545 -> 546 ;
547 [label="gini = 0.0\nsamples = 1\nvalue = [1, 0]"] ;
545 -> 547 ;
548 [label="budget <= 177500000.0\ngini = 0.161\nsamples = 249\nvalue = [227, 22]"] ;
340 -> 548 ;
549 [label="Duree <= 99.5\ngini = 0.155\nsamples = 248\nvalue = [227, 21]"] ;
548 -> 549 ;
550 [label="Duree <= 94.5\ngini = 0.188\nsamples = 200\nvalue = [179, 21]"] ;
549 -> 550 ;
551 [label="Duree <= 86.5\ngini = 0.114\nsamples = 115\nvalue = [108, 7]"] ;
550 -> 551 ;
552 [label="Duree <= 85.5\ngini = 0.269\nsamples = 25\nvalue = [21, 4]"] ;
551 -> 552 ;
553 [label="Adventure <= 0.5\ngini = 0.1\nsamples = 19\nvalue = [18, 1]"] ;
552 -> 553 ;
554 [label="gini = 0.0\nsamples = 14\nvalue = [14, 0]"] ;
553 -> 554 ;
555 [label="Duree <= 84.5\ngini = 0.32\nsamples = 5\nvalue = [4, 1]"] ;
553 -> 555 ;
556 [label="gini = 0.0\nsamples = 3\nvalue = [3, 0]"] ;
555 -> 556 ;
557 [label="annee <= 2006.0\ngini = 0.5\nsamples = 2\nvalue = [1, 1]"] ;
555 -> 557 ;
558 [label="gini = 0.0\nsamples = 1\nvalue = [0, 1]"] ;
557 -> 558 ;
559 [label="gini = 0.0\nsamples = 1\nvalue = [1, 0]"] ;
557 -> 559 ;
560 [label="Adventure <= 0.5\ngini = 0.5\nsamples = 6\nvalue = [3, 3]"] ;
552 -> 560 ;
561 [label="Comedy <= 0.5\ngini = 0.375\nsamples = 4\nvalue = [1, 3]"] ;
560 -> 561 ;
562 [label="gini = 0.0\nsamples = 1\nvalue = [1, 0]"] ;
561 -> 562 ;
563 [label="gini = 0.0\nsamples = 3\nvalue = [0, 3]"] ;
561 -> 563 ;
564 [label="gini = 0.0\nsamples = 2\nvalue = [2, 0]"] ;
560 -> 564 ;
565 [label="annee <= 2008.5\ngini = 0.064\nsamples = 90\nvalue = [87, 3]"] ;
551 -> 565 ;
566 [label="gini = 0.0\nsamples = 64\nvalue = [64, 0]"] ;
565 -> 566 ;
567 [label="Comedy <= 0.5\ngini = 0.204\nsamples = 26\nvalue = [23, 3]"] ;
565 -> 567 ;
568 [label="Adventure <= 0.5\ngini = 0.355\nsamples = 13\nvalue = [10, 3]"] ;
567 -> 568 ;
569 [label="budget <= 90000000.0\ngini = 0.278\nsamples = 12\nvalue = [10, 2]"] ;
568 -> 569 ;
570 [label="Duree <= 92.5\ngini = 0.165\nsamples = 11\nvalue = [10, 1]"] ;
569 -> 570 ;
571 [label="gini = 0.0\nsamples = 9\nvalue = [9, 0]"] ;
570 -> 571 ;
572 [label="annee <= 2011.5\ngini = 0.5\nsamples = 2\nvalue = [1, 1]"] ;
570 -> 572 ;
573 [label="gini = 0.0\nsamples = 1\nvalue = [0, 1]"] ;
572 -> 573 ;
574 [label="gini = 0.0\nsamples = 1\nvalue = [1, 0]"] ;
572 -> 574 ;
575 [label="gini = 0.0\nsamples = 1\nvalue = [0, 1]"] ;
569 -> 575 ;
576 [label="gini = 0.0\nsamples = 1\nvalue = [0, 1]"] ;
568 -> 576 ;
577 [label="gini = 0.0\nsamples = 13\nvalue = [13, 0]"] ;
567 -> 577 ;
578 [label="War <= 0.5\ngini = 0.275\nsamples = 85\nvalue = [71, 14]"] ;
550 -> 578 ;
579 [label="Action <= 0.5\ngini = 0.262\nsamples = 84\nvalue = [71, 13]"] ;
578 -> 579 ;
580 [label="Duree <= 97.0\ngini = 0.359\nsamples = 47\nvalue = [36, 11]"] ;
579 -> 580 ;
581 [label="annee <= 2003.5\ngini = 0.463\nsamples = 22\nvalue = [14, 8]"] ;
580 -> 581 ;
582 [label="Horror <= 0.5\ngini = 0.198\nsamples = 9\nvalue = [8, 1]"] ;
581 -> 582 ;
583 [label="gini = 0.0\nsamples = 7\nvalue = [7, 0]"] ;
582 -> 583 ;
584 [label="Mystery <= 0.5\ngini = 0.5\nsamples = 2\nvalue = [1, 1]"] ;
582 -> 584 ;
585 [label="gini = 0.0\nsamples = 1\nvalue = [0, 1]"] ;
584 -> 585 ;
586 [label="gini = 0.0\nsamples = 1\nvalue = [1, 0]"] ;
584 -> 586 ;
587 [label="Romance <= 0.5\ngini = 0.497\nsamples = 13\nvalue = [6, 7]"] ;
581 -> 587 ;
588 [label="Fantasy <= 0.5\ngini = 0.375\nsamples = 8\nvalue = [2, 6]"] ;
587 -> 588 ;
589 [label="gini = 0.0\nsamples = 5\nvalue = [0, 5]"] ;
588 -> 589 ;
590 [label="Comedy <= 0.5\ngini = 0.444\nsamples = 3\nvalue = [2, 1]"] ;
588 -> 590 ;
591 [label="gini = 0.0\nsamples = 1\nvalue = [0, 1]"] ;
590 -> 591 ;
592 [label="gini = 0.0\nsamples = 2\nvalue = [2, 0]"] ;
590 -> 592 ;
593 [label="budget <= 54000000.0\ngini = 0.32\nsamples = 5\nvalue = [4, 1]"] ;
587 -> 593 ;
594 [label="gini = 0.0\nsamples = 4\nvalue = [4, 0]"] ;
593 -> 594 ;
595 [label="gini = 0.0\nsamples = 1\nvalue = [0, 1]"] ;
593 -> 595 ;
596 [label="annee <= 2012.5\ngini = 0.211\nsamples = 25\nvalue = [22, 3]"] ;
580 -> 596 ;
597 [label="budget <= 70000000.0\ngini = 0.159\nsamples = 23\nvalue = [21, 2]"] ;
596 -> 597 ;
598 [label="gini = 0.0\nsamples = 17\nvalue = [17, 0]"] ;
597 -> 598 ;
599 [label="annee <= 2005.5\ngini = 0.444\nsamples = 6\nvalue = [4, 2]"] ;
597 -> 599 ;
600 [label="Duree <= 98.5\ngini = 0.444\nsamples = 3\nvalue = [1, 2]"] ;
599 -> 600 ;
601 [label="Sci-Fi <= 0.5\ngini = 0.5\nsamples = 2\nvalue = [1, 1]"] ;
600 -> 601 ;
602 [label="gini = 0.0\nsamples = 1\nvalue = [1, 0]"] ;
601 -> 602 ;
603 [label="gini = 0.0\nsamples = 1\nvalue = [0, 1]"] ;
601 -> 603 ;
604 [label="gini = 0.0\nsamples = 1\nvalue = [0, 1]"] ;
600 -> 604 ;
605 [label="gini = 0.0\nsamples = 3\nvalue = [3, 0]"] ;
599 -> 605 ;
606 [label="Romance <= 0.5\ngini = 0.5\nsamples = 2\nvalue = [1, 1]"] ;
596 -> 606 ;
607 [label="gini = 0.0\nsamples = 1\nvalue = [1, 0]"] ;
606 -> 607 ;
608 [label="gini = 0.0\nsamples = 1\nvalue = [0, 1]"] ;
606 -> 608 ;
609 [label="budget <= 36500000.0\ngini = 0.102\nsamples = 37\nvalue = [35, 2]"] ;
579 -> 609 ;
610 [label="annee <= 2013.5\ngini = 0.5\nsamples = 2\nvalue = [1, 1]"] ;
609 -> 610 ;
611 [label="gini = 0.0\nsamples = 1\nvalue = [0, 1]"] ;
610 -> 611 ;
612 [label="gini = 0.0\nsamples = 1\nvalue = [1, 0]"] ;
610 -> 612 ;
613 [label="budget <= 92500000.0\ngini = 0.056\nsamples = 35\nvalue = [34, 1]"] ;
609 -> 613 ;
614 [label="gini = 0.0\nsamples = 31\nvalue = [31, 0]"] ;
613 -> 614 ;
615 [label="Thriller <= 0.5\ngini = 0.375\nsamples = 4\nvalue = [3, 1]"] ;
613 -> 615 ;
616 [label="gini = 0.0\nsamples = 3\nvalue = [3, 0]"] ;
615 -> 616 ;
617 [label="gini = 0.0\nsamples = 1\nvalue = [0, 1]"] ;
615 -> 617 ;
618 [label="gini = 0.0\nsamples = 1\nvalue = [0, 1]"] ;
578 -> 618 ;
619 [label="gini = 0.0\nsamples = 48\nvalue = [48, 0]"] ;
549 -> 619 ;
620 [label="gini = 0.0\nsamples = 1\nvalue = [0, 1]"] ;
548 -> 620 ;
621 [label="budget <= 6950000.0\ngini = 0.402\nsamples = 287\nvalue = [207, 80]"] ;
339 -> 621 ;
622 [label="gini = 0.0\nsamples = 2\nvalue = [0, 2]"] ;
621 -> 622 ;
623 [label="budget <= 205000000.0\ngini = 0.398\nsamples = 285\nvalue = [207, 78]"] ;
621 -> 623 ;
624 [label="Crime <= 0.5\ngini = 0.393\nsamples = 283\nvalue = [207, 76]"] ;
623 -> 624 ;
625 [label="History <= 0.5\ngini = 0.366\nsamples = 224\nvalue = [170, 54]"] ;
624 -> 625 ;
626 [label="Musical <= 0.5\ngini = 0.362\nsamples = 223\nvalue = [170, 53]"] ;
625 -> 626 ;
627 [label="Duree <= 103.5\ngini = 0.356\nsamples = 220\nvalue = [169, 51]"] ;
626 -> 627 ;
628 [label="Adventure <= 0.5\ngini = 0.21\nsamples = 42\nvalue = [37, 5]"] ;
627 -> 628 ;
629 [label="annee <= 2012.5\ngini = 0.121\nsamples = 31\nvalue = [29, 2]"] ;
628 -> 629 ;
630 [label="Fantasy <= 0.5\ngini = 0.067\nsamples = 29\nvalue = [28, 1]"] ;
629 -> 630 ;
631 [label="gini = 0.0\nsamples = 24\nvalue = [24, 0]"] ;
630 -> 631 ;
632 [label="annee <= 2000.5\ngini = 0.32\nsamples = 5\nvalue = [4, 1]"] ;
630 -> 632 ;
633 [label="annee <= 1995.0\ngini = 0.5\nsamples = 2\nvalue = [1, 1]"] ;
632 -> 633 ;
634 [label="gini = 0.0\nsamples = 1\nvalue = [1, 0]"] ;
633 -> 634 ;
635 [label="gini = 0.0\nsamples = 1\nvalue = [0, 1]"] ;
633 -> 635 ;
636 [label="gini = 0.0\nsamples = 3\nvalue = [3, 0]"] ;
632 -> 636 ;
637 [label="Horror <= 0.5\ngini = 0.5\nsamples = 2\nvalue = [1, 1]"] ;
629 -> 637 ;
638 [label="gini = 0.0\nsamples = 1\nvalue = [0, 1]"] ;
637 -> 638 ;
639 [label="gini = 0.0\nsamples = 1\nvalue = [1, 0]"] ;
637 -> 639 ;
640 [label="budget <= 25000000.0\ngini = 0.397\nsamples = 11\nvalue = [8, 3]"] ;
628 -> 640 ;
641 [label="gini = 0.0\nsamples = 1\nvalue = [0, 1]"] ;
640 -> 641 ;
642 [label="Fantasy <= 0.5\ngini = 0.32\nsamples = 10\nvalue = [8, 2]"] ;
640 -> 642 ;
643 [label="annee <= 1998.5\ngini = 0.444\nsamples = 6\nvalue = [4, 2]"] ;
642 -> 643 ;
644 [label="gini = 0.0\nsamples = 3\nvalue = [3, 0]"] ;
643 -> 644 ;
645 [label="budget <= 96000000.0\ngini = 0.444\nsamples = 3\nvalue = [1, 2]"] ;
643 -> 645 ;
646 [label="gini = 0.0\nsamples = 2\nvalue = [0, 2]"] ;
645 -> 646 ;
647 [label="gini = 0.0\nsamples = 1\nvalue = [1, 0]"] ;
645 -> 647 ;
648 [label="gini = 0.0\nsamples = 4\nvalue = [4, 0]"] ;
642 -> 648 ;
649 [label="Duree <= 104.5\ngini = 0.383\nsamples = 178\nvalue = [132, 46]"] ;
627 -> 649 ;
650 [label="budget <= 62500000.0\ngini = 0.475\nsamples = 31\nvalue = [19, 12]"] ;
649 -> 650 ;
651 [label="budget <= 41500000.0\ngini = 0.426\nsamples = 26\nvalue = [18, 8]"] ;
650 -> 651 ;
652 [label="Adventure <= 0.5\ngini = 0.492\nsamples = 16\nvalue = [9, 7]"] ;
651 -> 652 ;
653 [label="Sci-Fi <= 0.5\ngini = 0.459\nsamples = 14\nvalue = [9, 5]"] ;
652 -> 653 ;
654 [label="annee <= 2002.0\ngini = 0.5\nsamples = 10\nvalue = [5, 5]"] ;
653 -> 654 ;
655 [label="gini = 0.0\nsamples = 3\nvalue = [0, 3]"] ;
654 -> 655 ;
656 [label="annee <= 2014.5\ngini = 0.408\nsamples = 7\nvalue = [5, 2]"] ;
654 -> 656 ;
657 [label="budget <= 16000000.0\ngini = 0.278\nsamples = 6\nvalue = [5, 1]"] ;
656 -> 657 ;
658 [label="budget <= 13500000.0\ngini = 0.5\nsamples = 2\nvalue = [1, 1]"] ;
657 -> 658 ;
659 [label="gini = 0.0\nsamples = 1\nvalue = [1, 0]"] ;
658 -> 659 ;
660 [label="gini = 0.0\nsamples = 1\nvalue = [0, 1]"] ;
658 -> 660 ;
661 [label="gini = 0.0\nsamples = 4\nvalue = [4, 0]"] ;
657 -> 661 ;
662 [label="gini = 0.0\nsamples = 1\nvalue = [0, 1]"] ;
656 -> 662 ;
663 [label="gini = 0.0\nsamples = 4\nvalue = [4, 0]"] ;
653 -> 663 ;
664 [label="gini = 0.0\nsamples = 2\nvalue = [0, 2]"] ;
652 -> 664 ;
665 [label="Romance <= 0.5\ngini = 0.18\nsamples = 10\nvalue = [9, 1]"] ;
651 -> 665 ;
666 [label="gini = 0.0\nsamples = 8\nvalue = [8, 0]"] ;
665 -> 666 ;
667 [label="budget <= 57445000.0\ngini = 0.5\nsamples = 2\nvalue = [1, 1]"] ;
665 -> 667 ;
668 [label="gini = 0.0\nsamples = 1\nvalue = [0, 1]"] ;
667 -> 668 ;
669 [label="gini = 0.0\nsamples = 1\nvalue = [1, 0]"] ;
667 -> 669 ;
670 [label="budget <= 92500000.0\ngini = 0.32\nsamples = 5\nvalue = [1, 4]"] ;
650 -> 670 ;
671 [label="gini = 0.0\nsamples = 4\nvalue = [0, 4]"] ;
670 -> 671 ;
672 [label="gini = 0.0\nsamples = 1\nvalue = [1, 0]"] ;
670 -> 672 ;
673 [label="budget <= 21000000.0\ngini = 0.356\nsamples = 147\nvalue = [113, 34]"] ;
649 -> 673 ;
674 [label="annee <= 1993.5\ngini = 0.198\nsamples = 36\nvalue = [32, 4]"] ;
673 -> 674 ;
675 [label="gini = 0.0\nsamples = 1\nvalue = [0, 1]"] ;
674 -> 675 ;
676 [label="Romance <= 0.5\ngini = 0.157\nsamples = 35\nvalue = [32, 3]"] ;
674 -> 676 ;
677 [label="gini = 0.0\nsamples = 26\nvalue = [26, 0]"] ;
676 -> 677 ;
678 [label="budget <= 13610500.0\ngini = 0.444\nsamples = 9\nvalue = [6, 3]"] ;
676 -> 678 ;
679 [label="gini = 0.0\nsamples = 3\nvalue = [0, 3]"] ;
678 -> 679 ;
680 [label="gini = 0.0\nsamples = 6\nvalue = [6, 0]"] ;
678 -> 680 ;
681 [label="annee <= 1997.5\ngini = 0.394\nsamples = 111\nvalue = [81, 30]"] ;
673 -> 681 ;
682 [label="Duree <= 109.5\ngini = 0.124\nsamples = 15\nvalue = [14, 1]"] ;
681 -> 682 ;
683 [label="gini = 0.0\nsamples = 13\nvalue = [13, 0]"] ;
682 -> 683 ;
684 [label="Horror <= 0.5\ngini = 0.5\nsamples = 2\nvalue = [1, 1]"] ;
682 -> 684 ;
685 [label="gini = 0.0\nsamples = 1\nvalue = [0, 1]"] ;
684 -> 685 ;
686 [label="gini = 0.0\nsamples = 1\nvalue = [1, 0]"] ;
684 -> 686 ;
687 [label="budget <= 23500000.0\ngini = 0.422\nsamples = 96\nvalue = [67, 29]"] ;
681 -> 687 ;
688 [label="annee <= 2005.5\ngini = 0.375\nsamples = 4\nvalue = [1, 3]"] ;
687 -> 688 ;
689 [label="gini = 0.0\nsamples = 3\nvalue = [0, 3]"] ;
688 -> 689 ;
690 [label="gini = 0.0\nsamples = 1\nvalue = [1, 0]"] ;
688 -> 690 ;
691 [label="budget <= 57500000.0\ngini = 0.405\nsamples = 92\nvalue = [66, 26]"] ;
687 -> 691 ;
692 [label="Sci-Fi <= 0.5\ngini = 0.452\nsamples = 58\nvalue = [38, 20]"] ;
691 -> 692 ;
693 [label="budget <= 54500000.0\ngini = 0.363\nsamples = 42\nvalue = [32, 10]"] ;
692 -> 693 ;
694 [label="Music <= 0.5\ngini = 0.32\nsamples = 40\nvalue = [32, 8]"] ;
693 -> 694 ;
695 [label="annee <= 2012.5\ngini = 0.295\nsamples = 39\nvalue = [32, 7]"] ;
694 -> 695 ;
696 [label="annee <= 1998.5\ngini = 0.213\nsamples = 33\nvalue = [29, 4]"] ;
695 -> 696 ;
697 [label="gini = 0.0\nsamples = 1\nvalue = [0, 1]"] ;
696 -> 697 ;
698 [label="annee <= 2008.5\ngini = 0.17\nsamples = 32\nvalue = [29, 3]"] ;
696 -> 698 ;
699 [label="gini = 0.0\nsamples = 16\nvalue = [16, 0]"] ;
698 -> 699 ;
700 [label="annee <= 2009.5\ngini = 0.305\nsamples = 16\nvalue = [13, 3]"] ;
698 -> 700 ;
701 [label="gini = 0.5\nsamples = 4\nvalue = [2, 2]"] ;
700 -> 701 ;
702 [label="gini = 0.153\nsamples = 12\nvalue = [11, 1]"] ;
700 -> 702 ;
703 [label="annee <= 2013.5\ngini = 0.5\nsamples = 6\nvalue = [3, 3]"] ;
695 -> 703 ;
704 [label="gini = 0.0\nsamples = 2\nvalue = [0, 2]"] ;
703 -> 704 ;
705 [label="Comedy <= 0.5\ngini = 0.375\nsamples = 4\nvalue = [3, 1]"] ;
703 -> 705 ;
706 [label="gini = 0.0\nsamples = 1\nvalue = [0, 1]"] ;
705 -> 706 ;
707 [label="gini = 0.0\nsamples = 3\nvalue = [3, 0]"] ;
705 -> 707 ;
708 [label="gini = 0.0\nsamples = 1\nvalue = [0, 1]"] ;
694 -> 708 ;
709 [label="gini = 0.0\nsamples = 2\nvalue = [0, 2]"] ;
693 -> 709 ;
710 [label="annee <= 2001.0\ngini = 0.469\nsamples = 16\nvalue = [6, 10]"] ;
692 -> 710 ;
711 [label="gini = 0.0\nsamples = 2\nvalue = [2, 0]"] ;
710 -> 711 ;
712 [label="annee <= 2007.5\ngini = 0.408\nsamples = 14\nvalue = [4, 10]"] ;
710 -> 712 ;
713 [label="gini = 0.0\nsamples = 5\nvalue = [0, 5]"] ;
712 -> 713 ;
714 [label="annee <= 2008.5\ngini = 0.494\nsamples = 9\nvalue = [4, 5]"] ;
712 -> 714 ;
715 [label="gini = 0.0\nsamples = 2\nvalue = [2, 0]"] ;
714 -> 715 ;
716 [label="Adventure <= 0.5\ngini = 0.408\nsamples = 7\nvalue = [2, 5]"] ;
714 -> 716 ;
717 [label="gini = 0.0\nsamples = 5\nvalue = [0, 5]"] ;
716 -> 717 ;
718 [label="gini = 0.0\nsamples = 2\nvalue = [2, 0]"] ;
716 -> 718 ;
719 [label="budget <= 95000000.0\ngini = 0.291\nsamples = 34\nvalue = [28, 6]"] ;
691 -> 719 ;
720 [label="Sci-Fi <= 0.5\ngini = 0.159\nsamples = 23\nvalue = [21, 2]"] ;
719 -> 720 ;
721 [label="annee <= 2009.5\ngini = 0.245\nsamples = 14\nvalue = [12, 2]"] ;
720 -> 721 ;
722 [label="Romance <= 0.5\ngini = 0.375\nsamples = 8\nvalue = [6, 2]"] ;
721 -> 722 ;
723 [label="Fantasy <= 0.5\ngini = 0.48\nsamples = 5\nvalue = [3, 2]"] ;
722 -> 723 ;
724 [label="annee <= 2003.5\ngini = 0.444\nsamples = 3\nvalue = [1, 2]"] ;
723 -> 724 ;
725 [label="gini = 0.0\nsamples = 1\nvalue = [1, 0]"] ;
724 -> 725 ;
726 [label="gini = 0.0\nsamples = 2\nvalue = [0, 2]"] ;
724 -> 726 ;
727 [label="gini = 0.0\nsamples = 2\nvalue = [2, 0]"] ;
723 -> 727 ;
728 [label="gini = 0.0\nsamples = 3\nvalue = [3, 0]"] ;
722 -> 728 ;
729 [label="gini = 0.0\nsamples = 6\nvalue = [6, 0]"] ;
721 -> 729 ;
730 [label="gini = 0.0\nsamples = 9\nvalue = [9, 0]"] ;
720 -> 730 ;
731 [label="Adventure <= 0.5\ngini = 0.463\nsamples = 11\nvalue = [7, 4]"] ;
719 -> 731 ;
732 [label="gini = 0.0\nsamples = 3\nvalue = [3, 0]"] ;
731 -> 732 ;
733 [label="annee <= 2005.0\ngini = 0.5\nsamples = 8\nvalue = [4, 4]"] ;
731 -> 733 ;
734 [label="gini = 0.0\nsamples = 2\nvalue = [0, 2]"] ;
733 -> 734 ;
735 [label="Fantasy <= 0.5\ngini = 0.444\nsamples = 6\nvalue = [4, 2]"] ;
733 -> 735 ;
736 [label="gini = 0.0\nsamples = 2\nvalue = [0, 2]"] ;
735 -> 736 ;
737 [label="gini = 0.0\nsamples = 4\nvalue = [4, 0]"] ;
735 -> 737 ;
738 [label="budget <= 48500000.0\ngini = 0.444\nsamples = 3\nvalue = [1, 2]"] ;
626 -> 738 ;
739 [label="gini = 0.0\nsamples = 2\nvalue = [0, 2]"] ;
738 -> 739 ;
740 [label="gini = 0.0\nsamples = 1\nvalue = [1, 0]"] ;
738 -> 740 ;
741 [label="gini = 0.0\nsamples = 1\nvalue = [0, 1]"] ;
625 -> 741 ;
742 [label="budget <= 19500000.0\ngini = 0.468\nsamples = 59\nvalue = [37, 22]"] ;
624 -> 742 ;
743 [label="annee <= 2006.0\ngini = 0.444\nsamples = 15\nvalue = [5, 10]"] ;
742 -> 743 ;
744 [label="Fantasy <= 0.5\ngini = 0.198\nsamples = 9\nvalue = [1, 8]"] ;
743 -> 744 ;
745 [label="gini = 0.0\nsamples = 8\nvalue = [0, 8]"] ;
744 -> 745 ;
746 [label="gini = 0.0\nsamples = 1\nvalue = [1, 0]"] ;
744 -> 746 ;
747 [label="Duree <= 109.0\ngini = 0.444\nsamples = 6\nvalue = [4, 2]"] ;
743 -> 747 ;
748 [label="budget <= 11250000.0\ngini = 0.32\nsamples = 5\nvalue = [4, 1]"] ;
747 -> 748 ;
749 [label="Action <= 0.5\ngini = 0.5\nsamples = 2\nvalue = [1, 1]"] ;
748 -> 749 ;
750 [label="gini = 0.0\nsamples = 1\nvalue = [1, 0]"] ;
749 -> 750 ;
751 [label="gini = 0.0\nsamples = 1\nvalue = [0, 1]"] ;
749 -> 751 ;
752 [label="gini = 0.0\nsamples = 3\nvalue = [3, 0]"] ;
748 -> 752 ;
753 [label="gini = 0.0\nsamples = 1\nvalue = [0, 1]"] ;
747 -> 753 ;
754 [label="Thriller <= 0.5\ngini = 0.397\nsamples = 44\nvalue = [32, 12]"] ;
742 -> 754 ;
755 [label="budget <= 36000000.0\ngini = 0.497\nsamples = 13\nvalue = [6, 7]"] ;
754 -> 755 ;
756 [label="gini = 0.0\nsamples = 6\nvalue = [0, 6]"] ;
755 -> 756 ;
757 [label="Duree <= 108.0\ngini = 0.245\nsamples = 7\nvalue = [6, 1]"] ;
755 -> 757 ;
758 [label="gini = 0.0\nsamples = 5\nvalue = [5, 0]"] ;
757 -> 758 ;
759 [label="annee <= 2006.0\ngini = 0.5\nsamples = 2\nvalue = [1, 1]"] ;
757 -> 759 ;
760 [label="gini = 0.0\nsamples = 1\nvalue = [1, 0]"] ;
759 -> 760 ;
761 [label="gini = 0.0\nsamples = 1\nvalue = [0, 1]"] ;
759 -> 761 ;
762 [label="budget <= 30125000.0\ngini = 0.271\nsamples = 31\nvalue = [26, 5]"] ;
754 -> 762 ;
763 [label="gini = 0.0\nsamples = 15\nvalue = [15, 0]"] ;
762 -> 763 ;
764 [label="Duree <= 102.5\ngini = 0.43\nsamples = 16\nvalue = [11, 5]"] ;
762 -> 764 ;
765 [label="gini = 0.0\nsamples = 2\nvalue = [0, 2]"] ;
764 -> 765 ;
766 [label="budget <= 32075000.0\ngini = 0.337\nsamples = 14\nvalue = [11, 3]"] ;
764 -> 766 ;
767 [label="gini = 0.0\nsamples = 1\nvalue = [0, 1]"] ;
766 -> 767 ;
768 [label="Duree <= 109.5\ngini = 0.26\nsamples = 13\nvalue = [11, 2]"] ;
766 -> 768 ;
769 [label="annee <= 2002.0\ngini = 0.165\nsamples = 11\nvalue = [10, 1]"] ;
768 -> 769 ;
770 [label="Duree <= 105.5\ngini = 0.444\nsamples = 3\nvalue = [2, 1]"] ;
769 -> 770 ;
771 [label="gini = 0.0\nsamples = 2\nvalue = [2, 0]"] ;
770 -> 771 ;
772 [label="gini = 0.0\nsamples = 1\nvalue = [0, 1]"] ;
770 -> 772 ;
773 [label="gini = 0.0\nsamples = 8\nvalue = [8, 0]"] ;
769 -> 773 ;
774 [label="Adventure <= 0.5\ngini = 0.5\nsamples = 2\nvalue = [1, 1]"] ;
768 -> 774 ;
775 [label="gini = 0.0\nsamples = 1\nvalue = [0, 1]"] ;
774 -> 775 ;
776 [label="gini = 0.0\nsamples = 1\nvalue = [1, 0]"] ;
774 -> 776 ;
777 [label="gini = 0.0\nsamples = 2\nvalue = [0, 2]"] ;
623 -> 777 ;
778 [label="budget <= 19000000.0\ngini = 0.465\nsamples = 152\nvalue = [56, 96]"] ;
126 -> 778 ;
779 [label="Duree <= 95.5\ngini = 0.142\nsamples = 13\nvalue = [1, 12]"] ;
778 -> 779 ;
780 [label="gini = 0.0\nsamples = 10\nvalue = [0, 10]"] ;
779 -> 780 ;
781 [label="annee <= 2007.0\ngini = 0.444\nsamples = 3\nvalue = [1, 2]"] ;
779 -> 781 ;
782 [label="gini = 0.0\nsamples = 2\nvalue = [0, 2]"] ;
781 -> 782 ;
783 [label="gini = 0.0\nsamples = 1\nvalue = [1, 0]"] ;
781 -> 783 ;
784 [label="budget <= 82500000.0\ngini = 0.478\nsamples = 139\nvalue = [55, 84]"] ;
778 -> 784 ;
785 [label="Family <= 0.5\ngini = 0.5\nsamples = 74\nvalue = [37, 37]"] ;
784 -> 785 ;
786 [label="annee <= 2002.5\ngini = 0.32\nsamples = 10\nvalue = [2, 8]"] ;
785 -> 786 ;
787 [label="budget <= 48000000.0\ngini = 0.444\nsamples = 3\nvalue = [2, 1]"] ;
786 -> 787 ;
788 [label="gini = 0.0\nsamples = 1\nvalue = [0, 1]"] ;
787 -> 788 ;
789 [label="gini = 0.0\nsamples = 2\nvalue = [2, 0]"] ;
787 -> 789 ;
790 [label="gini = 0.0\nsamples = 7\nvalue = [0, 7]"] ;
786 -> 790 ;
791 [label="annee <= 2000.5\ngini = 0.496\nsamples = 64\nvalue = [35, 29]"] ;
785 -> 791 ;
792 [label="Fantasy <= 0.5\ngini = 0.457\nsamples = 17\nvalue = [6, 11]"] ;
791 -> 792 ;
793 [label="gini = 0.0\nsamples = 4\nvalue = [0, 4]"] ;
792 -> 793 ;
794 [label="Duree <= 84.5\ngini = 0.497\nsamples = 13\nvalue = [6, 7]"] ;
792 -> 794 ;
795 [label="annee <= 1987.0\ngini = 0.32\nsamples = 5\nvalue = [1, 4]"] ;
794 -> 795 ;
796 [label="gini = 0.0\nsamples = 1\nvalue = [1, 0]"] ;
795 -> 796 ;
797 [label="gini = 0.0\nsamples = 4\nvalue = [0, 4]"] ;
795 -> 797 ;
798 [label="annee <= 1993.0\ngini = 0.469\nsamples = 8\nvalue = [5, 3]"] ;
794 -> 798 ;
799 [label="gini = 0.0\nsamples = 3\nvalue = [0, 3]"] ;
798 -> 799 ;
800 [label="gini = 0.0\nsamples = 5\nvalue = [5, 0]"] ;
798 -> 800 ;
801 [label="Duree <= 95.5\ngini = 0.473\nsamples = 47\nvalue = [29, 18]"] ;
791 -> 801 ;
802 [label="Mystery <= 0.5\ngini = 0.444\nsamples = 42\nvalue = [28, 14]"] ;
801 -> 802 ;
803 [label="Duree <= 88.5\ngini = 0.42\nsamples = 40\nvalue = [28, 12]"] ;
802 -> 803 ;
804 [label="Fantasy <= 0.5\ngini = 0.483\nsamples = 22\nvalue = [13, 9]"] ;
803 -> 804 ;
805 [label="Duree <= 85.5\ngini = 0.48\nsamples = 15\nvalue = [6, 9]"] ;
804 -> 805 ;
806 [label="Duree <= 67.5\ngini = 0.444\nsamples = 9\nvalue = [6, 3]"] ;
805 -> 806 ;
807 [label="gini = 0.0\nsamples = 1\nvalue = [0, 1]"] ;
806 -> 807 ;
808 [label="annee <= 2014.5\ngini = 0.375\nsamples = 8\nvalue = [6, 2]"] ;
806 -> 808 ;
809 [label="budget <= 65000000.0\ngini = 0.245\nsamples = 7\nvalue = [6, 1]"] ;
808 -> 809 ;
810 [label="gini = 0.0\nsamples = 5\nvalue = [5, 0]"] ;
809 -> 810 ;
811 [label="Duree <= 81.5\ngini = 0.5\nsamples = 2\nvalue = [1, 1]"] ;
809 -> 811 ;
812 [label="gini = 0.0\nsamples = 1\nvalue = [1, 0]"] ;
811 -> 812 ;
813 [label="gini = 0.0\nsamples = 1\nvalue = [0, 1]"] ;
811 -> 813 ;
814 [label="gini = 0.0\nsamples = 1\nvalue = [0, 1]"] ;
808 -> 814 ;
815 [label="gini = 0.0\nsamples = 6\nvalue = [0, 6]"] ;
805 -> 815 ;
816 [label="gini = 0.0\nsamples = 7\nvalue = [7, 0]"] ;
804 -> 816 ;
817 [label="Fantasy <= 0.5\ngini = 0.278\nsamples = 18\nvalue = [15, 3]"] ;
803 -> 817 ;
818 [label="gini = 0.0\nsamples = 11\nvalue = [11, 0]"] ;
817 -> 818 ;
819 [label="budget <= 61500000.0\ngini = 0.49\nsamples = 7\nvalue = [4, 3]"] ;
817 -> 819 ;
820 [label="Adventure <= 0.5\ngini = 0.375\nsamples = 4\nvalue = [1, 3]"] ;
819 -> 820 ;
821 [label="gini = 0.0\nsamples = 1\nvalue = [1, 0]"] ;
820 -> 821 ;
822 [label="gini = 0.0\nsamples = 3\nvalue = [0, 3]"] ;
820 -> 822 ;
823 [label="gini = 0.0\nsamples = 3\nvalue = [3, 0]"] ;
819 -> 823 ;
824 [label="gini = 0.0\nsamples = 2\nvalue = [0, 2]"] ;
802 -> 824 ;
825 [label="Comedy <= 0.5\ngini = 0.32\nsamples = 5\nvalue = [1, 4]"] ;
801 -> 825 ;
826 [label="gini = 0.0\nsamples = 1\nvalue = [1, 0]"] ;
825 -> 826 ;
827 [label="gini = 0.0\nsamples = 4\nvalue = [0, 4]"] ;
825 -> 827 ;
828 [label="Duree <= 84.5\ngini = 0.4\nsamples = 65\nvalue = [18, 47]"] ;
784 -> 828 ;
829 [label="Fantasy <= 0.5\ngini = 0.375\nsamples = 8\nvalue = [6, 2]"] ;
828 -> 829 ;
830 [label="gini = 0.0\nsamples = 5\nvalue = [5, 0]"] ;
829 -> 830 ;
831 [label="budget <= 110000000.0\ngini = 0.444\nsamples = 3\nvalue = [1, 2]"] ;
829 -> 831 ;
832 [label="gini = 0.0\nsamples = 2\nvalue = [0, 2]"] ;
831 -> 832 ;
833 [label="gini = 0.0\nsamples = 1\nvalue = [1, 0]"] ;
831 -> 833 ;
834 [label="Duree <= 104.5\ngini = 0.332\nsamples = 57\nvalue = [12, 45]"] ;
828 -> 834 ;
835 [label="budget <= 101500000.0\ngini = 0.269\nsamples = 50\nvalue = [8, 42]"] ;
834 -> 835 ;
836 [label="gini = 0.0\nsamples = 11\nvalue = [0, 11]"] ;
835 -> 836 ;
837 [label="budget <= 112500000.0\ngini = 0.326\nsamples = 39\nvalue = [8, 31]"] ;
835 -> 837 ;
838 [label="Romance <= 0.5\ngini = 0.444\nsamples = 3\nvalue = [2, 1]"] ;
837 -> 838 ;
839 [label="gini = 0.0\nsamples = 2\nvalue = [2, 0]"] ;
838 -> 839 ;
840 [label="gini = 0.0\nsamples = 1\nvalue = [0, 1]"] ;
838 -> 840 ;
841 [label="Sport <= 0.5\ngini = 0.278\nsamples = 36\nvalue = [6, 30]"] ;
837 -> 841 ;
842 [label="Duree <= 93.5\ngini = 0.245\nsamples = 35\nvalue = [5, 30]"] ;
841 -> 842 ;
843 [label="budget <= 149500000.0\ngini = 0.391\nsamples = 15\nvalue = [4, 11]"] ;
842 -> 843 ;
844 [label="gini = 0.0\nsamples = 8\nvalue = [0, 8]"] ;
843 -> 844 ;
845 [label="annee <= 2005.5\ngini = 0.49\nsamples = 7\nvalue = [4, 3]"] ;
843 -> 845 ;
846 [label="gini = 0.0\nsamples = 1\nvalue = [0, 1]"] ;
845 -> 846 ;
847 [label="annee <= 2011.5\ngini = 0.444\nsamples = 6\nvalue = [4, 2]"] ;
845 -> 847 ;
848 [label="Duree <= 90.0\ngini = 0.32\nsamples = 5\nvalue = [4, 1]"] ;
847 -> 848 ;
849 [label="Duree <= 88.5\ngini = 0.5\nsamples = 2\nvalue = [1, 1]"] ;
848 -> 849 ;
850 [label="gini = 0.0\nsamples = 1\nvalue = [1, 0]"] ;
849 -> 850 ;
851 [label="gini = 0.0\nsamples = 1\nvalue = [0, 1]"] ;
849 -> 851 ;
852 [label="gini = 0.0\nsamples = 3\nvalue = [3, 0]"] ;
848 -> 852 ;
853 [label="gini = 0.0\nsamples = 1\nvalue = [0, 1]"] ;
847 -> 853 ;
854 [label="Musical <= 0.5\ngini = 0.095\nsamples = 20\nvalue = [1, 19]"] ;
842 -> 854 ;
855 [label="gini = 0.0\nsamples = 17\nvalue = [0, 17]"] ;
854 -> 855 ;
856 [label="Fantasy <= 0.5\ngini = 0.444\nsamples = 3\nvalue = [1, 2]"] ;
854 -> 856 ;
857 [label="gini = 0.0\nsamples = 1\nvalue = [1, 0]"] ;
856 -> 857 ;
858 [label="gini = 0.0\nsamples = 2\nvalue = [0, 2]"] ;
856 -> 858 ;
859 [label="gini = 0.0\nsamples = 1\nvalue = [1, 0]"] ;
841 -> 859 ;
860 [label="Duree <= 106.5\ngini = 0.49\nsamples = 7\nvalue = [4, 3]"] ;
834 -> 860 ;
861 [label="gini = 0.0\nsamples = 3\nvalue = [3, 0]"] ;
860 -> 861 ;
862 [label="annee <= 2006.5\ngini = 0.375\nsamples = 4\nvalue = [1, 3]"] ;
860 -> 862 ;
863 [label="gini = 0.0\nsamples = 1\nvalue = [1, 0]"] ;
862 -> 863 ;
864 [label="gini = 0.0\nsamples = 3\nvalue = [0, 3]"] ;
862 -> 864 ;
865 [label="Duree <= 134.5\ngini = 0.49\nsamples = 512\nvalue = [219, 293]"] ;
125 -> 865 ;
866 [label="annee <= 1992.5\ngini = 0.5\nsamples = 398\nvalue = [193, 205]"] ;
865 -> 866 ;
867 [label="Family <= 0.5\ngini = 0.355\nsamples = 39\nvalue = [9, 30]"] ;
866 -> 867 ;
868 [label="Duree <= 115.5\ngini = 0.307\nsamples = 37\nvalue = [7, 30]"] ;
867 -> 868 ;
869 [label="annee <= 1987.5\ngini = 0.5\nsamples = 8\nvalue = [4, 4]"] ;
868 -> 869 ;
870 [label="gini = 0.0\nsamples = 2\nvalue = [0, 2]"] ;
869 -> 870 ;
871 [label="budget <= 26500000.0\ngini = 0.444\nsamples = 6\nvalue = [4, 2]"] ;
869 -> 871 ;
872 [label="gini = 0.0\nsamples = 3\nvalue = [3, 0]"] ;
871 -> 872 ;
873 [label="annee <= 1990.5\ngini = 0.444\nsamples = 3\nvalue = [1, 2]"] ;
871 -> 873 ;
874 [label="Sci-Fi <= 0.5\ngini = 0.5\nsamples = 2\nvalue = [1, 1]"] ;
873 -> 874 ;
875 [label="gini = 0.0\nsamples = 1\nvalue = [1, 0]"] ;
874 -> 875 ;
876 [label="gini = 0.0\nsamples = 1\nvalue = [0, 1]"] ;
874 -> 876 ;
877 [label="gini = 0.0\nsamples = 1\nvalue = [0, 1]"] ;
873 -> 877 ;
878 [label="Horror <= 0.5\ngini = 0.185\nsamples = 29\nvalue = [3, 26]"] ;
868 -> 878 ;
879 [label="annee <= 1985.5\ngini = 0.071\nsamples = 27\nvalue = [1, 26]"] ;
878 -> 879 ;
880 [label="Comedy <= 0.5\ngini = 0.5\nsamples = 2\nvalue = [1, 1]"] ;
879 -> 880 ;
881 [label="gini = 0.0\nsamples = 1\nvalue = [1, 0]"] ;
880 -> 881 ;
882 [label="gini = 0.0\nsamples = 1\nvalue = [0, 1]"] ;
880 -> 882 ;
883 [label="gini = 0.0\nsamples = 25\nvalue = [0, 25]"] ;
879 -> 883 ;
884 [label="gini = 0.0\nsamples = 2\nvalue = [2, 0]"] ;
878 -> 884 ;
885 [label="gini = 0.0\nsamples = 2\nvalue = [2, 0]"] ;
867 -> 885 ;
886 [label="budget <= 21170000.0\ngini = 0.5\nsamples = 359\nvalue = [184, 175]"] ;
866 -> 886 ;
887 [label="Horror <= 0.5\ngini = 0.448\nsamples = 56\nvalue = [19, 37]"] ;
886 -> 887 ;
888 [label="Action <= 0.5\ngini = 0.381\nsamples = 43\nvalue = [11, 32]"] ;
887 -> 888 ;
889 [label="budget <= 19105000.0\ngini = 0.313\nsamples = 36\nvalue = [7, 29]"] ;
888 -> 889 ;
890 [label="Comedy <= 0.5\ngini = 0.257\nsamples = 33\nvalue = [5, 28]"] ;
889 -> 890 ;
891 [label="Duree <= 126.0\ngini = 0.391\nsamples = 15\nvalue = [4, 11]"] ;
890 -> 891 ;
892 [label="Music <= 0.5\ngini = 0.337\nsamples = 14\nvalue = [3, 11]"] ;
891 -> 892 ;
893 [label="Mystery <= 0.5\ngini = 0.26\nsamples = 13\nvalue = [2, 11]"] ;
892 -> 893 ;
894 [label="gini = 0.0\nsamples = 8\nvalue = [0, 8]"] ;
893 -> 894 ;
895 [label="annee <= 2001.5\ngini = 0.48\nsamples = 5\nvalue = [2, 3]"] ;
893 -> 895 ;
896 [label="gini = 0.0\nsamples = 2\nvalue = [0, 2]"] ;
895 -> 896 ;
897 [label="Romance <= 0.5\ngini = 0.444\nsamples = 3\nvalue = [2, 1]"] ;
895 -> 897 ;
898 [label="gini = 0.0\nsamples = 2\nvalue = [2, 0]"] ;
897 -> 898 ;
899 [label="gini = 0.0\nsamples = 1\nvalue = [0, 1]"] ;
897 -> 899 ;
900 [label="gini = 0.0\nsamples = 1\nvalue = [1, 0]"] ;
892 -> 900 ;
901 [label="gini = 0.0\nsamples = 1\nvalue = [1, 0]"] ;
891 -> 901 ;
902 [label="Fantasy <= 0.5\ngini = 0.105\nsamples = 18\nvalue = [1, 17]"] ;
890 -> 902 ;
903 [label="gini = 0.0\nsamples = 14\nvalue = [0, 14]"] ;
902 -> 903 ;
904 [label="Romance <= 0.5\ngini = 0.375\nsamples = 4\nvalue = [1, 3]"] ;
902 -> 904 ;
905 [label="gini = 0.0\nsamples = 3\nvalue = [0, 3]"] ;
904 -> 905 ;
906 [label="gini = 0.0\nsamples = 1\nvalue = [1, 0]"] ;
904 -> 906 ;
907 [label="annee <= 2009.0\ngini = 0.444\nsamples = 3\nvalue = [2, 1]"] ;
889 -> 907 ;
908 [label="gini = 0.0\nsamples = 1\nvalue = [0, 1]"] ;
907 -> 908 ;
909 [label="gini = 0.0\nsamples = 2\nvalue = [2, 0]"] ;
907 -> 909 ;
910 [label="budget <= 11120000.0\ngini = 0.49\nsamples = 7\nvalue = [4, 3]"] ;
888 -> 910 ;
911 [label="gini = 0.0\nsamples = 3\nvalue = [3, 0]"] ;
910 -> 911 ;
912 [label="annee <= 2000.0\ngini = 0.375\nsamples = 4\nvalue = [1, 3]"] ;
910 -> 912 ;
913 [label="gini = 0.0\nsamples = 1\nvalue = [1, 0]"] ;
912 -> 913 ;
914 [label="gini = 0.0\nsamples = 3\nvalue = [0, 3]"] ;
912 -> 914 ;
915 [label="budget <= 16500000.0\ngini = 0.473\nsamples = 13\nvalue = [8, 5]"] ;
887 -> 915 ;
916 [label="Duree <= 116.5\ngini = 0.397\nsamples = 11\nvalue = [8, 3]"] ;
915 -> 916 ;
917 [label="budget <= 13250000.0\ngini = 0.5\nsamples = 6\nvalue = [3, 3]"] ;
916 -> 917 ;
918 [label="annee <= 2004.5\ngini = 0.375\nsamples = 4\nvalue = [3, 1]"] ;
917 -> 918 ;
919 [label="gini = 0.0\nsamples = 1\nvalue = [0, 1]"] ;
918 -> 919 ;
920 [label="gini = 0.0\nsamples = 3\nvalue = [3, 0]"] ;
918 -> 920 ;
921 [label="gini = 0.0\nsamples = 2\nvalue = [0, 2]"] ;
917 -> 921 ;
922 [label="gini = 0.0\nsamples = 5\nvalue = [5, 0]"] ;
916 -> 922 ;
923 [label="gini = 0.0\nsamples = 2\nvalue = [0, 2]"] ;
915 -> 923 ;
924 [label="annee <= 2005.5\ngini = 0.496\nsamples = 303\nvalue = [165, 138]"] ;
886 -> 924 ;
925 [label="Comedy <= 0.5\ngini = 0.465\nsamples = 147\nvalue = [93, 54]"] ;
924 -> 925 ;
926 [label="budget <= 49000000.0\ngini = 0.489\nsamples = 101\nvalue = [58, 43]"] ;
925 -> 926 ;
927 [label="annee <= 2000.5\ngini = 0.488\nsamples = 26\nvalue = [11, 15]"] ;
926 -> 927 ;
928 [label="annee <= 1999.5\ngini = 0.494\nsamples = 18\nvalue = [10, 8]"] ;
927 -> 928 ;
929 [label="Duree <= 112.5\ngini = 0.498\nsamples = 15\nvalue = [7, 8]"] ;
928 -> 929 ;
930 [label="annee <= 1995.5\ngini = 0.32\nsamples = 5\nvalue = [4, 1]"] ;
929 -> 930 ;
931 [label="gini = 0.0\nsamples = 3\nvalue = [3, 0]"] ;
930 -> 931 ;
932 [label="annee <= 1996.5\ngini = 0.5\nsamples = 2\nvalue = [1, 1]"] ;
930 -> 932 ;
933 [label="gini = 0.0\nsamples = 1\nvalue = [0, 1]"] ;
932 -> 933 ;
934 [label="gini = 0.0\nsamples = 1\nvalue = [1, 0]"] ;
932 -> 934 ;
935 [label="annee <= 1995.5\ngini = 0.42\nsamples = 10\nvalue = [3, 7]"] ;
929 -> 935 ;
936 [label="gini = 0.0\nsamples = 4\nvalue = [0, 4]"] ;
935 -> 936 ;
937 [label="annee <= 1998.5\ngini = 0.5\nsamples = 6\nvalue = [3, 3]"] ;
935 -> 937 ;
938 [label="gini = 0.0\nsamples = 3\nvalue = [3, 0]"] ;
937 -> 938 ;
939 [label="gini = 0.0\nsamples = 3\nvalue = [0, 3]"] ;
937 -> 939 ;
940 [label="gini = 0.0\nsamples = 3\nvalue = [3, 0]"] ;
928 -> 940 ;
941 [label="annee <= 2004.0\ngini = 0.219\nsamples = 8\nvalue = [1, 7]"] ;
927 -> 941 ;
942 [label="gini = 0.0\nsamples = 6\nvalue = [0, 6]"] ;
941 -> 942 ;
943 [label="budget <= 35000000.0\ngini = 0.5\nsamples = 2\nvalue = [1, 1]"] ;
941 -> 943 ;
944 [label="gini = 0.0\nsamples = 1\nvalue = [1, 0]"] ;
943 -> 944 ;
945 [label="gini = 0.0\nsamples = 1\nvalue = [0, 1]"] ;
943 -> 945 ;
946 [label="War <= 0.5\ngini = 0.468\nsamples = 75\nvalue = [47, 28]"] ;
926 -> 946 ;
947 [label="annee <= 2004.5\ngini = 0.459\nsamples = 73\nvalue = [47, 26]"] ;
946 -> 947 ;
948 [label="Horror <= 0.5\ngini = 0.472\nsamples = 68\nvalue = [42, 26]"] ;
947 -> 948 ;
949 [label="annee <= 2000.5\ngini = 0.485\nsamples = 63\nvalue = [37, 26]"] ;
948 -> 949 ;
950 [label="annee <= 1994.5\ngini = 0.431\nsamples = 35\nvalue = [24, 11]"] ;
949 -> 950 ;
951 [label="Sci-Fi <= 0.5\ngini = 0.375\nsamples = 4\nvalue = [1, 3]"] ;
950 -> 951 ;
952 [label="gini = 0.0\nsamples = 1\nvalue = [1, 0]"] ;
951 -> 952 ;
953 [label="gini = 0.0\nsamples = 3\nvalue = [0, 3]"] ;
951 -> 953 ;
954 [label="Duree <= 120.0\ngini = 0.383\nsamples = 31\nvalue = [23, 8]"] ;
950 -> 954 ;
955 [label="gini = 0.0\nsamples = 7\nvalue = [7, 0]"] ;
954 -> 955 ;
956 [label="annee <= 1999.5\ngini = 0.444\nsamples = 24\nvalue = [16, 8]"] ;
954 -> 956 ;
957 [label="Duree <= 131.5\ngini = 0.48\nsamples = 20\nvalue = [12, 8]"] ;
956 -> 957 ;
958 [label="budget <= 96500000.0\ngini = 0.498\nsamples = 17\nvalue = [9, 8]"] ;
957 -> 958 ;
959 [label="Duree <= 123.5\ngini = 0.486\nsamples = 12\nvalue = [5, 7]"] ;
958 -> 959 ;
960 [label="gini = 0.0\nsamples = 3\nvalue = [0, 3]"] ;
959 -> 960 ;
961 [label="annee <= 1996.0\ngini = 0.494\nsamples = 9\nvalue = [5, 4]"] ;
959 -> 961 ;
962 [label="gini = 0.0\nsamples = 2\nvalue = [0, 2]"] ;
961 -> 962 ;
963 [label="Thriller <= 0.5\ngini = 0.408\nsamples = 7\nvalue = [5, 2]"] ;
961 -> 963 ;
964 [label="Duree <= 127.5\ngini = 0.444\nsamples = 3\nvalue = [1, 2]"] ;
963 -> 964 ;
965 [label="gini = 0.0\nsamples = 2\nvalue = [0, 2]"] ;
964 -> 965 ;
966 [label="gini = 0.0\nsamples = 1\nvalue = [1, 0]"] ;
964 -> 966 ;
967 [label="gini = 0.0\nsamples = 4\nvalue = [4, 0]"] ;
963 -> 967 ;
968 [label="Duree <= 126.0\ngini = 0.32\nsamples = 5\nvalue = [4, 1]"] ;
958 -> 968 ;
969 [label="gini = 0.0\nsamples = 3\nvalue = [3, 0]"] ;
968 -> 969 ;
970 [label="annee <= 1998.5\ngini = 0.5\nsamples = 2\nvalue = [1, 1]"] ;
968 -> 970 ;
971 [label="gini = 0.0\nsamples = 1\nvalue = [0, 1]"] ;
970 -> 971 ;
972 [label="gini = 0.0\nsamples = 1\nvalue = [1, 0]"] ;
970 -> 972 ;
973 [label="gini = 0.0\nsamples = 3\nvalue = [3, 0]"] ;
957 -> 973 ;
974 [label="gini = 0.0\nsamples = 4\nvalue = [4, 0]"] ;
956 -> 974 ;
975 [label="Duree <= 115.5\ngini = 0.497\nsamples = 28\nvalue = [13, 15]"] ;
949 -> 975 ;
976 [label="gini = 0.0\nsamples = 4\nvalue = [0, 4]"] ;
975 -> 976 ;
977 [label="Duree <= 133.5\ngini = 0.497\nsamples = 24\nvalue = [13, 11]"] ;
975 -> 977 ;
978 [label="Adventure <= 0.5\ngini = 0.483\nsamples = 22\nvalue = [13, 9]"] ;
977 -> 978 ;
979 [label="annee <= 2002.5\ngini = 0.48\nsamples = 10\nvalue = [4, 6]"] ;
978 -> 979 ;
980 [label="gini = 0.0\nsamples = 4\nvalue = [0, 4]"] ;
979 -> 980 ;
981 [label="Thriller <= 0.5\ngini = 0.444\nsamples = 6\nvalue = [4, 2]"] ;
979 -> 981 ;
982 [label="gini = 0.0\nsamples = 2\nvalue = [0, 2]"] ;
981 -> 982 ;
983 [label="gini = 0.0\nsamples = 4\nvalue = [4, 0]"] ;
981 -> 983 ;
984 [label="budget <= 99000000.0\ngini = 0.375\nsamples = 12\nvalue = [9, 3]"] ;
978 -> 984 ;
985 [label="gini = 0.0\nsamples = 5\nvalue = [5, 0]"] ;
984 -> 985 ;
986 [label="budget <= 140500000.0\ngini = 0.49\nsamples = 7\nvalue = [4, 3]"] ;
984 -> 986 ;
987 [label="Sci-Fi <= 0.5\ngini = 0.48\nsamples = 5\nvalue = [2, 3]"] ;
986 -> 987 ;
988 [label="gini = 0.0\nsamples = 2\nvalue = [0, 2]"] ;
987 -> 988 ;
989 [label="Fantasy <= 0.5\ngini = 0.444\nsamples = 3\nvalue = [2, 1]"] ;
987 -> 989 ;
990 [label="gini = 0.0\nsamples = 2\nvalue = [2, 0]"] ;
989 -> 990 ;
991 [label="gini = 0.0\nsamples = 1\nvalue = [0, 1]"] ;
989 -> 991 ;
992 [label="gini = 0.0\nsamples = 2\nvalue = [2, 0]"] ;
986 -> 992 ;
993 [label="gini = 0.0\nsamples = 2\nvalue = [0, 2]"] ;
977 -> 993 ;
994 [label="gini = 0.0\nsamples = 5\nvalue = [5, 0]"] ;
948 -> 994 ;
995 [label="gini = 0.0\nsamples = 5\nvalue = [5, 0]"] ;
947 -> 995 ;
996 [label="gini = 0.0\nsamples = 2\nvalue = [0, 2]"] ;
946 -> 996 ;
997 [label="annee <= 1998.5\ngini = 0.364\nsamples = 46\nvalue = [35, 11]"] ;
925 -> 997 ;
998 [label="annee <= 1993.5\ngini = 0.5\nsamples = 12\nvalue = [6, 6]"] ;
997 -> 998 ;
999 [label="gini = 0.0\nsamples = 2\nvalue = [2, 0]"] ;
998 -> 999 ;
1000 [label="budget <= 35500000.0\ngini = 0.48\nsamples = 10\nvalue = [4, 6]"] ;
998 -> 1000 ;
1001 [label="Action <= 0.5\ngini = 0.32\nsamples = 5\nvalue = [1, 4]"] ;
1000 -> 1001 ;
1002 [label="gini = 0.0\nsamples = 4\nvalue = [0, 4]"] ;
1001 -> 1002 ;
1003 [label="gini = 0.0\nsamples = 1\nvalue = [1, 0]"] ;
1001 -> 1003 ;
1004 [label="Duree <= 120.0\ngini = 0.48\nsamples = 5\nvalue = [3, 2]"] ;
1000 -> 1004 ;
1005 [label="gini = 0.0\nsamples = 2\nvalue = [2, 0]"] ;
1004 -> 1005 ;
1006 [label="budget <= 86500000.0\ngini = 0.444\nsamples = 3\nvalue = [1, 2]"] ;
1004 -> 1006 ;
1007 [label="gini = 0.0\nsamples = 2\nvalue = [0, 2]"] ;
1006 -> 1007 ;
1008 [label="gini = 0.0\nsamples = 1\nvalue = [1, 0]"] ;
1006 -> 1008 ;
1009 [label="Duree <= 127.5\ngini = 0.251\nsamples = 34\nvalue = [29, 5]"] ;
997 -> 1009 ;
1010 [label="budget <= 140000000.0\ngini = 0.175\nsamples = 31\nvalue = [28, 3]"] ;
1009 -> 1010 ;
1011 [label="Musical <= 0.5\ngini = 0.124\nsamples = 30\nvalue = [28, 2]"] ;
1010 -> 1011 ;
1012 [label="annee <= 2004.5\ngini = 0.067\nsamples = 29\nvalue = [28, 1]"] ;
1011 -> 1012 ;
1013 [label="gini = 0.0\nsamples = 21\nvalue = [21, 0]"] ;
1012 -> 1013 ;
1014 [label="Romance <= 0.5\ngini = 0.219\nsamples = 8\nvalue = [7, 1]"] ;
1012 -> 1014 ;
1015 [label="gini = 0.0\nsamples = 6\nvalue = [6, 0]"] ;
1014 -> 1015 ;
1016 [label="Duree <= 122.0\ngini = 0.5\nsamples = 2\nvalue = [1, 1]"] ;
1014 -> 1016 ;
1017 [label="gini = 0.0\nsamples = 1\nvalue = [0, 1]"] ;
1016 -> 1017 ;
1018 [label="gini = 0.0\nsamples = 1\nvalue = [1, 0]"] ;
1016 -> 1018 ;
1019 [label="gini = 0.0\nsamples = 1\nvalue = [0, 1]"] ;
1011 -> 1019 ;
1020 [label="gini = 0.0\nsamples = 1\nvalue = [0, 1]"] ;
1010 -> 1020 ;
1021 [label="Duree <= 133.5\ngini = 0.444\nsamples = 3\nvalue = [1, 2]"] ;
1009 -> 1021 ;
1022 [label="gini = 0.0\nsamples = 2\nvalue = [0, 2]"] ;
1021 -> 1022 ;
1023 [label="gini = 0.0\nsamples = 1\nvalue = [1, 0]"] ;
1021 -> 1023 ;
1024 [label="Action <= 0.5\ngini = 0.497\nsamples = 156\nvalue = [72, 84]"] ;
924 -> 1024 ;
1025 [label="annee <= 2007.5\ngini = 0.465\nsamples = 57\nvalue = [36, 21]"] ;
1024 -> 1025 ;
1026 [label="Duree <= 116.5\ngini = 0.444\nsamples = 12\nvalue = [4, 8]"] ;
1025 -> 1026 ;
1027 [label="Adventure <= 0.5\ngini = 0.5\nsamples = 8\nvalue = [4, 4]"] ;
1026 -> 1027 ;
1028 [label="Duree <= 114.5\ngini = 0.444\nsamples = 6\nvalue = [2, 4]"] ;
1027 -> 1028 ;
1029 [label="gini = 0.0\nsamples = 4\nvalue = [0, 4]"] ;
1028 -> 1029 ;
1030 [label="gini = 0.0\nsamples = 2\nvalue = [2, 0]"] ;
1028 -> 1030 ;
1031 [label="gini = 0.0\nsamples = 2\nvalue = [2, 0]"] ;
1027 -> 1031 ;
1032 [label="gini = 0.0\nsamples = 4\nvalue = [0, 4]"] ;
1026 -> 1032 ;
1033 [label="Duree <= 119.5\ngini = 0.411\nsamples = 45\nvalue = [32, 13]"] ;
1025 -> 1033 ;
1034 [label="Music <= 0.5\ngini = 0.285\nsamples = 29\nvalue = [24, 5]"] ;
1033 -> 1034 ;
1035 [label="Sci-Fi <= 0.5\ngini = 0.198\nsamples = 27\nvalue = [24, 3]"] ;
1034 -> 1035 ;
1036 [label="annee <= 2011.5\ngini = 0.147\nsamples = 25\nvalue = [23, 2]"] ;
1035 -> 1036 ;
1037 [label="gini = 0.0\nsamples = 13\nvalue = [13, 0]"] ;
1036 -> 1037 ;
1038 [label="annee <= 2012.5\ngini = 0.278\nsamples = 12\nvalue = [10, 2]"] ;
1036 -> 1038 ;
1039 [label="budget <= 60000000.0\ngini = 0.5\nsamples = 4\nvalue = [2, 2]"] ;
1038 -> 1039 ;
1040 [label="gini = 0.0\nsamples = 2\nvalue = [0, 2]"] ;
1039 -> 1040 ;
1041 [label="gini = 0.0\nsamples = 2\nvalue = [2, 0]"] ;
1039 -> 1041 ;
1042 [label="gini = 0.0\nsamples = 8\nvalue = [8, 0]"] ;
1038 -> 1042 ;
1043 [label="Adventure <= 0.5\ngini = 0.5\nsamples = 2\nvalue = [1, 1]"] ;
1035 -> 1043 ;
1044 [label="gini = 0.0\nsamples = 1\nvalue = [0, 1]"] ;
1043 -> 1044 ;
1045 [label="gini = 0.0\nsamples = 1\nvalue = [1, 0]"] ;
1043 -> 1045 ;
1046 [label="gini = 0.0\nsamples = 2\nvalue = [0, 2]"] ;
1034 -> 1046 ;
1047 [label="Duree <= 124.5\ngini = 0.5\nsamples = 16\nvalue = [8, 8]"] ;
1033 -> 1047 ;
1048 [label="Crime <= 0.5\ngini = 0.278\nsamples = 6\nvalue = [1, 5]"] ;
1047 -> 1048 ;
1049 [label="gini = 0.0\nsamples = 5\nvalue = [0, 5]"] ;
1048 -> 1049 ;
1050 [label="gini = 0.0\nsamples = 1\nvalue = [1, 0]"] ;
1048 -> 1050 ;
1051 [label="Crime <= 0.5\ngini = 0.42\nsamples = 10\nvalue = [7, 3]"] ;
1047 -> 1051 ;
1052 [label="annee <= 2014.5\ngini = 0.346\nsamples = 9\nvalue = [7, 2]"] ;
1051 -> 1052 ;
1053 [label="budget <= 33750000.0\ngini = 0.219\nsamples = 8\nvalue = [7, 1]"] ;
1052 -> 1053 ;
1054 [label="budget <= 31250000.0\ngini = 0.5\nsamples = 2\nvalue = [1, 1]"] ;
1053 -> 1054 ;
1055 [label="gini = 0.0\nsamples = 1\nvalue = [1, 0]"] ;
1054 -> 1055 ;
1056 [label="gini = 0.0\nsamples = 1\nvalue = [0, 1]"] ;
1054 -> 1056 ;
1057 [label="gini = 0.0\nsamples = 6\nvalue = [6, 0]"] ;
1053 -> 1057 ;
1058 [label="gini = 0.0\nsamples = 1\nvalue = [0, 1]"] ;
1052 -> 1058 ;
1059 [label="gini = 0.0\nsamples = 1\nvalue = [0, 1]"] ;
1051 -> 1059 ;
1060 [label="Romance <= 0.5\ngini = 0.463\nsamples = 99\nvalue = [36, 63]"] ;
1024 -> 1060 ;
1061 [label="Thriller <= 0.5\ngini = 0.447\nsamples = 92\nvalue = [31, 61]"] ;
1060 -> 1061 ;
1062 [label="annee <= 2008.5\ngini = 0.363\nsamples = 42\nvalue = [10, 32]"] ;
1061 -> 1062 ;
1063 [label="budget <= 145000000.0\ngini = 0.496\nsamples = 11\nvalue = [5, 6]"] ;
1062 -> 1063 ;
1064 [label="Sport <= 0.5\ngini = 0.444\nsamples = 9\nvalue = [3, 6]"] ;
1063 -> 1064 ;
1065 [label="Duree <= 116.0\ngini = 0.375\nsamples = 8\nvalue = [2, 6]"] ;
1064 -> 1065 ;
1066 [label="annee <= 2007.0\ngini = 0.444\nsamples = 3\nvalue = [2, 1]"] ;
1065 -> 1066 ;
1067 [label="gini = 0.0\nsamples = 1\nvalue = [0, 1]"] ;
1066 -> 1067 ;
1068 [label="gini = 0.0\nsamples = 2\nvalue = [2, 0]"] ;
1066 -> 1068 ;
1069 [label="gini = 0.0\nsamples = 5\nvalue = [0, 5]"] ;
1065 -> 1069 ;
1070 [label="gini = 0.0\nsamples = 1\nvalue = [1, 0]"] ;
1064 -> 1070 ;
1071 [label="gini = 0.0\nsamples = 2\nvalue = [2, 0]"] ;
1063 -> 1071 ;
1072 [label="annee <= 2014.5\ngini = 0.271\nsamples = 31\nvalue = [5, 26]"] ;
1062 -> 1072 ;
1073 [label="budget <= 80000000.0\ngini = 0.204\nsamples = 26\nvalue = [3, 23]"] ;
1072 -> 1073 ;
1074 [label="budget <= 60000000.0\ngini = 0.444\nsamples = 9\nvalue = [3, 6]"] ;
1073 -> 1074 ;
1075 [label="budget <= 34500000.0\ngini = 0.245\nsamples = 7\nvalue = [1, 6]"] ;
1074 -> 1075 ;
1076 [label="Crime <= 0.5\ngini = 0.444\nsamples = 3\nvalue = [1, 2]"] ;
1075 -> 1076 ;
1077 [label="gini = 0.0\nsamples = 2\nvalue = [0, 2]"] ;
1076 -> 1077 ;
1078 [label="gini = 0.0\nsamples = 1\nvalue = [1, 0]"] ;
1076 -> 1078 ;
1079 [label="gini = 0.0\nsamples = 4\nvalue = [0, 4]"] ;
1075 -> 1079 ;
1080 [label="gini = 0.0\nsamples = 2\nvalue = [2, 0]"] ;
1074 -> 1080 ;
1081 [label="gini = 0.0\nsamples = 17\nvalue = [0, 17]"] ;
1073 -> 1081 ;
1082 [label="budget <= 153000000.0\ngini = 0.48\nsamples = 5\nvalue = [2, 3]"] ;
1072 -> 1082 ;
1083 [label="gini = 0.0\nsamples = 3\nvalue = [0, 3]"] ;
1082 -> 1083 ;
1084 [label="gini = 0.0\nsamples = 2\nvalue = [2, 0]"] ;
1082 -> 1084 ;
1085 [label="annee <= 2014.5\ngini = 0.487\nsamples = 50\nvalue = [21, 29]"] ;
1061 -> 1085 ;
1086 [label="Sci-Fi <= 0.5\ngini = 0.499\nsamples = 44\nvalue = [21, 23]"] ;
1085 -> 1086 ;
1087 [label="Fantasy <= 0.5\ngini = 0.452\nsamples = 29\nvalue = [10, 19]"] ;
1086 -> 1087 ;
1088 [label="budget <= 49000000.0\ngini = 0.417\nsamples = 27\nvalue = [8, 19]"] ;
1087 -> 1088 ;
1089 [label="Duree <= 114.0\ngini = 0.48\nsamples = 5\nvalue = [3, 2]"] ;
1088 -> 1089 ;
1090 [label="gini = 0.0\nsamples = 2\nvalue = [0, 2]"] ;
1089 -> 1090 ;
1091 [label="gini = 0.0\nsamples = 3\nvalue = [3, 0]"] ;
1089 -> 1091 ;
1092 [label="Duree <= 133.5\ngini = 0.351\nsamples = 22\nvalue = [5, 17]"] ;
1088 -> 1092 ;
1093 [label="Crime <= 0.5\ngini = 0.308\nsamples = 21\nvalue = [4, 17]"] ;
1092 -> 1093 ;
1094 [label="budget <= 100000000.0\ngini = 0.48\nsamples = 10\nvalue = [4, 6]"] ;
1093 -> 1094 ;
1095 [label="Mystery <= 0.5\ngini = 0.48\nsamples = 5\nvalue = [3, 2]"] ;
1094 -> 1095 ;
1096 [label="gini = 0.0\nsamples = 3\nvalue = [3, 0]"] ;
1095 -> 1096 ;
1097 [label="gini = 0.0\nsamples = 2\nvalue = [0, 2]"] ;
1095 -> 1097 ;
1098 [label="Mystery <= 0.5\ngini = 0.32\nsamples = 5\nvalue = [1, 4]"] ;
1094 -> 1098 ;
1099 [label="gini = 0.0\nsamples = 4\nvalue = [0, 4]"] ;
1098 -> 1099 ;
1100 [label="gini = 0.0\nsamples = 1\nvalue = [1, 0]"] ;
1098 -> 1100 ;
1101 [label="gini = 0.0\nsamples = 11\nvalue = [0, 11]"] ;
1093 -> 1101 ;
1102 [label="gini = 0.0\nsamples = 1\nvalue = [1, 0]"] ;
1092 -> 1102 ;
1103 [label="gini = 0.0\nsamples = 2\nvalue = [2, 0]"] ;
1087 -> 1103 ;
1104 [label="budget <= 36000000.0\ngini = 0.391\nsamples = 15\nvalue = [11, 4]"] ;
1086 -> 1104 ;
1105 [label="annee <= 2011.0\ngini = 0.444\nsamples = 3\nvalue = [1, 2]"] ;
1104 -> 1105 ;
1106 [label="gini = 0.0\nsamples = 1\nvalue = [1, 0]"] ;
1105 -> 1106 ;
1107 [label="gini = 0.0\nsamples = 2\nvalue = [0, 2]"] ;
1105 -> 1107 ;
1108 [label="Horror <= 0.5\ngini = 0.278\nsamples = 12\nvalue = [10, 2]"] ;
1104 -> 1108 ;
1109 [label="annee <= 2007.5\ngini = 0.165\nsamples = 11\nvalue = [10, 1]"] ;
1108 -> 1109 ;
1110 [label="gini = 0.0\nsamples = 1\nvalue = [0, 1]"] ;
1109 -> 1110 ;
1111 [label="gini = 0.0\nsamples = 10\nvalue = [10, 0]"] ;
1109 -> 1111 ;
1112 [label="gini = 0.0\nsamples = 1\nvalue = [0, 1]"] ;
1108 -> 1112 ;
1113 [label="gini = 0.0\nsamples = 6\nvalue = [0, 6]"] ;
1085 -> 1113 ;
1114 [label="Fantasy <= 0.5\ngini = 0.408\nsamples = 7\nvalue = [5, 2]"] ;
1060 -> 1114 ;
1115 [label="gini = 0.0\nsamples = 4\nvalue = [4, 0]"] ;
1114 -> 1115 ;
1116 [label="annee <= 2011.5\ngini = 0.444\nsamples = 3\nvalue = [1, 2]"] ;
1114 -> 1116 ;
1117 [label="gini = 0.0\nsamples = 2\nvalue = [0, 2]"] ;
1116 -> 1117 ;
1118 [label="gini = 0.0\nsamples = 1\nvalue = [1, 0]"] ;
1116 -> 1118 ;
1119 [label="Sci-Fi <= 0.5\ngini = 0.352\nsamples = 114\nvalue = [26, 88]"] ;
865 -> 1119 ;
1120 [label="Sport <= 0.5\ngini = 0.248\nsamples = 69\nvalue = [10, 59]"] ;
1119 -> 1120 ;
1121 [label="Duree <= 156.5\ngini = 0.23\nsamples = 68\nvalue = [9, 59]"] ;
1120 -> 1121 ;
1122 [label="Duree <= 145.0\ngini = 0.305\nsamples = 48\nvalue = [9, 39]"] ;
1121 -> 1122 ;
1123 [label="annee <= 2012.5\ngini = 0.128\nsamples = 29\nvalue = [2, 27]"] ;
1122 -> 1123 ;
1124 [label="gini = 0.0\nsamples = 26\nvalue = [0, 26]"] ;
1123 -> 1124 ;
1125 [label="Thriller <= 0.5\ngini = 0.444\nsamples = 3\nvalue = [2, 1]"] ;
1123 -> 1125 ;
1126 [label="gini = 0.0\nsamples = 2\nvalue = [2, 0]"] ;
1125 -> 1126 ;
1127 [label="gini = 0.0\nsamples = 1\nvalue = [0, 1]"] ;
1125 -> 1127 ;
1128 [label="Western <= 0.5\ngini = 0.465\nsamples = 19\nvalue = [7, 12]"] ;
1122 -> 1128 ;
1129 [label="annee <= 2007.5\ngini = 0.415\nsamples = 17\nvalue = [5, 12]"] ;
1128 -> 1129 ;
1130 [label="annee <= 2002.5\ngini = 0.5\nsamples = 10\nvalue = [5, 5]"] ;
1129 -> 1130 ;
1131 [label="gini = 0.0\nsamples = 3\nvalue = [0, 3]"] ;
1130 -> 1131 ;
1132 [label="Duree <= 151.5\ngini = 0.408\nsamples = 7\nvalue = [5, 2]"] ;
1130 -> 1132 ;
1133 [label="Thriller <= 0.5\ngini = 0.48\nsamples = 5\nvalue = [3, 2]"] ;
1132 -> 1133 ;
1134 [label="gini = 0.0\nsamples = 1\nvalue = [0, 1]"] ;
1133 -> 1134 ;
1135 [label="Action <= 0.5\ngini = 0.375\nsamples = 4\nvalue = [3, 1]"] ;
1133 -> 1135 ;
1136 [label="budget <= 82500000.0\ngini = 0.5\nsamples = 2\nvalue = [1, 1]"] ;
1135 -> 1136 ;
1137 [label="gini = 0.0\nsamples = 1\nvalue = [0, 1]"] ;
1136 -> 1137 ;
1138 [label="gini = 0.0\nsamples = 1\nvalue = [1, 0]"] ;
1136 -> 1138 ;
1139 [label="gini = 0.0\nsamples = 2\nvalue = [2, 0]"] ;
1135 -> 1139 ;
1140 [label="gini = 0.0\nsamples = 2\nvalue = [2, 0]"] ;
1132 -> 1140 ;
1141 [label="gini = 0.0\nsamples = 7\nvalue = [0, 7]"] ;
1129 -> 1141 ;
1142 [label="gini = 0.0\nsamples = 2\nvalue = [2, 0]"] ;
1128 -> 1142 ;
1143 [label="gini = 0.0\nsamples = 20\nvalue = [0, 20]"] ;
1121 -> 1143 ;
1144 [label="gini = 0.0\nsamples = 1\nvalue = [1, 0]"] ;
1120 -> 1144 ;
1145 [label="budget <= 65500000.0\ngini = 0.458\nsamples = 45\nvalue = [16, 29]"] ;
1119 -> 1145 ;
1146 [label="annee <= 1986.5\ngini = 0.486\nsamples = 12\nvalue = [7, 5]"] ;
1145 -> 1146 ;
1147 [label="gini = 0.0\nsamples = 2\nvalue = [0, 2]"] ;
1146 -> 1147 ;
1148 [label="Duree <= 171.0\ngini = 0.42\nsamples = 10\nvalue = [7, 3]"] ;
1146 -> 1148 ;
1149 [label="budget <= 9250000.0\ngini = 0.346\nsamples = 9\nvalue = [7, 2]"] ;
1148 -> 1149 ;
1150 [label="gini = 0.0\nsamples = 1\nvalue = [0, 1]"] ;
1149 -> 1150 ;
1151 [label="budget <= 61500000.0\ngini = 0.219\nsamples = 8\nvalue = [7, 1]"] ;
1149 -> 1151 ;
1152 [label="gini = 0.0\nsamples = 6\nvalue = [6, 0]"] ;
1151 -> 1152 ;
1153 [label="annee <= 1995.5\ngini = 0.5\nsamples = 2\nvalue = [1, 1]"] ;
1151 -> 1153 ;
1154 [label="gini = 0.0\nsamples = 1\nvalue = [1, 0]"] ;
1153 -> 1154 ;
1155 [label="gini = 0.0\nsamples = 1\nvalue = [0, 1]"] ;
1153 -> 1155 ;
1156 [label="gini = 0.0\nsamples = 1\nvalue = [0, 1]"] ;
1148 -> 1156 ;
1157 [label="budget <= 172500000.0\ngini = 0.397\nsamples = 33\nvalue = [9, 24]"] ;
1145 -> 1157 ;
1158 [label="Duree <= 139.5\ngini = 0.255\nsamples = 20\nvalue = [3, 17]"] ;
1157 -> 1158 ;
1159 [label="annee <= 2004.0\ngini = 0.42\nsamples = 10\nvalue = [3, 7]"] ;
1158 -> 1159 ;
1160 [label="budget <= 97500000.0\ngini = 0.48\nsamples = 5\nvalue = [3, 2]"] ;
1159 -> 1160 ;
1161 [label="gini = 0.0\nsamples = 1\nvalue = [0, 1]"] ;
1160 -> 1161 ;
1162 [label="budget <= 143500000.0\ngini = 0.375\nsamples = 4\nvalue = [3, 1]"] ;
1160 -> 1162 ;
1163 [label="gini = 0.0\nsamples = 3\nvalue = [3, 0]"] ;
1162 -> 1163 ;
1164 [label="gini = 0.0\nsamples = 1\nvalue = [0, 1]"] ;
1162 -> 1164 ;
1165 [label="gini = 0.0\nsamples = 5\nvalue = [0, 5]"] ;
1159 -> 1165 ;
1166 [label="gini = 0.0\nsamples = 10\nvalue = [0, 10]"] ;
1158 -> 1166 ;
1167 [label="annee <= 2011.5\ngini = 0.497\nsamples = 13\nvalue = [6, 7]"] ;
1157 -> 1167 ;
1168 [label="Duree <= 177.0\ngini = 0.278\nsamples = 6\nvalue = [5, 1]"] ;
1167 -> 1168 ;
1169 [label="gini = 0.0\nsamples = 5\nvalue = [5, 0]"] ;
1168 -> 1169 ;
1170 [label="gini = 0.0\nsamples = 1\nvalue = [0, 1]"] ;
1168 -> 1170 ;
1171 [label="Duree <= 157.0\ngini = 0.245\nsamples = 7\nvalue = [1, 6]"] ;
1167 -> 1171 ;
1172 [label="gini = 0.0\nsamples = 3\nvalue = [0, 3]"] ;
1171 -> 1172 ;
1173 [label="Duree <= 169.0\ngini = 0.375\nsamples = 4\nvalue = [1, 3]"] ;
1171 -> 1173 ;
1174 [label="gini = 0.0\nsamples = 1\nvalue = [1, 0]"] ;
1173 -> 1174 ;
1175 [label="gini = 0.0\nsamples = 3\nvalue = [0, 3]"] ;
1173 -> 1175 ;
1176 [label="budget <= 15660000.0\ngini = 0.411\nsamples = 2269\nvalue = [655, 1614]"] ;
0 -> 1176 [labeldistance=2.5, labelangle=-45, headlabel="False"] ;
1177 [label="Duree <= 104.5\ngini = 0.283\nsamples = 1113\nvalue = [190, 923]"] ;
1176 -> 1177 ;
1178 [label="budget <= 2750000.0\ngini = 0.387\nsamples = 480\nvalue = [126, 354]"] ;
1177 -> 1178 ;
1179 [label="annee <= 2004.5\ngini = 0.209\nsamples = 177\nvalue = [21, 156]"] ;
1178 -> 1179 ;
1180 [label="Music <= 0.5\ngini = 0.069\nsamples = 112\nvalue = [4, 108]"] ;
1179 -> 1180 ;
1181 [label="Biography <= 0.5\ngini = 0.053\nsamples = 110\nvalue = [3, 107]"] ;
1180 -> 1181 ;
1182 [label="budget <= 1140000.0\ngini = 0.037\nsamples = 106\nvalue = [2, 104]"] ;
1181 -> 1182 ;
1183 [label="gini = 0.0\nsamples = 72\nvalue = [0, 72]"] ;
1182 -> 1183 ;
1184 [label="budget <= 1225000.0\ngini = 0.111\nsamples = 34\nvalue = [2, 32]"] ;
1182 -> 1184 ;
1185 [label="Duree <= 92.0\ngini = 0.444\nsamples = 3\nvalue = [1, 2]"] ;
1184 -> 1185 ;
1186 [label="gini = 0.0\nsamples = 1\nvalue = [1, 0]"] ;
1185 -> 1186 ;
1187 [label="gini = 0.0\nsamples = 2\nvalue = [0, 2]"] ;
1185 -> 1187 ;
1188 [label="Thriller <= 0.5\ngini = 0.062\nsamples = 31\nvalue = [1, 30]"] ;
1184 -> 1188 ;
1189 [label="gini = 0.0\nsamples = 25\nvalue = [0, 25]"] ;
1188 -> 1189 ;
1190 [label="annee <= 1982.0\ngini = 0.278\nsamples = 6\nvalue = [1, 5]"] ;
1188 -> 1190 ;
1191 [label="gini = 0.0\nsamples = 5\nvalue = [0, 5]"] ;
1190 -> 1191 ;
1192 [label="gini = 0.0\nsamples = 1\nvalue = [1, 0]"] ;
1190 -> 1192 ;
1193 [label="Thriller <= 0.5\ngini = 0.375\nsamples = 4\nvalue = [1, 3]"] ;
1181 -> 1193 ;
1194 [label="gini = 0.0\nsamples = 3\nvalue = [0, 3]"] ;
1193 -> 1194 ;
1195 [label="gini = 0.0\nsamples = 1\nvalue = [1, 0]"] ;
1193 -> 1195 ;
1196 [label="budget <= 1415000.0\ngini = 0.5\nsamples = 2\nvalue = [1, 1]"] ;
1180 -> 1196 ;
1197 [label="gini = 0.0\nsamples = 1\nvalue = [0, 1]"] ;
1196 -> 1197 ;
1198 [label="gini = 0.0\nsamples = 1\nvalue = [1, 0]"] ;
1196 -> 1198 ;
1199 [label="Horror <= 0.5\ngini = 0.386\nsamples = 65\nvalue = [17, 48]"] ;
1179 -> 1199 ;
1200 [label="Duree <= 78.5\ngini = 0.306\nsamples = 53\nvalue = [10, 43]"] ;
1199 -> 1200 ;
1201 [label="gini = 0.0\nsamples = 1\nvalue = [1, 0]"] ;
1200 -> 1201 ;
1202 [label="budget <= 11085.0\ngini = 0.286\nsamples = 52\nvalue = [9, 43]"] ;
1200 -> 1202 ;
1203 [label="gini = 0.0\nsamples = 1\nvalue = [1, 0]"] ;
1202 -> 1203 ;
1204 [label="Thriller <= 0.5\ngini = 0.265\nsamples = 51\nvalue = [8, 43]"] ;
1202 -> 1204 ;
1205 [label="Duree <= 89.5\ngini = 0.206\nsamples = 43\nvalue = [5, 38]"] ;
1204 -> 1205 ;
1206 [label="gini = 0.0\nsamples = 11\nvalue = [0, 11]"] ;
1205 -> 1206 ;
1207 [label="budget <= 2317500.0\ngini = 0.264\nsamples = 32\nvalue = [5, 27]"] ;
1205 -> 1207 ;
1208 [label="Duree <= 94.5\ngini = 0.231\nsamples = 30\nvalue = [4, 26]"] ;
1207 -> 1208 ;
1209 [label="budget <= 487500.0\ngini = 0.397\nsamples = 11\nvalue = [3, 8]"] ;
1208 -> 1209 ;
1210 [label="gini = 0.0\nsamples = 4\nvalue = [0, 4]"] ;
1209 -> 1210 ;
1211 [label="budget <= 1780000.0\ngini = 0.49\nsamples = 7\nvalue = [3, 4]"] ;
1209 -> 1211 ;
1212 [label="Biography <= 0.5\ngini = 0.48\nsamples = 5\nvalue = [3, 2]"] ;
1211 -> 1212 ;
1213 [label="annee <= 2006.0\ngini = 0.375\nsamples = 4\nvalue = [3, 1]"] ;
1212 -> 1213 ;
1214 [label="Duree <= 93.5\ngini = 0.5\nsamples = 2\nvalue = [1, 1]"] ;
1213 -> 1214 ;
1215 [label="gini = 0.0\nsamples = 1\nvalue = [1, 0]"] ;
1214 -> 1215 ;
1216 [label="gini = 0.0\nsamples = 1\nvalue = [0, 1]"] ;
1214 -> 1216 ;
1217 [label="gini = 0.0\nsamples = 2\nvalue = [2, 0]"] ;
1213 -> 1217 ;
1218 [label="gini = 0.0\nsamples = 1\nvalue = [0, 1]"] ;
1212 -> 1218 ;
1219 [label="gini = 0.0\nsamples = 2\nvalue = [0, 2]"] ;
1211 -> 1219 ;
1220 [label="budget <= 124300.0\ngini = 0.1\nsamples = 19\nvalue = [1, 18]"] ;
1208 -> 1220 ;
1221 [label="Duree <= 97.0\ngini = 0.5\nsamples = 2\nvalue = [1, 1]"] ;
1220 -> 1221 ;
1222 [label="gini = 0.0\nsamples = 1\nvalue = [0, 1]"] ;
1221 -> 1222 ;
1223 [label="gini = 0.0\nsamples = 1\nvalue = [1, 0]"] ;
1221 -> 1223 ;
1224 [label="gini = 0.0\nsamples = 17\nvalue = [0, 17]"] ;
1220 -> 1224 ;
1225 [label="Comedy <= 0.5\ngini = 0.5\nsamples = 2\nvalue = [1, 1]"] ;
1207 -> 1225 ;
1226 [label="gini = 0.0\nsamples = 1\nvalue = [1, 0]"] ;
1225 -> 1226 ;
1227 [label="gini = 0.0\nsamples = 1\nvalue = [0, 1]"] ;
1225 -> 1227 ;
1228 [label="budget <= 925000.0\ngini = 0.469\nsamples = 8\nvalue = [3, 5]"] ;
1204 -> 1228 ;
1229 [label="gini = 0.0\nsamples = 3\nvalue = [3, 0]"] ;
1228 -> 1229 ;
1230 [label="gini = 0.0\nsamples = 5\nvalue = [0, 5]"] ;
1228 -> 1230 ;
1231 [label="Duree <= 100.5\ngini = 0.486\nsamples = 12\nvalue = [7, 5]"] ;
1199 -> 1231 ;
1232 [label="budget <= 1825000.0\ngini = 0.42\nsamples = 10\nvalue = [7, 3]"] ;
1231 -> 1232 ;
1233 [label="Comedy <= 0.5\ngini = 0.245\nsamples = 7\nvalue = [6, 1]"] ;
1232 -> 1233 ;
1234 [label="gini = 0.0\nsamples = 6\nvalue = [6, 0]"] ;
1233 -> 1234 ;
1235 [label="gini = 0.0\nsamples = 1\nvalue = [0, 1]"] ;
1233 -> 1235 ;
1236 [label="Duree <= 90.0\ngini = 0.444\nsamples = 3\nvalue = [1, 2]"] ;
1232 -> 1236 ;
1237 [label="gini = 0.0\nsamples = 1\nvalue = [1, 0]"] ;
1236 -> 1237 ;
1238 [label="gini = 0.0\nsamples = 2\nvalue = [0, 2]"] ;
1236 -> 1238 ;
1239 [label="gini = 0.0\nsamples = 2\nvalue = [0, 2]"] ;
1231 -> 1239 ;
1240 [label="Thriller <= 0.5\ngini = 0.453\nsamples = 303\nvalue = [105, 198]"] ;
1178 -> 1240 ;
1241 [label="Animation <= 0.5\ngini = 0.411\nsamples = 218\nvalue = [63, 155]"] ;
1240 -> 1241 ;
1242 [label="Adventure <= 0.5\ngini = 0.42\nsamples = 210\nvalue = [63, 147]"] ;
1241 -> 1242 ;
1243 [label="annee <= 2009.5\ngini = 0.408\nsamples = 196\nvalue = [56, 140]"] ;
1242 -> 1243 ;
1244 [label="Comedy <= 0.5\ngini = 0.366\nsamples = 137\nvalue = [33, 104]"] ;
1243 -> 1244 ;
1245 [label="Music <= 0.5\ngini = 0.278\nsamples = 66\nvalue = [11, 55]"] ;
1244 -> 1245 ;
1246 [label="budget <= 5907000.0\ngini = 0.231\nsamples = 60\nvalue = [8, 52]"] ;
1245 -> 1246 ;
1247 [label="gini = 0.0\nsamples = 20\nvalue = [0, 20]"] ;
1246 -> 1247 ;
1248 [label="Duree <= 99.5\ngini = 0.32\nsamples = 40\nvalue = [8, 32]"] ;
1246 -> 1248 ;
1249 [label="Crime <= 0.5\ngini = 0.391\nsamples = 30\nvalue = [8, 22]"] ;
1248 -> 1249 ;
1250 [label="Biography <= 0.5\ngini = 0.337\nsamples = 28\nvalue = [6, 22]"] ;
1249 -> 1250 ;
