digraph Tree {
node [shape=box] ;
0 [label="Drama <= 0.5\ngini = 0.491\nsamples = 4587\nvalue = [1985, 2602]"] ;
1 [label="annee <= 1984.5\ngini = 0.489\nsamples = 2318\nvalue = [1330, 988]"] ;
0 -> 1 [labeldistance=2.5, labelangle=45, headlabel="True"] ;
2 [label="annee <= 1976.5\ngini = 0.328\nsamples = 319\nvalue = [66, 253]"] ;
1 -> 2 ;
3 [label="budget <= 95000.0\ngini = 0.169\nsamples = 183\nvalue = [17, 166]"] ;
2 -> 3 ;
4 [label="annee <= 1958.5\ngini = 0.497\nsamples = 13\nvalue = [6, 7]"] ;
3 -> 4 ;
5 [label="gini = 0.0\nsamples = 5\nvalue = [0, 5]"] ;
4 -> 5 ;
6 [label="Thriller <= 0.5\ngini = 0.375\nsamples = 8\nvalue = [6, 2]"] ;
4 -> 6 ;
7 [label="Duree <= 86.0\ngini = 0.245\nsamples = 7\nvalue = [6, 1]"] ;
6 -> 7 ;
8 [label="gini = 0.0\nsamples = 5\nvalue = [5, 0]"] ;
7 -> 8 ;
9 [label="annee <= 1973.0\ngini = 0.5\nsamples = 2\nvalue = [1, 1]"] ;
7 -> 9 ;
10 [label="gini = 0.0\nsamples = 1\nvalue = [1, 0]"] ;
9 -> 10 ;
11 [label="gini = 0.0\nsamples = 1\nvalue = [0, 1]"] ;
9 -> 11 ;
12 [label="gini = 0.0\nsamples = 1\nvalue = [0, 1]"] ;
6 -> 12 ;
13 [label="Sci-Fi <= 0.5\ngini = 0.121\nsamples = 170\nvalue = [11, 159]"] ;
3 -> 13 ;
14 [label="budget <= 22000000.0\ngini = 0.054\nsamples = 145\nvalue = [4, 141]"] ;
13 -> 14 ;
15 [label="budget <= 11000000.0\ngini = 0.041\nsamples = 144\nvalue = [3, 141]"] ;
14 -> 15 ;
16 [label="annee <= 1965.5\ngini = 0.029\nsamples = 137\nvalue = [2, 135]"] ;
15 -> 16 ;
17 [label="gini = 0.0\nsamples = 77\nvalue = [0, 77]"] ;
16 -> 17 ;
18 [label="Family <= 0.5\ngini = 0.064\nsamples = 60\nvalue = [2, 58]"] ;
16 -> 18 ;
19 [label="Duree <= 124.0\ngini = 0.035\nsamples = 56\nvalue = [1, 55]"] ;
18 -> 19 ;
20 [label="gini = 0.0\nsamples = 45\nvalue = [0, 45]"] ;
19 -> 20 ;
21 [label="Thriller <= 0.5\ngini = 0.165\nsamples = 11\nvalue = [1, 10]"] ;
19 -> 21 ;
22 [label="gini = 0.0\nsamples = 9\nvalue = [0, 9]"] ;
21 -> 22 ;
23 [label="Duree <= 133.5\ngini = 0.5\nsamples = 2\nvalue = [1, 1]"] ;
21 -> 23 ;
24 [label="gini = 0.0\nsamples = 1\nvalue = [1, 0]"] ;
23 -> 24 ;
25 [label="gini = 0.0\nsamples = 1\nvalue = [0, 1]"] ;
23 -> 25 ;
26 [label="annee <= 1967.0\ngini = 0.375\nsamples = 4\nvalue = [1, 3]"] ;
18 -> 26 ;
27 [label="gini = 0.0\nsamples = 1\nvalue = [1, 0]"] ;
26 -> 27 ;
28 [label="gini = 0.0\nsamples = 3\nvalue = [0, 3]"] ;
26 -> 28 ;
29 [label="budget <= 12500000.0\ngini = 0.245\nsamples = 7\nvalue = [1, 6]"] ;
15 -> 29 ;
30 [label="Duree <= 138.5\ngini = 0.5\nsamples = 2\nvalue = [1, 1]"] ;
29 -> 30 ;
31 [label="gini = 0.0\nsamples = 1\nvalue = [1, 0]"] ;
30 -> 31 ;
32 [label="gini = 0.0\nsamples = 1\nvalue = [0, 1]"] ;
30 -> 32 ;
33 [label="gini = 0.0\nsamples = 5\nvalue = [0, 5]"] ;
29 -> 33 ;
34 [label="gini = 0.0\nsamples = 1\nvalue = [1, 0]"] ;
14 -> 34 ;
35 [label="Action <= 0.5\ngini = 0.403\nsamples = 25\nvalue = [7, 18]"] ;
13 -> 35 ;
36 [label="budget <= 265500.0\ngini = 0.208\nsamples = 17\nvalue = [2, 15]"] ;
35 -> 36 ;
37 [label="Thriller <= 0.5\ngini = 0.5\nsamples = 2\nvalue = [1, 1]"] ;
36 -> 37 ;
38 [label="gini = 0.0\nsamples = 1\nvalue = [0, 1]"] ;
37 -> 38 ;
39 [label="gini = 0.0\nsamples = 1\nvalue = [1, 0]"] ;
37 -> 39 ;
40 [label="Fantasy <= 0.5\ngini = 0.124\nsamples = 15\nvalue = [1, 14]"] ;
36 -> 40 ;
41 [label="gini = 0.0\nsamples = 12\nvalue = [0, 12]"] ;
40 -> 41 ;
42 [label="Romance <= 0.5\ngini = 0.444\nsamples = 3\nvalue = [1, 2]"] ;
40 -> 42 ;
43 [label="gini = 0.0\nsamples = 1\nvalue = [1, 0]"] ;
42 -> 43 ;
44 [label="gini = 0.0\nsamples = 2\nvalue = [0, 2]"] ;
42 -> 44 ;
45 [label="annee <= 1963.0\ngini = 0.469\nsamples = 8\nvalue = [5, 3]"] ;
35 -> 45 ;
46 [label="gini = 0.0\nsamples = 2\nvalue = [0, 2]"] ;
45 -> 46 ;
47 [label="Duree <= 108.5\ngini = 0.278\nsamples = 6\nvalue = [5, 1]"] ;
45 -> 47 ;
48 [label="gini = 0.0\nsamples = 5\nvalue = [5, 0]"] ;
47 -> 48 ;
49 [label="gini = 0.0\nsamples = 1\nvalue = [0, 1]"] ;
47 -> 49 ;
50 [label="budget <= 33250000.0\ngini = 0.461\nsamples = 136\nvalue = [49, 87]"] ;
2 -> 50 ;
51 [label="Horror <= 0.5\ngini = 0.443\nsamples = 127\nvalue = [42, 85]"] ;
50 -> 51 ;
52 [label="Sci-Fi <= 0.5\ngini = 0.362\nsamples = 80\nvalue = [19, 61]"] ;
51 -> 52 ;
53 [label="Fantasy <= 0.5\ngini = 0.419\nsamples = 57\nvalue = [17, 40]"] ;
52 -> 53 ;
54 [label="budget <= 1390000.0\ngini = 0.351\nsamples = 44\nvalue = [10, 34]"] ;
53 -> 54 ;
55 [label="gini = 0.0\nsamples = 2\nvalue = [2, 0]"] ;
54 -> 55 ;
56 [label="Action <= 0.5\ngini = 0.308\nsamples = 42\nvalue = [8, 34]"] ;
54 -> 56 ;
57 [label="War <= 0.5\ngini = 0.191\nsamples = 28\nvalue = [3, 25]"] ;
56 -> 57 ;
58 [label="budget <= 13500000.0\ngini = 0.142\nsamples = 26\nvalue = [2, 24]"] ;
57 -> 58 ;
59 [label="budget <= 4250000.0\ngini = 0.083\nsamples = 23\nvalue = [1, 22]"] ;
58 -> 59 ;
60 [label="annee <= 1980.5\ngini = 0.18\nsamples = 10\nvalue = [1, 9]"] ;
59 -> 60 ;
61 [label="gini = 0.0\nsamples = 5\nvalue = [0, 5]"] ;
60 -> 61 ;
62 [label="annee <= 1982.0\ngini = 0.32\nsamples = 5\nvalue = [1, 4]"] ;
60 -> 62 ;
63 [label="gini = 0.0\nsamples = 1\nvalue = [1, 0]"] ;
62 -> 63 ;
64 [label="gini = 0.0\nsamples = 4\nvalue = [0, 4]"] ;
62 -> 64 ;
65 [label="gini = 0.0\nsamples = 13\nvalue = [0, 13]"] ;
59 -> 65 ;
66 [label="Duree <= 91.5\ngini = 0.444\nsamples = 3\nvalue = [1, 2]"] ;
58 -> 66 ;
67 [label="gini = 0.0\nsamples = 1\nvalue = [1, 0]"] ;
66 -> 67 ;
68 [label="gini = 0.0\nsamples = 2\nvalue = [0, 2]"] ;
66 -> 68 ;
69 [label="annee <= 1980.5\ngini = 0.5\nsamples = 2\nvalue = [1, 1]"] ;
57 -> 69 ;
70 [label="gini = 0.0\nsamples = 1\nvalue = [1, 0]"] ;
69 -> 70 ;
71 [label="gini = 0.0\nsamples = 1\nvalue = [0, 1]"] ;
69 -> 71 ;
72 [label="Duree <= 102.0\ngini = 0.459\nsamples = 14\nvalue = [5, 9]"] ;
56 -> 72 ;
73 [label="budget <= 11500000.0\ngini = 0.32\nsamples = 5\nvalue = [4, 1]"] ;
72 -> 73 ;
74 [label="gini = 0.0\nsamples = 3\nvalue = [3, 0]"] ;
73 -> 74 ;
75 [label="budget <= 16000000.0\ngini = 0.5\nsamples = 2\nvalue = [1, 1]"] ;
73 -> 75 ;
76 [label="gini = 0.0\nsamples = 1\nvalue = [0, 1]"] ;
75 -> 76 ;
77 [label="gini = 0.0\nsamples = 1\nvalue = [1, 0]"] ;
75 -> 77 ;
78 [label="annee <= 1979.0\ngini = 0.198\nsamples = 9\nvalue = [1, 8]"] ;
72 -> 78 ;
79 [label="annee <= 1977.5\ngini = 0.5\nsamples = 2\nvalue = [1, 1]"] ;
78 -> 79 ;
80 [label="gini = 0.0\nsamples = 1\nvalue = [0, 1]"] ;
79 -> 80 ;
81 [label="gini = 0.0\nsamples = 1\nvalue = [1, 0]"] ;
79 -> 81 ;
82 [label="gini = 0.0\nsamples = 7\nvalue = [0, 7]"] ;
78 -> 82 ;
83 [label="Musical <= 0.5\ngini = 0.497\nsamples = 13\nvalue = [7, 6]"] ;
53 -> 83 ;
84 [label="annee <= 1982.5\ngini = 0.48\nsamples = 10\nvalue = [4, 6]"] ;
83 -> 84 ;
85 [label="Duree <= 130.5\ngini = 0.278\nsamples = 6\nvalue = [1, 5]"] ;
84 -> 85 ;
86 [label="gini = 0.0\nsamples = 5\nvalue = [0, 5]"] ;
85 -> 86 ;
87 [label="gini = 0.0\nsamples = 1\nvalue = [1, 0]"] ;
85 -> 87 ;
88 [label="budget <= 29500000.0\ngini = 0.375\nsamples = 4\nvalue = [3, 1]"] ;
84 -> 88 ;
89 [label="gini = 0.0\nsamples = 3\nvalue = [3, 0]"] ;
88 -> 89 ;
90 [label="gini = 0.0\nsamples = 1\nvalue = [0, 1]"] ;
88 -> 90 ;
91 [label="gini = 0.0\nsamples = 3\nvalue = [3, 0]"] ;
83 -> 91 ;
92 [label="budget <= 19000000.0\ngini = 0.159\nsamples = 23\nvalue = [2, 21]"] ;
52 -> 92 ;
93 [label="gini = 0.0\nsamples = 17\nvalue = [0, 17]"] ;
92 -> 93 ;
94 [label="budget <= 24500000.0\ngini = 0.444\nsamples = 6\nvalue = [2, 4]"] ;
92 -> 94 ;
95 [label="gini = 0.0\nsamples = 2\nvalue = [2, 0]"] ;
94 -> 95 ;
96 [label="gini = 0.0\nsamples = 4\nvalue = [0, 4]"] ;
94 -> 96 ;
97 [label="Thriller <= 0.5\ngini = 0.5\nsamples = 47\nvalue = [23, 24]"] ;
51 -> 97 ;
98 [label="Duree <= 108.0\ngini = 0.482\nsamples = 37\nvalue = [15, 22]"] ;
97 -> 98 ;
99 [label="budget <= 900000.0\ngini = 0.5\nsamples = 30\nvalue = [15, 15]"] ;
98 -> 99 ;
100 [label="budget <= 437500.0\ngini = 0.444\nsamples = 15\nvalue = [10, 5]"] ;
99 -> 100 ;
101 [label="Duree <= 87.0\ngini = 0.494\nsamples = 9\nvalue = [4, 5]"] ;
100 -> 101 ;
102 [label="Duree <= 83.0\ngini = 0.32\nsamples = 5\nvalue = [4, 1]"] ;
101 -> 102 ;
103 [label="gini = 0.0\nsamples = 1\nvalue = [0, 1]"] ;
102 -> 103 ;
104 [label="gini = 0.0\nsamples = 4\nvalue = [4, 0]"] ;
102 -> 104 ;
105 [label="gini = 0.0\nsamples = 4\nvalue = [0, 4]"] ;
101 -> 105 ;
106 [label="gini = 0.0\nsamples = 6\nvalue = [6, 0]"] ;
100 -> 106 ;
107 [label="budget <= 2250000.0\ngini = 0.444\nsamples = 15\nvalue = [5, 10]"] ;
99 -> 107 ;
108 [label="gini = 0.0\nsamples = 5\nvalue = [0, 5]"] ;
107 -> 108 ;
109 [label="budget <= 2890000.0\ngini = 0.5\nsamples = 10\nvalue = [5, 5]"] ;
107 -> 109 ;
110 [label="gini = 0.0\nsamples = 2\nvalue = [2, 0]"] ;
109 -> 110 ;
111 [label="budget <= 6440000.0\ngini = 0.469\nsamples = 8\nvalue = [3, 5]"] ;
109 -> 111 ;
112 [label="gini = 0.0\nsamples = 3\nvalue = [0, 3]"] ;
111 -> 112 ;
113 [label="Comedy <= 0.5\ngini = 0.48\nsamples = 5\nvalue = [3, 2]"] ;
111 -> 113 ;
114 [label="gini = 0.0\nsamples = 3\nvalue = [3, 0]"] ;
113 -> 114 ;
115 [label="gini = 0.0\nsamples = 2\nvalue = [0, 2]"] ;
113 -> 115 ;
116 [label="gini = 0.0\nsamples = 7\nvalue = [0, 7]"] ;
98 -> 116 ;
117 [label="budget <= 775000.0\ngini = 0.32\nsamples = 10\nvalue = [8, 2]"] ;
97 -> 117 ;
118 [label="gini = 0.0\nsamples = 1\nvalue = [0, 1]"] ;
117 -> 118 ;
119 [label="Sci-Fi <= 0.5\ngini = 0.198\nsamples = 9\nvalue = [8, 1]"] ;
117 -> 119 ;
120 [label="gini = 0.0\nsamples = 7\nvalue = [7, 0]"] ;
119 -> 120 ;
121 [label="annee <= 1983.5\ngini = 0.5\nsamples = 2\nvalue = [1, 1]"] ;
119 -> 121 ;
122 [label="gini = 0.0\nsamples = 1\nvalue = [0, 1]"] ;
121 -> 122 ;
123 [label="gini = 0.0\nsamples = 1\nvalue = [1, 0]"] ;
121 -> 123 ;
124 [label="budget <= 39500000.0\ngini = 0.346\nsamples = 9\nvalue = [7, 2]"] ;
50 -> 124 ;
125 [label="gini = 0.0\nsamples = 7\nvalue = [7, 0]"] ;
124 -> 125 ;
126 [label="gini = 0.0\nsamples = 2\nvalue = [0, 2]"] ;
124 -> 126 ;
127 [label="Duree <= 110.5\ngini = 0.465\nsamples = 1999\nvalue = [1264, 735]"] ;
1 -> 127 ;
128 [label="Animation <= 0.5\ngini = 0.418\nsamples = 1487\nvalue = [1045, 442]"] ;
127 -> 128 ;
129 [label="budget <= 6160000.0\ngini = 0.384\nsamples = 1335\nvalue = [989, 346]"] ;
128 -> 129 ;
130 [label="Horror <= 0.5\ngini = 0.494\nsamples = 222\nvalue = [123, 99]"] ;
129 -> 130 ;
131 [label="annee <= 2003.5\ngini = 0.478\nsamples = 104\nvalue = [41, 63]"] ;
130 -> 131 ;
132 [label="Sport <= 0.5\ngini = 0.343\nsamples = 41\nvalue = [9, 32]"] ;
131 -> 132 ;
133 [label="Duree <= 86.5\ngini = 0.32\nsamples = 40\nvalue = [8, 32]"] ;
132 -> 133 ;
134 [label="Action <= 0.5\ngini = 0.48\nsamples = 5\nvalue = [2, 3]"] ;
133 -> 134 ;
135 [label="gini = 0.0\nsamples = 3\nvalue = [0, 3]"] ;
134 -> 135 ;
136 [label="gini = 0.0\nsamples = 2\nvalue = [2, 0]"] ;
134 -> 136 ;
137 [label="Comedy <= 0.5\ngini = 0.284\nsamples = 35\nvalue = [6, 29]"] ;
133 -> 137 ;
138 [label="gini = 0.0\nsamples = 7\nvalue = [0, 7]"] ;
137 -> 138 ;
139 [label="budget <= 3433000.0\ngini = 0.337\nsamples = 28\nvalue = [6, 22]"] ;
137 -> 139 ;
140 [label="budget <= 450000.0\ngini = 0.231\nsamples = 15\nvalue = [2, 13]"] ;
139 -> 140 ;
141 [label="annee <= 1991.5\ngini = 0.5\nsamples = 2\nvalue = [1, 1]"] ;
140 -> 141 ;
142 [label="gini = 0.0\nsamples = 1\nvalue = [1, 0]"] ;
141 -> 142 ;
143 [label="gini = 0.0\nsamples = 1\nvalue = [0, 1]"] ;
141 -> 143 ;
144 [label="budget <= 1100000.0\ngini = 0.142\nsamples = 13\nvalue = [1, 12]"] ;
140 -> 144 ;
145 [label="annee <= 1995.5\ngini = 0.32\nsamples = 5\nvalue = [1, 4]"] ;
144 -> 145 ;
146 [label="gini = 0.0\nsamples = 3\nvalue = [0, 3]"] ;
145 -> 146 ;
147 [label="Fantasy <= 0.5\ngini = 0.5\nsamples = 2\nvalue = [1, 1]"] ;
145 -> 147 ;
148 [label="gini = 0.0\nsamples = 1\nvalue = [1, 0]"] ;
147 -> 148 ;
149 [label="gini = 0.0\nsamples = 1\nvalue = [0, 1]"] ;
147 -> 149 ;
150 [label="gini = 0.0\nsamples = 8\nvalue = [0, 8]"] ;
144 -> 150 ;
151 [label="budget <= 3750000.0\ngini = 0.426\nsamples = 13\nvalue = [4, 9]"] ;
139 -> 151 ;
152 [label="gini = 0.0\nsamples = 1\nvalue = [1, 0]"] ;
151 -> 152 ;
153 [label="Romance <= 0.5\ngini = 0.375\nsamples = 12\nvalue = [3, 9]"] ;
151 -> 153 ;
154 [label="Duree <= 104.0\ngini = 0.219\nsamples = 8\nvalue = [1, 7]"] ;
153 -> 154 ;
155 [label="gini = 0.0\nsamples = 6\nvalue = [0, 6]"] ;
154 -> 155 ;
156 [label="budget <= 4500000.0\ngini = 0.5\nsamples = 2\nvalue = [1, 1]"] ;
154 -> 156 ;
157 [label="gini = 0.0\nsamples = 1\nvalue = [0, 1]"] ;
156 -> 157 ;
158 [label="gini = 0.0\nsamples = 1\nvalue = [1, 0]"] ;
156 -> 158 ;
159 [label="budget <= 5500000.0\ngini = 0.5\nsamples = 4\nvalue = [2, 2]"] ;
153 -> 159 ;
160 [label="gini = 0.0\nsamples = 2\nvalue = [0, 2]"] ;
159 -> 160 ;
161 [label="gini = 0.0\nsamples = 2\nvalue = [2, 0]"] ;
159 -> 161 ;
162 [label="gini = 0.0\nsamples = 1\nvalue = [1, 0]"] ;
132 -> 162 ;
163 [label="budget <= 2950000.0\ngini = 0.5\nsamples = 63\nvalue = [32, 31]"] ;
131 -> 163 ;
164 [label="Crime <= 0.5\ngini = 0.436\nsamples = 28\nvalue = [9, 19]"] ;
163 -> 164 ;
165 [label="Comedy <= 0.5\ngini = 0.476\nsamples = 23\nvalue = [9, 14]"] ;
164 -> 165 ;
166 [label="Mystery <= 0.5\ngini = 0.219\nsamples = 8\nvalue = [1, 7]"] ;
165 -> 166 ;
167 [label="gini = 0.0\nsamples = 7\nvalue = [0, 7]"] ;
166 -> 167 ;
168 [label="gini = 0.0\nsamples = 1\nvalue = [1, 0]"] ;
166 -> 168 ;
169 [label="budget <= 2250000.0\ngini = 0.498\nsamples = 15\nvalue = [8, 7]"] ;
165 -> 169 ;
170 [label="Duree <= 57.5\ngini = 0.444\nsamples = 12\nvalue = [8, 4]"] ;
169 -> 170 ;
171 [label="gini = 0.0\nsamples = 1\nvalue = [0, 1]"] ;
170 -> 171 ;
172 [label="Duree <= 105.0\ngini = 0.397\nsamples = 11\nvalue = [8, 3]"] ;
170 -> 172 ;
173 [label="budget <= 450000.0\ngini = 0.32\nsamples = 10\nvalue = [8, 2]"] ;
172 -> 173 ;
174 [label="gini = 0.0\nsamples = 1\nvalue = [0, 1]"] ;
173 -> 174 ;
175 [label="Documentary <= 0.5\ngini = 0.198\nsamples = 9\nvalue = [8, 1]"] ;
173 -> 175 ;
176 [label="gini = 0.0\nsamples = 7\nvalue = [7, 0]"] ;
175 -> 176 ;
177 [label="gini = 0.5\nsamples = 2\nvalue = [1, 1]"] ;
175 -> 177 ;
178 [label="gini = 0.0\nsamples = 1\nvalue = [0, 1]"] ;
172 -> 178 ;
179 [label="gini = 0.0\nsamples = 3\nvalue = [0, 3]"] ;
169 -> 179 ;
180 [label="gini = 0.0\nsamples = 5\nvalue = [0, 5]"] ;
164 -> 180 ;
181 [label="Duree <= 93.5\ngini = 0.451\nsamples = 35\nvalue = [23, 12]"] ;
163 -> 181 ;
182 [label="Sci-Fi <= 0.5\ngini = 0.124\nsamples = 15\nvalue = [14, 1]"] ;
181 -> 182 ;
183 [label="gini = 0.0\nsamples = 13\nvalue = [13, 0]"] ;
182 -> 183 ;
184 [label="Duree <= 91.0\ngini = 0.5\nsamples = 2\nvalue = [1, 1]"] ;
182 -> 184 ;
185 [label="gini = 0.0\nsamples = 1\nvalue = [0, 1]"] ;
184 -> 185 ;
186 [label="gini = 0.0\nsamples = 1\nvalue = [1, 0]"] ;
184 -> 186 ;
187 [label="Action <= 0.5\ngini = 0.495\nsamples = 20\nvalue = [9, 11]"] ;
181 -> 187 ;
188 [label="Sci-Fi <= 0.5\ngini = 0.391\nsamples = 15\nvalue = [4, 11]"] ;
187 -> 188 ;
189 [label="annee <= 2009.5\ngini = 0.26\nsamples = 13\nvalue = [2, 11]"] ;
188 -> 189 ;
190 [label="annee <= 2006.5\ngini = 0.48\nsamples = 5\nvalue = [2, 3]"] ;
189 -> 190 ;
191 [label="gini = 0.0\nsamples = 3\nvalue = [0, 3]"] ;
190 -> 191 ;
192 [label="gini = 0.0\nsamples = 2\nvalue = [2, 0]"] ;
190 -> 192 ;
193 [label="gini = 0.0\nsamples = 8\nvalue = [0, 8]"] ;
189 -> 193 ;
194 [label="gini = 0.0\nsamples = 2\nvalue = [2, 0]"] ;
188 -> 194 ;
195 [label="gini = 0.0\nsamples = 5\nvalue = [5, 0]"] ;
187 -> 195 ;
196 [label="annee <= 2008.5\ngini = 0.424\nsamples = 118\nvalue = [82, 36]"] ;
130 -> 196 ;
197 [label="Thriller <= 0.5\ngini = 0.486\nsamples = 72\nvalue = [42, 30]"] ;
196 -> 197 ;
198 [label="Duree <= 101.5\ngini = 0.5\nsamples = 49\nvalue = [24, 25]"] ;
197 -> 198 ;
199 [label="annee <= 1987.5\ngini = 0.485\nsamples = 41\nvalue = [24, 17]"] ;
198 -> 199 ;
200 [label="Duree <= 88.5\ngini = 0.444\nsamples = 12\nvalue = [4, 8]"] ;
199 -> 200 ;
201 [label="Duree <= 86.5\ngini = 0.219\nsamples = 8\nvalue = [1, 7]"] ;
200 -> 201 ;
202 [label="gini = 0.0\nsamples = 5\nvalue = [0, 5]"] ;
201 -> 202 ;
203 [label="Duree <= 87.5\ngini = 0.444\nsamples = 3\nvalue = [1, 2]"] ;
201 -> 203 ;
204 [label="Action <= 0.5\ngini = 0.5\nsamples = 2\nvalue = [1, 1]"] ;
203 -> 204 ;
205 [label="gini = 0.0\nsamples = 1\nvalue = [1, 0]"] ;
204 -> 205 ;
206 [label="gini = 0.0\nsamples = 1\nvalue = [0, 1]"] ;
204 -> 206 ;
207 [label="gini = 0.0\nsamples = 1\nvalue = [0, 1]"] ;
203 -> 207 ;
208 [label="annee <= 1986.5\ngini = 0.375\nsamples = 4\nvalue = [3, 1]"] ;
200 -> 208 ;
209 [label="gini = 0.0\nsamples = 3\nvalue = [3, 0]"] ;
208 -> 209 ;
210 [label="gini = 0.0\nsamples = 1\nvalue = [0, 1]"] ;
208 -> 210 ;
211 [label="budget <= 5177500.0\ngini = 0.428\nsamples = 29\nvalue = [20, 9]"] ;
199 -> 211 ;
212 [label="budget <= 1100000.0\ngini = 0.384\nsamples = 27\nvalue = [20, 7]"] ;
211 -> 212 ;
213 [label="gini = 0.0\nsamples = 7\nvalue = [7, 0]"] ;
212 -> 213 ;
214 [label="Duree <= 88.5\ngini = 0.455\nsamples = 20\nvalue = [13, 7]"] ;
212 -> 214 ;
215 [label="gini = 0.0\nsamples = 4\nvalue = [4, 0]"] ;
214 -> 215 ;
216 [label="budget <= 4400000.0\ngini = 0.492\nsamples = 16\nvalue = [9, 7]"] ;
214 -> 216 ;
217 [label="budget <= 2243000.0\ngini = 0.486\nsamples = 12\nvalue = [5, 7]"] ;
216 -> 217 ;
218 [label="gini = 0.469\nsamples = 8\nvalue = [5, 3]"] ;
217 -> 218 ;
219 [label="gini = 0.0\nsamples = 4\nvalue = [0, 4]"] ;
217 -> 219 ;
220 [label="gini = 0.0\nsamples = 4\nvalue = [4, 0]"] ;
216 -> 220 ;
221 [label="gini = 0.0\nsamples = 2\nvalue = [0, 2]"] ;
211 -> 221 ;
222 [label="gini = 0.0\nsamples = 8\nvalue = [0, 8]"] ;
198 -> 222 ;
223 [label="annee <= 2006.5\ngini = 0.34\nsamples = 23\nvalue = [18, 5]"] ;
197 -> 223 ;
224 [label="Crime <= 0.5\ngini = 0.198\nsamples = 18\nvalue = [16, 2]"] ;
223 -> 224 ;
225 [label="Duree <= 86.5\ngini = 0.111\nsamples = 17\nvalue = [16, 1]"] ;
224 -> 225 ;
226 [label="budget <= 3850000.0\ngini = 0.32\nsamples = 5\nvalue = [4, 1]"] ;
225 -> 226 ;
227 [label="gini = 0.0\nsamples = 4\nvalue = [4, 0]"] ;
226 -> 227 ;
228 [label="gini = 0.0\nsamples = 1\nvalue = [0, 1]"] ;
226 -> 228 ;
229 [label="gini = 0.0\nsamples = 12\nvalue = [12, 0]"] ;
225 -> 229 ;
230 [label="gini = 0.0\nsamples = 1\nvalue = [0, 1]"] ;
224 -> 230 ;
231 [label="Duree <= 97.5\ngini = 0.48\nsamples = 5\nvalue = [2, 3]"] ;
223 -> 231 ;
232 [label="gini = 0.0\nsamples = 3\nvalue = [0, 3]"] ;
231 -> 232 ;
233 [label="gini = 0.0\nsamples = 2\nvalue = [2, 0]"] ;
231 -> 233 ;
234 [label="Duree <= 105.5\ngini = 0.227\nsamples = 46\nvalue = [40, 6]"] ;
196 -> 234 ;
235 [label="Adventure <= 0.5\ngini = 0.169\nsamples = 43\nvalue = [39, 4]"] ;
234 -> 235 ;
236 [label="Action <= 0.5\ngini = 0.133\nsamples = 42\nvalue = [39, 3]"] ;
235 -> 236 ;
237 [label="budget <= 5300000.0\ngini = 0.095\nsamples = 40\nvalue = [38, 2]"] ;
236 -> 237 ;
238 [label="Mystery <= 0.5\ngini = 0.054\nsamples = 36\nvalue = [35, 1]"] ;
237 -> 238 ;
239 [label="gini = 0.0\nsamples = 30\nvalue = [30, 0]"] ;
238 -> 239 ;
240 [label="Duree <= 96.0\ngini = 0.278\nsamples = 6\nvalue = [5, 1]"] ;
238 -> 240 ;
241 [label="gini = 0.0\nsamples = 5\nvalue = [5, 0]"] ;
240 -> 241 ;
242 [label="gini = 0.0\nsamples = 1\nvalue = [0, 1]"] ;
240 -> 242 ;
243 [label="budget <= 5800000.0\ngini = 0.375\nsamples = 4\nvalue = [3, 1]"] ;
237 -> 243 ;
244 [label="gini = 0.0\nsamples = 1\nvalue = [0, 1]"] ;
243 -> 244 ;
245 [label="gini = 0.0\nsamples = 3\nvalue = [3, 0]"] ;
243 -> 245 ;
246 [label="budget <= 4275000.0\ngini = 0.5\nsamples = 2\nvalue = [1, 1]"] ;
236 -> 246 ;
247 [label="gini = 0.0\nsamples = 1\nvalue = [1, 0]"] ;
246 -> 247 ;
248 [label="gini = 0.0\nsamples = 1\nvalue = [0, 1]"] ;
246 -> 248 ;
249 [label="gini = 0.0\nsamples = 1\nvalue = [0, 1]"] ;
235 -> 249 ;
250 [label="annee <= 2011.5\ngini = 0.444\nsamples = 3\nvalue = [1, 2]"] ;
234 -> 250 ;
251 [label="gini = 0.0\nsamples = 1\nvalue = [1, 0]"] ;
250 -> 251 ;
252 [label="gini = 0.0\nsamples = 2\nvalue = [0, 2]"] ;
250 -> 252 ;
253 [label="annee <= 1991.5\ngini = 0.345\nsamples = 1113\nvalue = [866, 247]"] ;
129 -> 253 ;
254 [label="budget <= 27400000.0\ngini = 0.478\nsamples = 124\nvalue = [75, 49]"] ;
253 -> 254 ;
255 [label="budget <= 8750000.0\ngini = 0.494\nsamples = 99\nvalue = [55, 44]"] ;
254 -> 255 ;
256 [label="Duree <= 107.0\ngini = 0.32\nsamples = 15\nvalue = [12, 3]"] ;
255 -> 256 ;
257 [label="Fantasy <= 0.5\ngini = 0.142\nsamples = 13\nvalue = [12, 1]"] ;
256 -> 257 ;
258 [label="gini = 0.0\nsamples = 11\nvalue = [11, 0]"] ;
257 -> 258 ;
259 [label="Comedy <= 0.5\ngini = 0.5\nsamples = 2\nvalue = [1, 1]"] ;
257 -> 259 ;
260 [label="gini = 0.0\nsamples = 1\nvalue = [1, 0]"] ;
259 -> 260 ;
261 [label="gini = 0.0\nsamples = 1\nvalue = [0, 1]"] ;
259 -> 261 ;
262 [label="gini = 0.0\nsamples = 2\nvalue = [0, 2]"] ;
256 -> 262 ;
263 [label="budget <= 25500000.0\ngini = 0.5\nsamples = 84\nvalue = [43, 41]"] ;
255 -> 263 ;
264 [label="budget <= 16950000.0\ngini = 0.498\nsamples = 81\nvalue = [43, 38]"] ;
263 -> 264 ;
265 [label="Adventure <= 0.5\ngini = 0.494\nsamples = 47\nvalue = [21, 26]"] ;
264 -> 265 ;
266 [label="Duree <= 101.0\ngini = 0.5\nsamples = 37\nvalue = [19, 18]"] ;
265 -> 266 ;
267 [label="budget <= 10750000.0\ngini = 0.473\nsamples = 26\nvalue = [16, 10]"] ;
266 -> 267 ;
268 [label="gini = 0.0\nsamples = 7\nvalue = [7, 0]"] ;
267 -> 268 ;
269 [label="Comedy <= 0.5\ngini = 0.499\nsamples = 19\nvalue = [9, 10]"] ;
267 -> 269 ;
270 [label="annee <= 1987.5\ngini = 0.32\nsamples = 5\nvalue = [4, 1]"] ;
269 -> 270 ;
271 [label="gini = 0.0\nsamples = 1\nvalue = [0, 1]"] ;
270 -> 271 ;
272 [label="gini = 0.0\nsamples = 4\nvalue = [4, 0]"] ;
270 -> 272 ;
273 [label="Fantasy <= 0.5\ngini = 0.459\nsamples = 14\nvalue = [5, 9]"] ;
269 -> 273 ;
274 [label="gini = 0.496\nsamples = 11\nvalue = [5, 6]"] ;
273 -> 274 ;
275 [label="gini = 0.0\nsamples = 3\nvalue = [0, 3]"] ;
273 -> 275 ;
276 [label="budget <= 13000000.0\ngini = 0.397\nsamples = 11\nvalue = [3, 8]"] ;
266 -> 276 ;
277 [label="gini = 0.0\nsamples = 5\nvalue = [0, 5]"] ;
276 -> 277 ;
278 [label="Sci-Fi <= 0.5\ngini = 0.5\nsamples = 6\nvalue = [3, 3]"] ;
276 -> 278 ;
279 [label="Family <= 0.5\ngini = 0.375\nsamples = 4\nvalue = [3, 1]"] ;
278 -> 279 ;
280 [label="gini = 0.0\nsamples = 3\nvalue = [3, 0]"] ;
279 -> 280 ;
281 [label="gini = 0.0\nsamples = 1\nvalue = [0, 1]"] ;
279 -> 281 ;
282 [label="gini = 0.0\nsamples = 2\nvalue = [0, 2]"] ;
278 -> 282 ;
283 [label="Duree <= 102.5\ngini = 0.32\nsamples = 10\nvalue = [2, 8]"] ;
265 -> 283 ;
284 [label="gini = 0.0\nsamples = 7\nvalue = [0, 7]"] ;
283 -> 284 ;
285 [label="Fantasy <= 0.5\ngini = 0.444\nsamples = 3\nvalue = [2, 1]"] ;
283 -> 285 ;
286 [label="gini = 0.0\nsamples = 2\nvalue = [2, 0]"] ;
285 -> 286 ;
287 [label="gini = 0.0\nsamples = 1\nvalue = [0, 1]"] ;
285 -> 287 ;
288 [label="Musical <= 0.5\ngini = 0.457\nsamples = 34\nvalue = [22, 12]"] ;
264 -> 288 ;
289 [label="Duree <= 106.5\ngini = 0.43\nsamples = 32\nvalue = [22, 10]"] ;
288 -> 289 ;
290 [label="Duree <= 86.5\ngini = 0.355\nsamples = 26\nvalue = [20, 6]"] ;
289 -> 290 ;
291 [label="gini = 0.0\nsamples = 1\nvalue = [0, 1]"] ;
290 -> 291 ;
292 [label="Comedy <= 0.5\ngini = 0.32\nsamples = 25\nvalue = [20, 5]"] ;
290 -> 292 ;
293 [label="gini = 0.0\nsamples = 7\nvalue = [7, 0]"] ;
292 -> 293 ;
294 [label="Thriller <= 0.5\ngini = 0.401\nsamples = 18\nvalue = [13, 5]"] ;
292 -> 294 ;
295 [label="gini = 0.36\nsamples = 17\nvalue = [13, 4]"] ;
294 -> 295 ;
296 [label="gini = 0.0\nsamples = 1\nvalue = [0, 1]"] ;
294 -> 296 ;
297 [label="annee <= 1985.5\ngini = 0.444\nsamples = 6\nvalue = [2, 4]"] ;
289 -> 297 ;
298 [label="gini = 0.0\nsamples = 3\nvalue = [0, 3]"] ;
297 -> 298 ;
299 [label="Thriller <= 0.5\ngini = 0.444\nsamples = 3\nvalue = [2, 1]"] ;
297 -> 299 ;
300 [label="gini = 0.0\nsamples = 2\nvalue = [2, 0]"] ;
299 -> 300 ;
301 [label="gini = 0.0\nsamples = 1\nvalue = [0, 1]"] ;
299 -> 301 ;
302 [label="gini = 0.0\nsamples = 2\nvalue = [0, 2]"] ;
288 -> 302 ;
303 [label="gini = 0.0\nsamples = 3\nvalue = [0, 3]"] ;
263 -> 303 ;
304 [label="annee <= 1990.5\ngini = 0.32\nsamples = 25\nvalue = [20, 5]"] ;
254 -> 304 ;
305 [label="Duree <= 107.5\ngini = 0.117\nsamples = 16\nvalue = [15, 1]"] ;
304 -> 305 ;
306 [label="gini = 0.0\nsamples = 13\nvalue = [13, 0]"] ;
305 -> 306 ;
307 [label="budget <= 38500000.0\ngini = 0.444\nsamples = 3\nvalue = [2, 1]"] ;
305 -> 307 ;
308 [label="gini = 0.0\nsamples = 2\nvalue = [2, 0]"] ;
307 -> 308 ;
309 [label="gini = 0.0\nsamples = 1\nvalue = [0, 1]"] ;
307 -> 309 ;
310 [label="Duree <= 99.5\ngini = 0.494\nsamples = 9\nvalue = [5, 4]"] ;
304 -> 310 ;
311 [label="budget <= 39000000.0\ngini = 0.375\nsamples = 4\nvalue = [1, 3]"] ;
310 -> 311 ;
312 [label="gini = 0.0\nsamples = 3\nvalue = [0, 3]"] ;
311 -> 312 ;
313 [label="gini = 0.0\nsamples = 1\nvalue = [1, 0]"] ;
311 -> 313 ;
314 [label="Duree <= 109.5\ngini = 0.32\nsamples = 5\nvalue = [4, 1]"] ;
310 -> 314 ;
315 [label="gini = 0.0\nsamples = 4\nvalue = [4, 0]"] ;
314 -> 315 ;
316 [label="gini = 0.0\nsamples = 1\nvalue = [0, 1]"] ;
314 -> 316 ;
317 [label="Duree <= 101.5\ngini = 0.32\nsamples = 989\nvalue = [791, 198]"] ;
253 -> 317 ;
318 [label="budget <= 33950000.0\ngini = 0.28\nsamples = 702\nvalue = [584, 118]"] ;
317 -> 318 ;
319 [label="Documentary <= 0.5\ngini = 0.334\nsamples = 453\nvalue = [357, 96]"] ;
318 -> 319 ;
320 [label="annee <= 1999.5\ngini = 0.326\nsamples = 448\nvalue = [356, 92]"] ;
319 -> 320 ;
321 [label="Duree <= 91.5\ngini = 0.421\nsamples = 116\nvalue = [81, 35]"] ;
320 -> 321 ;
322 [label="budget <= 12500000.0\ngini = 0.268\nsamples = 44\nvalue = [37, 7]"] ;
321 -> 322 ;
323 [label="annee <= 1996.5\ngini = 0.444\nsamples = 15\nvalue = [10, 5]"] ;
322 -> 323 ;
324 [label="Duree <= 78.5\ngini = 0.298\nsamples = 11\nvalue = [9, 2]"] ;
323 -> 324 ;
325 [label="gini = 0.0\nsamples = 1\nvalue = [0, 1]"] ;
324 -> 325 ;
326 [label="Thriller <= 0.5\ngini = 0.18\nsamples = 10\nvalue = [9, 1]"] ;
324 -> 326 ;
327 [label="gini = 0.0\nsamples = 8\nvalue = [8, 0]"] ;
326 -> 327 ;
328 [label="gini = 0.5\nsamples = 2\nvalue = [1, 1]"] ;
326 -> 328 ;
329 [label="Duree <= 86.5\ngini = 0.375\nsamples = 4\nvalue = [1, 3]"] ;
323 -> 329 ;
330 [label="gini = 0.0\nsamples = 2\nvalue = [0, 2]"] ;
329 -> 330 ;
331 [label="Duree <= 88.0\ngini = 0.5\nsamples = 2\nvalue = [1, 1]"] ;
329 -> 331 ;
332 [label="gini = 0.0\nsamples = 1\nvalue = [1, 0]"] ;
331 -> 332 ;
333 [label="gini = 0.0\nsamples = 1\nvalue = [0, 1]"] ;
331 -> 333 ;
334 [label="Duree <= 75.5\ngini = 0.128\nsamples = 29\nvalue = [27, 2]"] ;
322 -> 334 ;
335 [label="annee <= 1997.0\ngini = 0.5\nsamples = 2\nvalue = [1, 1]"] ;
334 -> 335 ;
336 [label="gini = 0.0\nsamples = 1\nvalue = [1, 0]"] ;
335 -> 336 ;
337 [label="gini = 0.0\nsamples = 1\nvalue = [0, 1]"] ;
335 -> 337 ;
338 [label="Duree <= 88.5\ngini = 0.071\nsamples = 27\nvalue = [26, 1]"] ;
334 -> 338 ;
339 [label="gini = 0.0\nsamples = 20\nvalue = [20, 0]"] ;
338 -> 339 ;
340 [label="Duree <= 89.5\ngini = 0.245\nsamples = 7\nvalue = [6, 1]"] ;
338 -> 340 ;
341 [label="gini = 0.444\nsamples = 3\nvalue = [2, 1]"] ;
340 -> 341 ;
342 [label="gini = 0.0\nsamples = 4\nvalue = [4, 0]"] ;
340 -> 342 ;
343 [label="budget <= 16500000.0\ngini = 0.475\nsamples = 72\nvalue = [44, 28]"] ;
321 -> 343 ;
344 [label="budget <= 10500000.0\ngini = 0.495\nsamples = 31\nvalue = [14, 17]"] ;
343 -> 344 ;
345 [label="budget <= 8250000.0\ngini = 0.397\nsamples = 11\nvalue = [8, 3]"] ;
344 -> 345 ;
346 [label="annee <= 1993.0\ngini = 0.48\nsamples = 5\nvalue = [2, 3]"] ;
345 -> 346 ;
347 [label="gini = 0.0\nsamples = 2\nvalue = [2, 0]"] ;
346 -> 347 ;
348 [label="gini = 0.0\nsamples = 3\nvalue = [0, 3]"] ;
346 -> 348 ;
349 [label="gini = 0.0\nsamples = 6\nvalue = [6, 0]"] ;
345 -> 349 ;
350 [label="Romance <= 0.5\ngini = 0.42\nsamples = 20\nvalue = [6, 14]"] ;
344 -> 350 ;
351 [label="Duree <= 99.5\ngini = 0.48\nsamples = 15\nvalue = [6, 9]"] ;
350 -> 351 ;
352 [label="gini = 0.5\nsamples = 12\nvalue = [6, 6]"] ;
351 -> 352 ;
353 [label="gini = 0.0\nsamples = 3\nvalue = [0, 3]"] ;
351 -> 353 ;
354 [label="gini = 0.0\nsamples = 5\nvalue = [0, 5]"] ;
350 -> 354 ;
355 [label="Comedy <= 0.5\ngini = 0.393\nsamples = 41\nvalue = [30, 11]"] ;
343 -> 355 ;
356 [label="gini = 0.0\nsamples = 12\nvalue = [12, 0]"] ;
355 -> 356 ;
357 [label="budget <= 32000000.0\ngini = 0.471\nsamples = 29\nvalue = [18, 11]"] ;
355 -> 357 ;
358 [label="Duree <= 93.5\ngini = 0.444\nsamples = 27\nvalue = [18, 9]"] ;
357 -> 358 ;
359 [label="gini = 0.0\nsamples = 6\nvalue = [6, 0]"] ;
358 -> 359 ;
360 [label="gini = 0.49\nsamples = 21\nvalue = [12, 9]"] ;
358 -> 360 ;
361 [label="gini = 0.0\nsamples = 2\nvalue = [0, 2]"] ;
357 -> 361 ;
362 [label="Horror <= 0.5\ngini = 0.284\nsamples = 332\nvalue = [275, 57]"] ;
320 -> 362 ;
363 [label="Duree <= 100.5\ngini = 0.331\nsamples = 239\nvalue = [189, 50]"] ;
362 -> 363 ;
364 [label="Mystery <= 0.5\ngini = 0.317\nsamples = 228\nvalue = [183, 45]"] ;
363 -> 364 ;
365 [label="Crime <= 0.5\ngini = 0.299\nsamples = 213\nvalue = [174, 39]"] ;
364 -> 365 ;
366 [label="Duree <= 82.5\ngini = 0.26\nsamples = 163\nvalue = [138, 25]"] ;
365 -> 366 ;
367 [label="gini = 0.463\nsamples = 11\nvalue = [7, 4]"] ;
366 -> 367 ;
368 [label="gini = 0.238\nsamples = 152\nvalue = [131, 21]"] ;
366 -> 368 ;
369 [label="budget <= 24500000.0\ngini = 0.403\nsamples = 50\nvalue = [36, 14]"] ;
365 -> 369 ;
370 [label="gini = 0.461\nsamples = 36\nvalue = [23, 13]"] ;
369 -> 370 ;
371 [label="gini = 0.133\nsamples = 14\nvalue = [13, 1]"] ;
369 -> 371 ;
372 [label="budget <= 26420000.0\ngini = 0.48\nsamples = 15\nvalue = [9, 6]"] ;
364 -> 372 ;
373 [label="budget <= 8050000.0\ngini = 0.375\nsamples = 12\nvalue = [9, 3]"] ;
372 -> 373 ;
374 [label="gini = 0.0\nsamples = 1\nvalue = [0, 1]"] ;
373 -> 374 ;
375 [label="gini = 0.298\nsamples = 11\nvalue = [9, 2]"] ;
373 -> 375 ;
376 [label="gini = 0.0\nsamples = 3\nvalue = [0, 3]"] ;
372 -> 376 ;
377 [label="annee <= 2006.0\ngini = 0.496\nsamples = 11\nvalue = [6, 5]"] ;
363 -> 377 ;
378 [label="gini = 0.0\nsamples = 4\nvalue = [4, 0]"] ;
377 -> 378 ;
379 [label="Action <= 0.5\ngini = 0.408\nsamples = 7\nvalue = [2, 5]"] ;
377 -> 379 ;
380 [label="gini = 0.0\nsamples = 4\nvalue = [0, 4]"] ;
379 -> 380 ;
381 [label="budget <= 16780000.0\ngini = 0.444\nsamples = 3\nvalue = [2, 1]"] ;
379 -> 381 ;
382 [label="gini = 0.0\nsamples = 2\nvalue = [2, 0]"] ;
381 -> 382 ;
383 [label="gini = 0.0\nsamples = 1\nvalue = [0, 1]"] ;
381 -> 383 ;
384 [label="budget <= 21991000.0\ngini = 0.139\nsamples = 93\nvalue = [86, 7]"] ;
362 -> 384 ;
385 [label="Comedy <= 0.5\ngini = 0.029\nsamples = 69\nvalue = [68, 1]"] ;
384 -> 385 ;
386 [label="gini = 0.0\nsamples = 64\nvalue = [64, 0]"] ;
385 -> 386 ;
387 [label="budget <= 8825000.0\ngini = 0.32\nsamples = 5\nvalue = [4, 1]"] ;
385 -> 387 ;
388 [label="gini = 0.0\nsamples = 1\nvalue = [0, 1]"] ;
387 -> 388 ;
389 [label="gini = 0.0\nsamples = 4\nvalue = [4, 0]"] ;
387 -> 389 ;
390 [label="Thriller <= 0.5\ngini = 0.375\nsamples = 24\nvalue = [18, 6]"] ;
384 -> 390 ;
391 [label="budget <= 23800000.0\ngini = 0.496\nsamples = 11\nvalue = [6, 5]"] ;
390 -> 391 ;
392 [label="gini = 0.0\nsamples = 2\nvalue = [0, 2]"] ;
391 -> 392 ;
393 [label="budget <= 29000000.0\ngini = 0.444\nsamples = 9\nvalue = [6, 3]"] ;
391 -> 393 ;
394 [label="gini = 0.245\nsamples = 7\nvalue = [6, 1]"] ;
393 -> 394 ;
395 [label="gini = 0.0\nsamples = 2\nvalue = [0, 2]"] ;
393 -> 395 ;
396 [label="annee <= 2011.5\ngini = 0.142\nsamples = 13\nvalue = [12, 1]"] ;
390 -> 396 ;
397 [label="gini = 0.0\nsamples = 11\nvalue = [11, 0]"] ;
396 -> 397 ;
398 [label="Mystery <= 0.5\ngini = 0.5\nsamples = 2\nvalue = [1, 1]"] ;
396 -> 398 ;
399 [label="gini = 0.0\nsamples = 1\nvalue = [1, 0]"] ;
398 -> 399 ;
400 [label="gini = 0.0\nsamples = 1\nvalue = [0, 1]"] ;
398 -> 400 ;
401 [label="annee <= 2011.0\ngini = 0.32\nsamples = 5\nvalue = [1, 4]"] ;
319 -> 401 ;
402 [label="gini = 0.0\nsamples = 4\nvalue = [0, 4]"] ;
401 -> 402 ;
403 [label="gini = 0.0\nsamples = 1\nvalue = [1, 0]"] ;
401 -> 403 ;
404 [label="budget <= 177500000.0\ngini = 0.161\nsamples = 249\nvalue = [227, 22]"] ;
318 -> 404 ;
405 [label="Duree <= 99.5\ngini = 0.155\nsamples = 248\nvalue = [227, 21]"] ;
404 -> 405 ;
406 [label="Duree <= 94.5\ngini = 0.188\nsamples = 200\nvalue = [179, 21]"] ;
405 -> 406 ;
407 [label="Duree <= 86.5\ngini = 0.114\nsamples = 115\nvalue = [108, 7]"] ;
406 -> 407 ;
408 [label="Duree <= 85.5\ngini = 0.269\nsamples = 25\nvalue = [21, 4]"] ;
407 -> 408 ;
409 [label="Duree <= 84.5\ngini = 0.1\nsamples = 19\nvalue = [18, 1]"] ;
408 -> 409 ;
410 [label="gini = 0.0\nsamples = 14\nvalue = [14, 0]"] ;
409 -> 410 ;
411 [label="Adventure <= 0.5\ngini = 0.32\nsamples = 5\nvalue = [4, 1]"] ;
409 -> 411 ;
412 [label="gini = 0.0\nsamples = 3\nvalue = [3, 0]"] ;
411 -> 412 ;
413 [label="gini = 0.5\nsamples = 2\nvalue = [1, 1]"] ;
411 -> 413 ;
414 [label="Thriller <= 0.5\ngini = 0.5\nsamples = 6\nvalue = [3, 3]"] ;
408 -> 414 ;
415 [label="annee <= 1999.5\ngini = 0.375\nsamples = 4\nvalue = [3, 1]"] ;
414 -> 415 ;
416 [label="gini = 0.0\nsamples = 1\nvalue = [0, 1]"] ;
415 -> 416 ;
417 [label="gini = 0.0\nsamples = 3\nvalue = [3, 0]"] ;
415 -> 417 ;
418 [label="gini = 0.0\nsamples = 2\nvalue = [0, 2]"] ;
414 -> 418 ;
419 [label="annee <= 2008.5\ngini = 0.064\nsamples = 90\nvalue = [87, 3]"] ;
407 -> 419 ;
420 [label="gini = 0.0\nsamples = 64\nvalue = [64, 0]"] ;
419 -> 420 ;
421 [label="Thriller <= 0.5\ngini = 0.204\nsamples = 26\nvalue = [23, 3]"] ;
419 -> 421 ;
422 [label="gini = 0.0\nsamples = 13\nvalue = [13, 0]"] ;
421 -> 422 ;
423 [label="Adventure <= 0.5\ngini = 0.355\nsamples = 13\nvalue = [10, 3]"] ;
421 -> 423 ;
424 [label="gini = 0.278\nsamples = 12\nvalue = [10, 2]"] ;
423 -> 424 ;
425 [label="gini = 0.0\nsamples = 1\nvalue = [0, 1]"] ;
423 -> 425 ;
426 [label="War <= 0.5\ngini = 0.275\nsamples = 85\nvalue = [71, 14]"] ;
406 -> 426 ;
427 [label="Action <= 0.5\ngini = 0.262\nsamples = 84\nvalue = [71, 13]"] ;
426 -> 427 ;
428 [label="Duree <= 97.0\ngini = 0.359\nsamples = 47\nvalue = [36, 11]"] ;
427 -> 428 ;
429 [label="annee <= 2003.5\ngini = 0.463\nsamples = 22\nvalue = [14, 8]"] ;
428 -> 429 ;
430 [label="gini = 0.198\nsamples = 9\nvalue = [8, 1]"] ;
429 -> 430 ;
431 [label="gini = 0.497\nsamples = 13\nvalue = [6, 7]"] ;
429 -> 431 ;
432 [label="annee <= 2012.5\ngini = 0.211\nsamples = 25\nvalue = [22, 3]"] ;
428 -> 432 ;
433 [label="gini = 0.159\nsamples = 23\nvalue = [21, 2]"] ;
432 -> 433 ;
434 [label="gini = 0.5\nsamples = 2\nvalue = [1, 1]"] ;
432 -> 434 ;
435 [label="budget <= 36500000.0\ngini = 0.102\nsamples = 37\nvalue = [35, 2]"] ;
427 -> 435 ;
436 [label="annee <= 2013.5\ngini = 0.5\nsamples = 2\nvalue = [1, 1]"] ;
435 -> 436 ;
437 [label="gini = 0.0\nsamples = 1\nvalue = [0, 1]"] ;
436 -> 437 ;
438 [label="gini = 0.0\nsamples = 1\nvalue = [1, 0]"] ;
436 -> 438 ;
439 [label="budget <= 92500000.0\ngini = 0.056\nsamples = 35\nvalue = [34, 1]"] ;
435 -> 439 ;
440 [label="gini = 0.0\nsamples = 31\nvalue = [31, 0]"] ;
439 -> 440 ;
441 [label="gini = 0.375\nsamples = 4\nvalue = [3, 1]"] ;
439 -> 441 ;
442 [label="gini = 0.0\nsamples = 1\nvalue = [0, 1]"] ;
426 -> 442 ;
443 [label="gini = 0.0\nsamples = 48\nvalue = [48, 0]"] ;
405 -> 443 ;
444 [label="gini = 0.0\nsamples = 1\nvalue = [0, 1]"] ;
404 -> 444 ;
445 [label="budget <= 6950000.0\ngini = 0.402\nsamples = 287\nvalue = [207, 80]"] ;
317 -> 445 ;
446 [label="gini = 0.0\nsamples = 2\nvalue = [0, 2]"] ;
445 -> 446 ;
447 [label="budget <= 205000000.0\ngini = 0.398\nsamples = 285\nvalue = [207, 78]"] ;
445 -> 447 ;
448 [label="Crime <= 0.5\ngini = 0.393\nsamples = 283\nvalue = [207, 76]"] ;
447 -> 448 ;
449 [label="History <= 0.5\ngini = 0.366\nsamples = 224\nvalue = [170, 54]"] ;
448 -> 449 ;
450 [label="Musical <= 0.5\ngini = 0.362\nsamples = 223\nvalue = [170, 53]"] ;
449 -> 450 ;
451 [label="Duree <= 103.5\ngini = 0.356\nsamples = 220\nvalue = [169, 51]"] ;
450 -> 451 ;
452 [label="Adventure <= 0.5\ngini = 0.21\nsamples = 42\nvalue = [37, 5]"] ;
451 -> 452 ;
453 [label="annee <= 2012.5\ngini = 0.121\nsamples = 31\nvalue = [29, 2]"] ;
452 -> 453 ;
454 [label="gini = 0.067\nsamples = 29\nvalue = [28, 1]"] ;
453 -> 454 ;
455 [label="gini = 0.5\nsamples = 2\nvalue = [1, 1]"] ;
453 -> 455 ;
456 [label="budget <= 25000000.0\ngini = 0.397\nsamples = 11\nvalue = [8, 3]"] ;
452 -> 456 ;
457 [label="gini = 0.0\nsamples = 1\nvalue = [0, 1]"] ;
456 -> 457 ;
458 [label="gini = 0.32\nsamples = 10\nvalue = [8, 2]"] ;
456 -> 458 ;
459 [label="Duree <= 104.5\ngini = 0.383\nsamples = 178\nvalue = [132, 46]"] ;
451 -> 459 ;
460 [label="budget <= 62500000.0\ngini = 0.475\nsamples = 31\nvalue = [19, 12]"] ;
459 -> 460 ;
461 [label="gini = 0.426\nsamples = 26\nvalue = [18, 8]"] ;
460 -> 461 ;
462 [label="gini = 0.32\nsamples = 5\nvalue = [1, 4]"] ;
460 -> 462 ;
463 [label="budget <= 21000000.0\ngini = 0.356\nsamples = 147\nvalue = [113, 34]"] ;
459 -> 463 ;
464 [label="gini = 0.198\nsamples = 36\nvalue = [32, 4]"] ;
463 -> 464 ;
465 [label="gini = 0.394\nsamples = 111\nvalue = [81, 30]"] ;
463 -> 465 ;
466 [label="Romance <= 0.5\ngini = 0.444\nsamples = 3\nvalue = [1, 2]"] ;
450 -> 466 ;
467 [label="gini = 0.0\nsamples = 2\nvalue = [0, 2]"] ;
466 -> 467 ;
468 [label="gini = 0.0\nsamples = 1\nvalue = [1, 0]"] ;
466 -> 468 ;
469 [label="gini = 0.0\nsamples = 1\nvalue = [0, 1]"] ;
449 -> 469 ;
470 [label="budget <= 19500000.0\ngini = 0.468\nsamples = 59\nvalue = [37, 22]"] ;
448 -> 470 ;
471 [label="annee <= 2006.0\ngini = 0.444\nsamples = 15\nvalue = [5, 10]"] ;
470 -> 471 ;
472 [label="Fantasy <= 0.5\ngini = 0.198\nsamples = 9\nvalue = [1, 8]"] ;
471 -> 472 ;
473 [label="gini = 0.0\nsamples = 8\nvalue = [0, 8]"] ;
472 -> 473 ;
474 [label="gini = 0.0\nsamples = 1\nvalue = [1, 0]"] ;
472 -> 474 ;
475 [label="Thriller <= 0.5\ngini = 0.444\nsamples = 6\nvalue = [4, 2]"] ;
471 -> 475 ;
476 [label="gini = 0.0\nsamples = 1\nvalue = [0, 1]"] ;
475 -> 476 ;
477 [label="budget <= 11250000.0\ngini = 0.32\nsamples = 5\nvalue = [4, 1]"] ;
475 -> 477 ;
478 [label="Action <= 0.5\ngini = 0.5\nsamples = 2\nvalue = [1, 1]"] ;
477 -> 478 ;
479 [label="gini = 0.0\nsamples = 1\nvalue = [1, 0]"] ;
478 -> 479 ;
480 [label="gini = 0.0\nsamples = 1\nvalue = [0, 1]"] ;
478 -> 480 ;
481 [label="gini = 0.0\nsamples = 3\nvalue = [3, 0]"] ;
477 -> 481 ;
482 [label="Thriller <= 0.5\ngini = 0.397\nsamples = 44\nvalue = [32, 12]"] ;
470 -> 482 ;
483 [label="budget <= 36000000.0\ngini = 0.497\nsamples = 13\nvalue = [6, 7]"] ;
482 -> 483 ;
484 [label="gini = 0.0\nsamples = 6\nvalue = [0, 6]"] ;
483 -> 484 ;
485 [label="Duree <= 108.0\ngini = 0.245\nsamples = 7\nvalue = [6, 1]"] ;
483 -> 485 ;
486 [label="gini = 0.0\nsamples = 5\nvalue = [5, 0]"] ;
485 -> 486 ;
487 [label="annee <= 2006.0\ngini = 0.5\nsamples = 2\nvalue = [1, 1]"] ;
485 -> 487 ;
488 [label="gini = 0.0\nsamples = 1\nvalue = [1, 0]"] ;
487 -> 488 ;
489 [label="gini = 0.0\nsamples = 1\nvalue = [0, 1]"] ;
487 -> 489 ;
490 [label="budget <= 30125000.0\ngini = 0.271\nsamples = 31\nvalue = [26, 5]"] ;
482 -> 490 ;
491 [label="gini = 0.0\nsamples = 15\nvalue = [15, 0]"] ;
490 -> 491 ;
492 [label="annee <= 2010.5\ngini = 0.43\nsamples = 16\nvalue = [11, 5]"] ;
490 -> 492 ;
493 [label="budget <= 32075000.0\ngini = 0.337\nsamples = 14\nvalue = [11, 3]"] ;
492 -> 493 ;
494 [label="gini = 0.0\nsamples = 1\nvalue = [0, 1]"] ;
493 -> 494 ;
495 [label="gini = 0.26\nsamples = 13\nvalue = [11, 2]"] ;
493 -> 495 ;
496 [label="gini = 0.0\nsamples = 2\nvalue = [0, 2]"] ;
492 -> 496 ;
497 [label="gini = 0.0\nsamples = 2\nvalue = [0, 2]"] ;
447 -> 497 ;
498 [label="budget <= 19000000.0\ngini = 0.465\nsamples = 152\nvalue = [56, 96]"] ;
128 -> 498 ;
499 [label="Thriller <= 0.5\ngini = 0.142\nsamples = 13\nvalue = [1, 12]"] ;
498 -> 499 ;
500 [label="gini = 0.0\nsamples = 10\nvalue = [0, 10]"] ;
499 -> 500 ;
501 [label="Fantasy <= 0.5\ngini = 0.444\nsamples = 3\nvalue = [1, 2]"] ;
499 -> 501 ;
502 [label="gini = 0.0\nsamples = 2\nvalue = [0, 2]"] ;
501 -> 502 ;
503 [label="gini = 0.0\nsamples = 1\nvalue = [1, 0]"] ;
501 -> 503 ;
504 [label="budget <= 82500000.0\ngini = 0.478\nsamples = 139\nvalue = [55, 84]"] ;
498 -> 504 ;
505 [label="Duree <= 95.5\ngini = 0.5\nsamples = 74\nvalue = [37, 37]"] ;
504 -> 505 ;
506 [label="annee <= 2000.5\ngini = 0.496\nsamples = 64\nvalue = [35, 29]"] ;
505 -> 506 ;
507 [label="Fantasy <= 0.5\ngini = 0.43\nsamples = 16\nvalue = [5, 11]"] ;
506 -> 507 ;
508 [label="gini = 0.0\nsamples = 5\nvalue = [0, 5]"] ;
507 -> 508 ;
509 [label="Duree <= 84.5\ngini = 0.496\nsamples = 11\nvalue = [5, 6]"] ;
507 -> 509 ;
510 [label="annee <= 1987.0\ngini = 0.32\nsamples = 5\nvalue = [1, 4]"] ;
509 -> 510 ;
511 [label="gini = 0.0\nsamples = 1\nvalue = [1, 0]"] ;
510 -> 511 ;
512 [label="gini = 0.0\nsamples = 4\nvalue = [0, 4]"] ;
510 -> 512 ;
513 [label="annee <= 1993.0\ngini = 0.444\nsamples = 6\nvalue = [4, 2]"] ;
509 -> 513 ;
514 [label="gini = 0.0\nsamples = 2\nvalue = [0, 2]"] ;
513 -> 514 ;
515 [label="gini = 0.0\nsamples = 4\nvalue = [4, 0]"] ;
513 -> 515 ;
516 [label="Duree <= 88.5\ngini = 0.469\nsamples = 48\nvalue = [30, 18]"] ;
506 -> 516 ;
517 [label="Fantasy <= 0.5\ngini = 0.5\nsamples = 26\nvalue = [13, 13]"] ;
516 -> 517 ;
518 [label="Duree <= 84.5\ngini = 0.444\nsamples = 18\nvalue = [6, 12]"] ;
517 -> 518 ;
519 [label="Duree <= 67.5\ngini = 0.408\nsamples = 7\nvalue = [5, 2]"] ;
518 -> 519 ;
520 [label="gini = 0.0\nsamples = 1\nvalue = [0, 1]"] ;
519 -> 520 ;
521 [label="budget <= 65000000.0\ngini = 0.278\nsamples = 6\nvalue = [5, 1]"] ;
519 -> 521 ;
522 [label="gini = 0.0\nsamples = 4\nvalue = [4, 0]"] ;
521 -> 522 ;
523 [label="Duree <= 81.5\ngini = 0.5\nsamples = 2\nvalue = [1, 1]"] ;
521 -> 523 ;
524 [label="gini = 0.0\nsamples = 1\nvalue = [1, 0]"] ;
523 -> 524 ;
525 [label="gini = 0.0\nsamples = 1\nvalue = [0, 1]"] ;
523 -> 525 ;
526 [label="annee <= 2013.0\ngini = 0.165\nsamples = 11\nvalue = [1, 10]"] ;
518 -> 526 ;
527 [label="gini = 0.0\nsamples = 9\nvalue = [0, 9]"] ;
526 -> 527 ;
528 [label="budget <= 33500000.0\ngini = 0.5\nsamples = 2\nvalue = [1, 1]"] ;
526 -> 528 ;
529 [label="gini = 0.0\nsamples = 1\nvalue = [0, 1]"] ;
528 -> 529 ;
530 [label="gini = 0.0\nsamples = 1\nvalue = [1, 0]"] ;
528 -> 530 ;
531 [label="Romance <= 0.5\ngini = 0.219\nsamples = 8\nvalue = [7, 1]"] ;
517 -> 531 ;
532 [label="gini = 0.0\nsamples = 7\nvalue = [7, 0]"] ;
531 -> 532 ;
533 [label="gini = 0.0\nsamples = 1\nvalue = [0, 1]"] ;
531 -> 533 ;
534 [label="Fantasy <= 0.5\ngini = 0.351\nsamples = 22\nvalue = [17, 5]"] ;
516 -> 534 ;
535 [label="gini = 0.0\nsamples = 11\nvalue = [11, 0]"] ;
534 -> 535 ;
536 [label="budget <= 61500000.0\ngini = 0.496\nsamples = 11\nvalue = [6, 5]"] ;
534 -> 536 ;
537 [label="Adventure <= 0.5\ngini = 0.32\nsamples = 5\nvalue = [1, 4]"] ;
536 -> 537 ;
538 [label="gini = 0.0\nsamples = 1\nvalue = [1, 0]"] ;
537 -> 538 ;
539 [label="gini = 0.0\nsamples = 4\nvalue = [0, 4]"] ;
537 -> 539 ;
540 [label="Mystery <= 0.5\ngini = 0.278\nsamples = 6\nvalue = [5, 1]"] ;
536 -> 540 ;
541 [label="gini = 0.0\nsamples = 5\nvalue = [5, 0]"] ;
540 -> 541 ;
542 [label="gini = 0.0\nsamples = 1\nvalue = [0, 1]"] ;
540 -> 542 ;
543 [label="Mystery <= 0.5\ngini = 0.32\nsamples = 10\nvalue = [2, 8]"] ;
505 -> 543 ;
544 [label="Duree <= 103.5\ngini = 0.198\nsamples = 9\nvalue = [1, 8]"] ;
543 -> 544 ;
545 [label="gini = 0.0\nsamples = 7\nvalue = [0, 7]"] ;
544 -> 545 ;
546 [label="Adventure <= 0.5\ngini = 0.5\nsamples = 2\nvalue = [1, 1]"] ;
544 -> 546 ;
547 [label="gini = 0.0\nsamples = 1\nvalue = [0, 1]"] ;
546 -> 547 ;
548 [label="gini = 0.0\nsamples = 1\nvalue = [1, 0]"] ;
546 -> 548 ;
549 [label="gini = 0.0\nsamples = 1\nvalue = [1, 0]"] ;
543 -> 549 ;
550 [label="Duree <= 84.5\ngini = 0.4\nsamples = 65\nvalue = [18, 47]"] ;
504 -> 550 ;
551 [label="Fantasy <= 0.5\ngini = 0.375\nsamples = 8\nvalue = [6, 2]"] ;
550 -> 551 ;
552 [label="gini = 0.0\nsamples = 5\nvalue = [5, 0]"] ;
551 -> 552 ;
553 [label="budget <= 110000000.0\ngini = 0.444\nsamples = 3\nvalue = [1, 2]"] ;
551 -> 553 ;
554 [label="gini = 0.0\nsamples = 2\nvalue = [0, 2]"] ;
553 -> 554 ;
555 [label="gini = 0.0\nsamples = 1\nvalue = [1, 0]"] ;
553 -> 555 ;
556 [label="Duree <= 104.5\ngini = 0.332\nsamples = 57\nvalue = [12, 45]"] ;
550 -> 556 ;
557 [label="annee <= 2006.5\ngini = 0.269\nsamples = 50\nvalue = [8, 42]"] ;
556 -> 557 ;
558 [label="gini = 0.0\nsamples = 11\nvalue = [0, 11]"] ;
557 -> 558 ;
559 [label="annee <= 2007.5\ngini = 0.326\nsamples = 39\nvalue = [8, 31]"] ;
557 -> 559 ;
560 [label="Adventure <= 0.5\ngini = 0.444\nsamples = 3\nvalue = [2, 1]"] ;
559 -> 560 ;
561 [label="gini = 0.0\nsamples = 1\nvalue = [0, 1]"] ;
560 -> 561 ;
562 [label="gini = 0.0\nsamples = 2\nvalue = [2, 0]"] ;
560 -> 562 ;
563 [label="Sport <= 0.5\ngini = 0.278\nsamples = 36\nvalue = [6, 30]"] ;
559 -> 563 ;
564 [label="Duree <= 99.0\ngini = 0.245\nsamples = 35\nvalue = [5, 30]"] ;
563 -> 564 ;
565 [label="budget <= 147500000.0\ngini = 0.153\nsamples = 24\nvalue = [2, 22]"] ;
564 -> 565 ;
566 [label="gini = 0.0\nsamples = 15\nvalue = [0, 15]"] ;
565 -> 566 ;
567 [label="Duree <= 88.5\ngini = 0.346\nsamples = 9\nvalue = [2, 7]"] ;
565 -> 567 ;
568 [label="gini = 0.0\nsamples = 1\nvalue = [1, 0]"] ;
567 -> 568 ;
569 [label="Duree <= 93.5\ngini = 0.219\nsamples = 8\nvalue = [1, 7]"] ;
567 -> 569 ;
570 [label="gini = 0.444\nsamples = 3\nvalue = [1, 2]"] ;
569 -> 570 ;
571 [label="gini = 0.0\nsamples = 5\nvalue = [0, 5]"] ;
569 -> 571 ;
572 [label="budget <= 137500000.0\ngini = 0.397\nsamples = 11\nvalue = [3, 8]"] ;
564 -> 572 ;
573 [label="Comedy <= 0.5\ngini = 0.375\nsamples = 4\nvalue = [3, 1]"] ;
572 -> 573 ;
574 [label="gini = 0.0\nsamples = 1\nvalue = [0, 1]"] ;
573 -> 574 ;
575 [label="gini = 0.0\nsamples = 3\nvalue = [3, 0]"] ;
573 -> 575 ;
576 [label="gini = 0.0\nsamples = 7\nvalue = [0, 7]"] ;
572 -> 576 ;
577 [label="gini = 0.0\nsamples = 1\nvalue = [1, 0]"] ;
563 -> 577 ;
578 [label="Duree <= 106.5\ngini = 0.49\nsamples = 7\nvalue = [4, 3]"] ;
556 -> 578 ;
579 [label="gini = 0.0\nsamples = 3\nvalue = [3, 0]"] ;
578 -> 579 ;
580 [label="annee <= 2006.5\ngini = 0.375\nsamples = 4\nvalue = [1, 3]"] ;
578 -> 580 ;
581 [label="gini = 0.0\nsamples = 1\nvalue = [1, 0]"] ;
580 -> 581 ;
582 [label="gini = 0.0\nsamples = 3\nvalue = [0, 3]"] ;
580 -> 582 ;
583 [label="Duree <= 134.5\ngini = 0.49\nsamples = 512\nvalue = [219, 293]"] ;
127 -> 583 ;
584 [label="annee <= 1992.5\ngini = 0.5\nsamples = 398\nvalue = [193, 205]"] ;
583 -> 584 ;
585 [label="Family <= 0.5\ngini = 0.355\nsamples = 39\nvalue = [9, 30]"] ;
584 -> 585 ;
586 [label="Duree <= 115.5\ngini = 0.307\nsamples = 37\nvalue = [7, 30]"] ;
585 -> 586 ;
587 [label="annee <= 1987.5\ngini = 0.5\nsamples = 8\nvalue = [4, 4]"] ;
586 -> 587 ;
588 [label="gini = 0.0\nsamples = 2\nvalue = [0, 2]"] ;
587 -> 588 ;
589 [label="budget <= 26500000.0\ngini = 0.444\nsamples = 6\nvalue = [4, 2]"] ;
587 -> 589 ;
590 [label="gini = 0.0\nsamples = 3\nvalue = [3, 0]"] ;
589 -> 590 ;
591 [label="Comedy <= 0.5\ngini = 0.444\nsamples = 3\nvalue = [1, 2]"] ;
589 -> 591 ;
592 [label="gini = 0.0\nsamples = 1\nvalue = [0, 1]"] ;
591 -> 592 ;
593 [label="annee <= 1990.5\ngini = 0.5\nsamples = 2\nvalue = [1, 1]"] ;
591 -> 593 ;
594 [label="gini = 0.0\nsamples = 1\nvalue = [1, 0]"] ;
593 -> 594 ;
595 [label="gini = 0.0\nsamples = 1\nvalue = [0, 1]"] ;
593 -> 595 ;
596 [label="Horror <= 0.5\ngini = 0.185\nsamples = 29\nvalue = [3, 26]"] ;
586 -> 596 ;
597 [label="annee <= 1985.5\ngini = 0.071\nsamples = 27\nvalue = [1, 26]"] ;
596 -> 597 ;
598 [label="Comedy <= 0.5\ngini = 0.5\nsamples = 2\nvalue = [1, 1]"] ;
597 -> 598 ;
599 [label="gini = 0.0\nsamples = 1\nvalue = [1, 0]"] ;
598 -> 599 ;
600 [label="gini = 0.0\nsamples = 1\nvalue = [0, 1]"] ;
598 -> 600 ;
601 [label="gini = 0.0\nsamples = 25\nvalue = [0, 25]"] ;
597 -> 601 ;
602 [label="gini = 0.0\nsamples = 2\nvalue = [2, 0]"] ;
596 -> 602 ;
603 [label="gini = 0.0\nsamples = 2\nvalue = [2, 0]"] ;
585 -> 603 ;
604 [label="budget <= 21170000.0\ngini = 0.5\nsamples = 359\nvalue = [184, 175]"] ;
584 -> 604 ;
605 [label="Horror <= 0.5\ngini = 0.448\nsamples = 56\nvalue = [19, 37]"] ;
604 -> 605 ;
606 [label="Action <= 0.5\ngini = 0.381\nsamples = 43\nvalue = [11, 32]"] ;
605 -> 606 ;
607 [label="budget <= 19105000.0\ngini = 0.313\nsamples = 36\nvalue = [7, 29]"] ;
606 -> 607 ;
608 [label="Comedy <= 0.5\ngini = 0.257\nsamples = 33\nvalue = [5, 28]"] ;
607 -> 608 ;
609 [label="Duree <= 126.0\ngini = 0.391\nsamples = 15\nvalue = [4, 11]"] ;
608 -> 609 ;
610 [label="Music <= 0.5\ngini = 0.337\nsamples = 14\nvalue = [3, 11]"] ;
609 -> 610 ;
611 [label="Mystery <= 0.5\ngini = 0.26\nsamples = 13\nvalue = [2, 11]"] ;
610 -> 611 ;
612 [label="gini = 0.0\nsamples = 8\nvalue = [0, 8]"] ;
611 -> 612 ;
613 [label="annee <= 2001.5\ngini = 0.48\nsamples = 5\nvalue = [2, 3]"] ;
611 -> 613 ;
614 [label="gini = 0.0\nsamples = 2\nvalue = [0, 2]"] ;
613 -> 614 ;
615 [label="Romance <= 0.5\ngini = 0.444\nsamples = 3\nvalue = [2, 1]"] ;
613 -> 615 ;
616 [label="gini = 0.0\nsamples = 2\nvalue = [2, 0]"] ;
615 -> 616 ;
617 [label="gini = 0.0\nsamples = 1\nvalue = [0, 1]"] ;
615 -> 617 ;
618 [label="gini = 0.0\nsamples = 1\nvalue = [1, 0]"] ;
610 -> 618 ;
619 [label="gini = 0.0\nsamples = 1\nvalue = [1, 0]"] ;
609 -> 619 ;
620 [label="Fantasy <= 0.5\ngini = 0.105\nsamples = 18\nvalue = [1, 17]"] ;
608 -> 620 ;
621 [label="gini = 0.0\nsamples = 14\nvalue = [0, 14]"] ;
620 -> 621 ;
622 [label="Romance <= 0.5\ngini = 0.375\nsamples = 4\nvalue = [1, 3]"] ;
620 -> 622 ;
623 [label="gini = 0.0\nsamples = 3\nvalue = [0, 3]"] ;
622 -> 623 ;
624 [label="gini = 0.0\nsamples = 1\nvalue = [1, 0]"] ;
622 -> 624 ;
625 [label="annee <= 2009.0\ngini = 0.444\nsamples = 3\nvalue = [2, 1]"] ;
607 -> 625 ;
626 [label="gini = 0.0\nsamples = 1\nvalue = [0, 1]"] ;
625 -> 626 ;
627 [label="gini = 0.0\nsamples = 2\nvalue = [2, 0]"] ;
625 -> 627 ;
628 [label="budget <= 11120000.0\ngini = 0.49\nsamples = 7\nvalue = [4, 3]"] ;
606 -> 628 ;
629 [label="gini = 0.0\nsamples = 3\nvalue = [3, 0]"] ;
628 -> 629 ;
630 [label="annee <= 2000.0\ngini = 0.375\nsamples = 4\nvalue = [1, 3]"] ;
628 -> 630 ;
631 [label="gini = 0.0\nsamples = 1\nvalue = [1, 0]"] ;
630 -> 631 ;
632 [label="gini = 0.0\nsamples = 3\nvalue = [0, 3]"] ;
630 -> 632 ;
633 [label="budget <= 16500000.0\ngini = 0.473\nsamples = 13\nvalue = [8, 5]"] ;
605 -> 633 ;
634 [label="Duree <= 116.5\ngini = 0.397\nsamples = 11\nvalue = [8, 3]"] ;
633 -> 634 ;
635 [label="Thriller <= 0.5\ngini = 0.5\nsamples = 6\nvalue = [3, 3]"] ;
634 -> 635 ;
636 [label="gini = 0.0\nsamples = 2\nvalue = [0, 2]"] ;
635 -> 636 ;
637 [label="budget <= 13250000.0\ngini = 0.375\nsamples = 4\nvalue = [3, 1]"] ;
635 -> 637 ;
638 [label="gini = 0.0\nsamples = 3\nvalue = [3, 0]"] ;
637 -> 638 ;
639 [label="gini = 0.0\nsamples = 1\nvalue = [0, 1]"] ;
637 -> 639 ;
640 [label="gini = 0.0\nsamples = 5\nvalue = [5, 0]"] ;
634 -> 640 ;
641 [label="gini = 0.0\nsamples = 2\nvalue = [0, 2]"] ;
633 -> 641 ;
642 [label="annee <= 2005.5\ngini = 0.496\nsamples = 303\nvalue = [165, 138]"] ;
604 -> 642 ;
643 [label="Comedy <= 0.5\ngini = 0.465\nsamples = 147\nvalue = [93, 54]"] ;
642 -> 643 ;
644 [label="budget <= 49000000.0\ngini = 0.489\nsamples = 101\nvalue = [58, 43]"] ;
643 -> 644 ;
645 [label="annee <= 2000.5\ngini = 0.488\nsamples = 26\nvalue = [11, 15]"] ;
644 -> 645 ;
646 [label="annee <= 1999.5\ngini = 0.494\nsamples = 18\nvalue = [10, 8]"] ;
645 -> 646 ;
647 [label="Thriller <= 0.5\ngini = 0.498\nsamples = 15\nvalue = [7, 8]"] ;
646 -> 647 ;
648 [label="annee <= 1998.5\ngini = 0.32\nsamples = 5\nvalue = [4, 1]"] ;
647 -> 648 ;
649 [label="gini = 0.0\nsamples = 4\nvalue = [4, 0]"] ;
648 -> 649 ;
650 [label="gini = 0.0\nsamples = 1\nvalue = [0, 1]"] ;
648 -> 650 ;
651 [label="Duree <= 115.5\ngini = 0.42\nsamples = 10\nvalue = [3, 7]"] ;
647 -> 651 ;
652 [label="annee <= 1995.5\ngini = 0.48\nsamples = 5\nvalue = [3, 2]"] ;
651 -> 652 ;
653 [label="gini = 0.0\nsamples = 2\nvalue = [2, 0]"] ;
652 -> 653 ;
654 [label="budget <= 35000000.0\ngini = 0.444\nsamples = 3\nvalue = [1, 2]"] ;
652 -> 654 ;
655 [label="gini = 0.0\nsamples = 1\nvalue = [1, 0]"] ;
654 -> 655 ;
656 [label="gini = 0.0\nsamples = 2\nvalue = [0, 2]"] ;
654 -> 656 ;
657 [label="gini = 0.0\nsamples = 5\nvalue = [0, 5]"] ;
651 -> 657 ;
658 [label="gini = 0.0\nsamples = 3\nvalue = [3, 0]"] ;
646 -> 658 ;
659 [label="annee <= 2004.0\ngini = 0.219\nsamples = 8\nvalue = [1, 7]"] ;
645 -> 659 ;
660 [label="gini = 0.0\nsamples = 6\nvalue = [0, 6]"] ;
659 -> 660 ;
661 [label="Horror <= 0.5\ngini = 0.5\nsamples = 2\nvalue = [1, 1]"] ;
659 -> 661 ;
662 [label="gini = 0.0\nsamples = 1\nvalue = [0, 1]"] ;
661 -> 662 ;
663 [label="gini = 0.0\nsamples = 1\nvalue = [1, 0]"] ;
661 -> 663 ;
664 [label="War <= 0.5\ngini = 0.468\nsamples = 75\nvalue = [47, 28]"] ;
644 -> 664 ;
665 [label="Horror <= 0.5\ngini = 0.459\nsamples = 73\nvalue = [47, 26]"] ;
664 -> 665 ;
666 [label="annee <= 2004.5\ngini = 0.472\nsamples = 68\nvalue = [42, 26]"] ;
665 -> 666 ;
667 [label="annee <= 2000.5\ngini = 0.485\nsamples = 63\nvalue = [37, 26]"] ;
666 -> 667 ;
668 [label="annee <= 1994.5\ngini = 0.431\nsamples = 35\nvalue = [24, 11]"] ;
667 -> 668 ;
669 [label="Sci-Fi <= 0.5\ngini = 0.375\nsamples = 4\nvalue = [1, 3]"] ;
668 -> 669 ;
670 [label="gini = 0.0\nsamples = 1\nvalue = [1, 0]"] ;
669 -> 670 ;
671 [label="gini = 0.0\nsamples = 3\nvalue = [0, 3]"] ;
669 -> 671 ;
672 [label="Duree <= 120.0\ngini = 0.383\nsamples = 31\nvalue = [23, 8]"] ;
668 -> 672 ;
673 [label="gini = 0.0\nsamples = 7\nvalue = [7, 0]"] ;
672 -> 673 ;
674 [label="gini = 0.444\nsamples = 24\nvalue = [16, 8]"] ;
672 -> 674 ;
675 [label="Duree <= 115.5\ngini = 0.497\nsamples = 28\nvalue = [13, 15]"] ;
667 -> 675 ;
676 [label="gini = 0.0\nsamples = 4\nvalue = [0, 4]"] ;
675 -> 676 ;
677 [label="Duree <= 133.5\ngini = 0.497\nsamples = 24\nvalue = [13, 11]"] ;
675 -> 677 ;
678 [label="gini = 0.483\nsamples = 22\nvalue = [13, 9]"] ;
677 -> 678 ;
679 [label="gini = 0.0\nsamples = 2\nvalue = [0, 2]"] ;
677 -> 679 ;
680 [label="gini = 0.0\nsamples = 5\nvalue = [5, 0]"] ;
666 -> 680 ;
681 [label="gini = 0.0\nsamples = 5\nvalue = [5, 0]"] ;
665 -> 681 ;
682 [label="gini = 0.0\nsamples = 2\nvalue = [0, 2]"] ;
664 -> 682 ;
683 [label="annee <= 1998.5\ngini = 0.364\nsamples = 46\nvalue = [35, 11]"] ;
643 -> 683 ;
684 [label="annee <= 1993.5\ngini = 0.5\nsamples = 12\nvalue = [6, 6]"] ;
683 -> 684 ;
685 [label="gini = 0.0\nsamples = 2\nvalue = [2, 0]"] ;
684 -> 685 ;
686 [label="budget <= 35500000.0\ngini = 0.48\nsamples = 10\nvalue = [4, 6]"] ;
684 -> 686 ;
687 [label="annee <= 1997.0\ngini = 0.32\nsamples = 5\nvalue = [1, 4]"] ;
686 -> 687 ;
688 [label="gini = 0.0\nsamples = 4\nvalue = [0, 4]"] ;
687 -> 688 ;
689 [label="gini = 0.0\nsamples = 1\nvalue = [1, 0]"] ;
687 -> 689 ;
690 [label="budget <= 46500000.0\ngini = 0.48\nsamples = 5\nvalue = [3, 2]"] ;
686 -> 690 ;
691 [label="gini = 0.0\nsamples = 2\nvalue = [2, 0]"] ;
690 -> 691 ;
692 [label="budget <= 86500000.0\ngini = 0.444\nsamples = 3\nvalue = [1, 2]"] ;
690 -> 692 ;
693 [label="gini = 0.0\nsamples = 2\nvalue = [0, 2]"] ;
692 -> 693 ;
694 [label="gini = 0.0\nsamples = 1\nvalue = [1, 0]"] ;
692 -> 694 ;
695 [label="Duree <= 127.5\ngini = 0.251\nsamples = 34\nvalue = [29, 5]"] ;
683 -> 695 ;
696 [label="Musical <= 0.5\ngini = 0.175\nsamples = 31\nvalue = [28, 3]"] ;
695 -> 696 ;
697 [label="budget <= 140000000.0\ngini = 0.124\nsamples = 30\nvalue = [28, 2]"] ;
696 -> 697 ;
698 [label="annee <= 2004.5\ngini = 0.067\nsamples = 29\nvalue = [28, 1]"] ;
697 -> 698 ;
699 [label="gini = 0.0\nsamples = 21\nvalue = [21, 0]"] ;
698 -> 699 ;
700 [label="Romance <= 0.5\ngini = 0.219\nsamples = 8\nvalue = [7, 1]"] ;
698 -> 700 ;
701 [label="gini = 0.0\nsamples = 6\nvalue = [6, 0]"] ;
700 -> 701 ;
702 [label="Action <= 0.5\ngini = 0.5\nsamples = 2\nvalue = [1, 1]"] ;
700 -> 702 ;
703 [label="gini = 0.0\nsamples = 1\nvalue = [0, 1]"] ;
702 -> 703 ;
704 [label="gini = 0.0\nsamples = 1\nvalue = [1, 0]"] ;
702 -> 704 ;
705 [label="gini = 0.0\nsamples = 1\nvalue = [0, 1]"] ;
697 -> 705 ;
706 [label="gini = 0.0\nsamples = 1\nvalue = [0, 1]"] ;
696 -> 706 ;
707 [label="Duree <= 133.5\ngini = 0.444\nsamples = 3\nvalue = [1, 2]"] ;
695 -> 707 ;
708 [label="gini = 0.0\nsamples = 2\nvalue = [0, 2]"] ;
707 -> 708 ;
709 [label="gini = 0.0\nsamples = 1\nvalue = [1, 0]"] ;
707 -> 709 ;
710 [label="Action <= 0.5\ngini = 0.497\nsamples = 156\nvalue = [72, 84]"] ;
642 -> 710 ;
711 [label="annee <= 2007.5\ngini = 0.465\nsamples = 57\nvalue = [36, 21]"] ;
710 -> 711 ;
712 [label="Duree <= 116.5\ngini = 0.444\nsamples = 12\nvalue = [4, 8]"] ;
711 -> 712 ;
713 [label="Adventure <= 0.5\ngini = 0.5\nsamples = 8\nvalue = [4, 4]"] ;
712 -> 713 ;
714 [label="Duree <= 114.5\ngini = 0.444\nsamples = 6\nvalue = [2, 4]"] ;
713 -> 714 ;
715 [label="gini = 0.0\nsamples = 4\nvalue = [0, 4]"] ;
714 -> 715 ;
716 [label="gini = 0.0\nsamples = 2\nvalue = [2, 0]"] ;
714 -> 716 ;
717 [label="gini = 0.0\nsamples = 2\nvalue = [2, 0]"] ;
713 -> 717 ;
718 [label="gini = 0.0\nsamples = 4\nvalue = [0, 4]"] ;
712 -> 718 ;
719 [label="Duree <= 119.5\ngini = 0.411\nsamples = 45\nvalue = [32, 13]"] ;
711 -> 719 ;
720 [label="Music <= 0.5\ngini = 0.285\nsamples = 29\nvalue = [24, 5]"] ;
719 -> 720 ;
721 [label="Sci-Fi <= 0.5\ngini = 0.198\nsamples = 27\nvalue = [24, 3]"] ;
720 -> 721 ;
722 [label="annee <= 2011.5\ngini = 0.147\nsamples = 25\nvalue = [23, 2]"] ;
721 -> 722 ;
723 [label="gini = 0.0\nsamples = 13\nvalue = [13, 0]"] ;
722 -> 723 ;
724 [label="annee <= 2012.5\ngini = 0.278\nsamples = 12\nvalue = [10, 2]"] ;
722 -> 724 ;
725 [label="budget <= 60000000.0\ngini = 0.5\nsamples = 4\nvalue = [2, 2]"] ;
724 -> 725 ;
726 [label="gini = 0.0\nsamples = 2\nvalue = [0, 2]"] ;
725 -> 726 ;
727 [label="gini = 0.0\nsamples = 2\nvalue = [2, 0]"] ;
725 -> 727 ;
728 [label="gini = 0.0\nsamples = 8\nvalue = [8, 0]"] ;
724 -> 728 ;
729 [label="Duree <= 115.5\ngini = 0.5\nsamples = 2\nvalue = [1, 1]"] ;
721 -> 729 ;
730 [label="gini = 0.0\nsamples = 1\nvalue = [0, 1]"] ;
729 -> 730 ;
731 [label="gini = 0.0\nsamples = 1\nvalue = [1, 0]"] ;
729 -> 731 ;
732 [label="gini = 0.0\nsamples = 2\nvalue = [0, 2]"] ;
720 -> 732 ;
733 [label="Duree <= 124.5\ngini = 0.5\nsamples = 16\nvalue = [8, 8]"] ;
719 -> 733 ;
734 [label="Crime <= 0.5\ngini = 0.278\nsamples = 6\nvalue = [1, 5]"] ;
733 -> 734 ;
735 [label="gini = 0.0\nsamples = 5\nvalue = [0, 5]"] ;
734 -> 735 ;
736 [label="gini = 0.0\nsamples = 1\nvalue = [1, 0]"] ;
734 -> 736 ;
737 [label="annee <= 2014.5\ngini = 0.42\nsamples = 10\nvalue = [7, 3]"] ;
733 -> 737 ;
738 [label="Mystery <= 0.5\ngini = 0.346\nsamples = 9\nvalue = [7, 2]"] ;
737 -> 738 ;
739 [label="budget <= 33750000.0\ngini = 0.219\nsamples = 8\nvalue = [7, 1]"] ;
738 -> 739 ;
740 [label="Duree <= 128.0\ngini = 0.5\nsamples = 2\nvalue = [1, 1]"] ;
739 -> 740 ;
741 [label="gini = 0.0\nsamples = 1\nvalue = [0, 1]"] ;
740 -> 741 ;
742 [label="gini = 0.0\nsamples = 1\nvalue = [1, 0]"] ;
740 -> 742 ;
743 [label="gini = 0.0\nsamples = 6\nvalue = [6, 0]"] ;
739 -> 743 ;
744 [label="gini = 0.0\nsamples = 1\nvalue = [0, 1]"] ;
738 -> 744 ;
745 [label="gini = 0.0\nsamples = 1\nvalue = [0, 1]"] ;
737 -> 745 ;
746 [label="Romance <= 0.5\ngini = 0.463\nsamples = 99\nvalue = [36, 63]"] ;
710 -> 746 ;
747 [label="Thriller <= 0.5\ngini = 0.447\nsamples = 92\nvalue = [31, 61]"] ;
746 -> 747 ;
748 [label="annee <= 2008.5\ngini = 0.363\nsamples = 42\nvalue = [10, 32]"] ;
747 -> 748 ;
749 [label="budget <= 145000000.0\ngini = 0.496\nsamples = 11\nvalue = [5, 6]"] ;
748 -> 749 ;
750 [label="Duree <= 114.0\ngini = 0.444\nsamples = 9\nvalue = [3, 6]"] ;
749 -> 750 ;
751 [label="gini = 0.0\nsamples = 1\nvalue = [1, 0]"] ;
750 -> 751 ;
752 [label="Sport <= 0.5\ngini = 0.375\nsamples = 8\nvalue = [2, 6]"] ;
750 -> 752 ;
753 [label="Duree <= 116.0\ngini = 0.245\nsamples = 7\nvalue = [1, 6]"] ;
752 -> 753 ;
754 [label="gini = 0.5\nsamples = 2\nvalue = [1, 1]"] ;
753 -> 754 ;
755 [label="gini = 0.0\nsamples = 5\nvalue = [0, 5]"] ;
753 -> 755 ;
756 [label="gini = 0.0\nsamples = 1\nvalue = [1, 0]"] ;
752 -> 756 ;
757 [label="gini = 0.0\nsamples = 2\nvalue = [2, 0]"] ;
749 -> 757 ;
758 [label="annee <= 2014.5\ngini = 0.271\nsamples = 31\nvalue = [5, 26]"] ;
748 -> 758 ;
759 [label="budget <= 80000000.0\ngini = 0.204\nsamples = 26\nvalue = [3, 23]"] ;
758 -> 759 ;
760 [label="budget <= 60000000.0\ngini = 0.444\nsamples = 9\nvalue = [3, 6]"] ;
759 -> 760 ;
761 [label="annee <= 2012.0\ngini = 0.245\nsamples = 7\nvalue = [1, 6]"] ;
760 -> 761 ;
762 [label="gini = 0.444\nsamples = 3\nvalue = [1, 2]"] ;
761 -> 762 ;
763 [label="gini = 0.0\nsamples = 4\nvalue = [0, 4]"] ;
761 -> 763 ;
764 [label="gini = 0.0\nsamples = 2\nvalue = [2, 0]"] ;
760 -> 764 ;
765 [label="gini = 0.0\nsamples = 17\nvalue = [0, 17]"] ;
759 -> 765 ;
766 [label="budget <= 153000000.0\ngini = 0.48\nsamples = 5\nvalue = [2, 3]"] ;
758 -> 766 ;
767 [label="gini = 0.0\nsamples = 3\nvalue = [0, 3]"] ;
766 -> 767 ;
768 [label="gini = 0.0\nsamples = 2\nvalue = [2, 0]"] ;
766 -> 768 ;
769 [label="annee <= 2014.5\ngini = 0.487\nsamples = 50\nvalue = [21, 29]"] ;
747 -> 769 ;
770 [label="Sci-Fi <= 0.5\ngini = 0.499\nsamples = 44\nvalue = [21, 23]"] ;
769 -> 770 ;
771 [label="Fantasy <= 0.5\ngini = 0.452\nsamples = 29\nvalue = [10, 19]"] ;
770 -> 771 ;
772 [label="budget <= 49000000.0\ngini = 0.417\nsamples = 27\nvalue = [8, 19]"] ;
771 -> 772 ;
773 [label="budget <= 32500000.0\ngini = 0.48\nsamples = 5\nvalue = [3, 2]"] ;
772 -> 773 ;
774 [label="gini = 0.0\nsamples = 2\nvalue = [0, 2]"] ;
773 -> 774 ;
775 [label="gini = 0.0\nsamples = 3\nvalue = [3, 0]"] ;
773 -> 775 ;
776 [label="Duree <= 133.5\ngini = 0.351\nsamples = 22\nvalue = [5, 17]"] ;
772 -> 776 ;
777 [label="gini = 0.308\nsamples = 21\nvalue = [4, 17]"] ;
776 -> 777 ;
778 [label="gini = 0.0\nsamples = 1\nvalue = [1, 0]"] ;
776 -> 778 ;
779 [label="gini = 0.0\nsamples = 2\nvalue = [2, 0]"] ;
771 -> 779 ;
780 [label="budget <= 36000000.0\ngini = 0.391\nsamples = 15\nvalue = [11, 4]"] ;
770 -> 780 ;
781 [label="annee <= 2011.0\ngini = 0.444\nsamples = 3\nvalue = [1, 2]"] ;
780 -> 781 ;
782 [label="gini = 0.0\nsamples = 1\nvalue = [1, 0]"] ;
781 -> 782 ;
783 [label="gini = 0.0\nsamples = 2\nvalue = [0, 2]"] ;
781 -> 783 ;
784 [label="annee <= 2007.5\ngini = 0.278\nsamples = 12\nvalue = [10, 2]"] ;
780 -> 784 ;
785 [label="gini = 0.0\nsamples = 1\nvalue = [0, 1]"] ;
784 -> 785 ;
786 [label="Horror <= 0.5\ngini = 0.165\nsamples = 11\nvalue = [10, 1]"] ;
784 -> 786 ;
787 [label="gini = 0.0\nsamples = 10\nvalue = [10, 0]"] ;
786 -> 787 ;
788 [label="gini = 0.0\nsamples = 1\nvalue = [0, 1]"] ;
786 -> 788 ;
789 [label="gini = 0.0\nsamples = 6\nvalue = [0, 6]"] ;
769 -> 789 ;
790 [label="Fantasy <= 0.5\ngini = 0.408\nsamples = 7\nvalue = [5, 2]"] ;
746 -> 790 ;
791 [label="gini = 0.0\nsamples = 4\nvalue = [4, 0]"] ;
790 -> 791 ;
792 [label="Duree <= 123.0\ngini = 0.444\nsamples = 3\nvalue = [1, 2]"] ;
790 -> 792 ;
793 [label="gini = 0.0\nsamples = 2\nvalue = [0, 2]"] ;
792 -> 793 ;
794 [label="gini = 0.0\nsamples = 1\nvalue = [1, 0]"] ;
792 -> 794 ;
795 [label="Sci-Fi <= 0.5\ngini = 0.352\nsamples = 114\nvalue = [26, 88]"] ;
583 -> 795 ;
796 [label="Sport <= 0.5\ngini = 0.248\nsamples = 69\nvalue = [10, 59]"] ;
795 -> 796 ;
797 [label="Duree <= 156.5\ngini = 0.23\nsamples = 68\nvalue = [9, 59]"] ;
796 -> 797 ;
798 [label="Duree <= 145.0\ngini = 0.305\nsamples = 48\nvalue = [9, 39]"] ;
797 -> 798 ;
799 [label="annee <= 2012.5\ngini = 0.128\nsamples = 29\nvalue = [2, 27]"] ;
798 -> 799 ;
800 [label="gini = 0.0\nsamples = 26\nvalue = [0, 26]"] ;
799 -> 800 ;
801 [label="Action <= 0.5\ngini = 0.444\nsamples = 3\nvalue = [2, 1]"] ;
799 -> 801 ;
802 [label="gini = 0.0\nsamples = 2\nvalue = [2, 0]"] ;
801 -> 802 ;
803 [label="gini = 0.0\nsamples = 1\nvalue = [0, 1]"] ;
801 -> 803 ;
804 [label="Western <= 0.5\ngini = 0.465\nsamples = 19\nvalue = [7, 12]"] ;
798 -> 804 ;
805 [label="annee <= 2007.5\ngini = 0.415\nsamples = 17\nvalue = [5, 12]"] ;
804 -> 805 ;
806 [label="annee <= 2002.5\ngini = 0.5\nsamples = 10\nvalue = [5, 5]"] ;
805 -> 806 ;
807 [label="gini = 0.0\nsamples = 3\nvalue = [0, 3]"] ;
806 -> 807 ;
808 [label="budget <= 22800000.0\ngini = 0.408\nsamples = 7\nvalue = [5, 2]"] ;
806 -> 808 ;
809 [label="gini = 0.0\nsamples = 2\nvalue = [2, 0]"] ;
808 -> 809 ;
810 [label="Fantasy <= 0.5\ngini = 0.48\nsamples = 5\nvalue = [3, 2]"] ;
808 -> 810 ;
811 [label="budget <= 82500000.0\ngini = 0.375\nsamples = 4\nvalue = [3, 1]"] ;
810 -> 811 ;
812 [label="gini = 0.0\nsamples = 1\nvalue = [0, 1]"] ;
811 -> 812 ;
813 [label="gini = 0.0\nsamples = 3\nvalue = [3, 0]"] ;
811 -> 813 ;
814 [label="gini = 0.0\nsamples = 1\nvalue = [0, 1]"] ;
810 -> 814 ;
815 [label="gini = 0.0\nsamples = 7\nvalue = [0, 7]"] ;
805 -> 815 ;
816 [label="gini = 0.0\nsamples = 2\nvalue = [2, 0]"] ;
804 -> 816 ;
817 [label="gini = 0.0\nsamples = 20\nvalue = [0, 20]"] ;
797 -> 817 ;
818 [label="gini = 0.0\nsamples = 1\nvalue = [1, 0]"] ;
796 -> 818 ;
819 [label="budget <= 65500000.0\ngini = 0.458\nsamples = 45\nvalue = [16, 29]"] ;
795 -> 819 ;
820 [label="annee <= 1986.5\ngini = 0.486\nsamples = 12\nvalue = [7, 5]"] ;
819 -> 820 ;
821 [label="gini = 0.0\nsamples = 2\nvalue = [0, 2]"] ;
820 -> 821 ;
822 [label="Musical <= 0.5\ngini = 0.42\nsamples = 10\nvalue = [7, 3]"] ;
820 -> 822 ;
823 [label="Duree <= 171.0\ngini = 0.346\nsamples = 9\nvalue = [7, 2]"] ;
822 -> 823 ;
824 [label="budget <= 61500000.0\ngini = 0.219\nsamples = 8\nvalue = [7, 1]"] ;
823 -> 824 ;
825 [label="gini = 0.0\nsamples = 6\nvalue = [6, 0]"] ;
824 -> 825 ;
826 [label="annee <= 1995.5\ngini = 0.5\nsamples = 2\nvalue = [1, 1]"] ;
824 -> 826 ;
827 [label="gini = 0.0\nsamples = 1\nvalue = [1, 0]"] ;
826 -> 827 ;
828 [label="gini = 0.0\nsamples = 1\nvalue = [0, 1]"] ;
826 -> 828 ;
829 [label="gini = 0.0\nsamples = 1\nvalue = [0, 1]"] ;
823 -> 829 ;
830 [label="gini = 0.0\nsamples = 1\nvalue = [0, 1]"] ;
822 -> 830 ;
831 [label="budget <= 172500000.0\ngini = 0.397\nsamples = 33\nvalue = [9, 24]"] ;
819 -> 831 ;
832 [label="annee <= 2004.0\ngini = 0.255\nsamples = 20\nvalue = [3, 17]"] ;
831 -> 832 ;
833 [label="Duree <= 140.0\ngini = 0.42\nsamples = 10\nvalue = [3, 7]"] ;
832 -> 833 ;
834 [label="budget <= 97500000.0\ngini = 0.48\nsamples = 5\nvalue = [3, 2]"] ;
833 -> 834 ;
835 [label="gini = 0.0\nsamples = 1\nvalue = [0, 1]"] ;
834 -> 835 ;
836 [label="budget <= 143500000.0\ngini = 0.375\nsamples = 4\nvalue = [3, 1]"] ;
834 -> 836 ;
837 [label="gini = 0.0\nsamples = 3\nvalue = [3, 0]"] ;
836 -> 837 ;
838 [label="gini = 0.0\nsamples = 1\nvalue = [0, 1]"] ;
836 -> 838 ;
839 [label="gini = 0.0\nsamples = 5\nvalue = [0, 5]"] ;
833 -> 839 ;
840 [label="gini = 0.0\nsamples = 10\nvalue = [0, 10]"] ;
832 -> 840 ;
841 [label="annee <= 2011.5\ngini = 0.497\nsamples = 13\nvalue = [6, 7]"] ;
831 -> 841 ;
842 [label="Duree <= 177.0\ngini = 0.278\nsamples = 6\nvalue = [5, 1]"] ;
841 -> 842 ;
843 [label="gini = 0.0\nsamples = 5\nvalue = [5, 0]"] ;
842 -> 843 ;
844 [label="gini = 0.0\nsamples = 1\nvalue = [0, 1]"] ;
842 -> 844 ;
845 [label="Duree <= 157.0\ngini = 0.245\nsamples = 7\nvalue = [1, 6]"] ;
841 -> 845 ;
846 [label="gini = 0.0\nsamples = 3\nvalue = [0, 3]"] ;
845 -> 846 ;
847 [label="Duree <= 169.0\ngini = 0.375\nsamples = 4\nvalue = [1, 3]"] ;
845 -> 847 ;
848 [label="gini = 0.0\nsamples = 1\nvalue = [1, 0]"] ;
847 -> 848 ;
849 [label="gini = 0.0\nsamples = 3\nvalue = [0, 3]"] ;
847 -> 849 ;
850 [label="budget <= 15660000.0\ngini = 0.411\nsamples = 2269\nvalue = [655, 1614]"] ;
0 -> 850 [labeldistance=2.5, labelangle=-45, headlabel="False"] ;
851 [label="Duree <= 104.5\ngini = 0.283\nsamples = 1113\nvalue = [190, 923]"] ;
850 -> 851 ;
852 [label="budget <= 2750000.0\ngini = 0.387\nsamples = 480\nvalue = [126, 354]"] ;
851 -> 852 ;
853 [label="annee <= 2004.5\ngini = 0.209\nsamples = 177\nvalue = [21, 156]"] ;
852 -> 853 ;
854 [label="Music <= 0.5\ngini = 0.069\nsamples = 112\nvalue = [4, 108]"] ;
853 -> 854 ;
855 [label="Biography <= 0.5\ngini = 0.053\nsamples = 110\nvalue = [3, 107]"] ;
854 -> 855 ;
856 [label="budget <= 1140000.0\ngini = 0.037\nsamples = 106\nvalue = [2, 104]"] ;
855 -> 856 ;
857 [label="gini = 0.0\nsamples = 72\nvalue = [0, 72]"] ;
856 -> 857 ;
858 [label="budget <= 1225000.0\ngini = 0.111\nsamples = 34\nvalue = [2, 32]"] ;
856 -> 858 ;
859 [label="Comedy <= 0.5\ngini = 0.444\nsamples = 3\nvalue = [1, 2]"] ;
858 -> 859 ;
860 [label="gini = 0.0\nsamples = 2\nvalue = [0, 2]"] ;
859 -> 860 ;
861 [label="gini = 0.0\nsamples = 1\nvalue = [1, 0]"] ;
859 -> 861 ;
862 [label="Thriller <= 0.5\ngini = 0.062\nsamples = 31\nvalue = [1, 30]"] ;
858 -> 862 ;
863 [label="gini = 0.0\nsamples = 25\nvalue = [0, 25]"] ;
862 -> 863 ;
864 [label="annee <= 1982.0\ngini = 0.278\nsamples = 6\nvalue = [1, 5]"] ;
862 -> 864 ;
865 [label="gini = 0.0\nsamples = 5\nvalue = [0, 5]"] ;
864 -> 865 ;
866 [label="gini = 0.0\nsamples = 1\nvalue = [1, 0]"] ;
864 -> 866 ;
867 [label="Thriller <= 0.5\ngini = 0.375\nsamples = 4\nvalue = [1, 3]"] ;
855 -> 867 ;
868 [label="gini = 0.0\nsamples = 3\nvalue = [0, 3]"] ;
867 -> 868 ;
869 [label="gini = 0.0\nsamples = 1\nvalue = [1, 0]"] ;
867 -> 869 ;
870 [label="budget <= 1415000.0\ngini = 0.5\nsamples = 2\nvalue = [1, 1]"] ;
854 -> 870 ;
871 [label="gini = 0.0\nsamples = 1\nvalue = [0, 1]"] ;
870 -> 871 ;
872 [label="gini = 0.0\nsamples = 1\nvalue = [1, 0]"] ;
870 -> 872 ;
873 [label="Horror <= 0.5\ngini = 0.386\nsamples = 65\nvalue = [17, 48]"] ;
853 -> 873 ;
874 [label="Action <= 0.5\ngini = 0.306\nsamples = 53\nvalue = [10, 43]"] ;
873 -> 874 ;
875 [label="Duree <= 78.5\ngini = 0.286\nsamples = 52\nvalue = [9, 43]"] ;
874 -> 875 ;
876 [label="gini = 0.0\nsamples = 1\nvalue = [1, 0]"] ;
875 -> 876 ;
877 [label="Thriller <= 0.5\ngini = 0.265\nsamples = 51\nvalue = [8, 43]"] ;
875 -> 877 ;
878 [label="Duree <= 89.5\ngini = 0.206\nsamples = 43\nvalue = [5, 38]"] ;
877 -> 878 ;
879 [label="gini = 0.0\nsamples = 11\nvalue = [0, 11]"] ;
878 -> 879 ;
880 [label="budget <= 2317500.0\ngini = 0.264\nsamples = 32\nvalue = [5, 27]"] ;
878 -> 880 ;
881 [label="Duree <= 94.5\ngini = 0.231\nsamples = 30\nvalue = [4, 26]"] ;
880 -> 881 ;
882 [label="budget <= 487500.0\ngini = 0.397\nsamples = 11\nvalue = [3, 8]"] ;
881 -> 882 ;
883 [label="gini = 0.0\nsamples = 4\nvalue = [0, 4]"] ;
882 -> 883 ;
884 [label="budget <= 1780000.0\ngini = 0.49\nsamples = 7\nvalue = [3, 4]"] ;
882 -> 884 ;
885 [label="Animation <= 0.5\ngini = 0.48\nsamples = 5\nvalue = [3, 2]"] ;
884 -> 885 ;
886 [label="gini = 0.375\nsamples = 4\nvalue = [3, 1]"] ;
885 -> 886 ;
887 [label="gini = 0.0\nsamples = 1\nvalue = [0, 1]"] ;
885 -> 887 ;
888 [label="gini = 0.0\nsamples = 2\nvalue = [0, 2]"] ;
884 -> 888 ;
889 [label="budget <= 124300.0\ngini = 0.1\nsamples = 19\nvalue = [1, 18]"] ;
881 -> 889 ;
890 [label="Comedy <= 0.5\ngini = 0.5\nsamples = 2\nvalue = [1, 1]"] ;
889 -> 890 ;
891 [label="gini = 0.0\nsamples = 1\nvalue = [0, 1]"] ;
890 -> 891 ;
892 [label="gini = 0.0\nsamples = 1\nvalue = [1, 0]"] ;
890 -> 892 ;
893 [label="gini = 0.0\nsamples = 17\nvalue = [0, 17]"] ;
889 -> 893 ;
894 [label="annee <= 2012.0\ngini = 0.5\nsamples = 2\nvalue = [1, 1]"] ;
880 -> 894 ;
895 [label="gini = 0.0\nsamples = 1\nvalue = [1, 0]"] ;
894 -> 895 ;
896 [label="gini = 0.0\nsamples = 1\nvalue = [0, 1]"] ;
894 -> 896 ;
897 [label="budget <= 925000.0\ngini = 0.469\nsamples = 8\nvalue = [3, 5]"] ;
877 -> 897 ;
898 [label="gini = 0.0\nsamples = 3\nvalue = [3, 0]"] ;
897 -> 898 ;
899 [label="gini = 0.0\nsamples = 5\nvalue = [0, 5]"] ;
897 -> 899 ;
900 [label="gini = 0.0\nsamples = 1\nvalue = [1, 0]"] ;
874 -> 900 ;
901 [label="Duree <= 100.5\ngini = 0.486\nsamples = 12\nvalue = [7, 5]"] ;
873 -> 901 ;
902 [label="budget <= 1825000.0\ngini = 0.42\nsamples = 10\nvalue = [7, 3]"] ;
901 -> 902 ;
903 [label="Crime <= 0.5\ngini = 0.245\nsamples = 7\nvalue = [6, 1]"] ;
902 -> 903 ;
904 [label="gini = 0.0\nsamples = 6\nvalue = [6, 0]"] ;
903 -> 904 ;
905 [label="gini = 0.0\nsamples = 1\nvalue = [0, 1]"] ;
903 -> 905 ;
906 [label="Duree <= 90.0\ngini = 0.444\nsamples = 3\nvalue = [1, 2]"] ;
902 -> 906 ;
907 [label="gini = 0.0\nsamples = 1\nvalue = [1, 0]"] ;
906 -> 907 ;
908 [label="gini = 0.0\nsamples = 2\nvalue = [0, 2]"] ;
906 -> 908 ;
909 [label="gini = 0.0\nsamples = 2\nvalue = [0, 2]"] ;
901 -> 909 ;
910 [label="Thriller <= 0.5\ngini = 0.453\nsamples = 303\nvalue = [105, 198]"] ;
852 -> 910 ;
911 [label="Animation <= 0.5\ngini = 0.411\nsamples = 218\nvalue = [63, 155]"] ;
910 -> 911 ;
912 [label="Adventure <= 0.5\ngini = 0.42\nsamples = 210\nvalue = [63, 147]"] ;
911 -> 912 ;
913 [label="annee <= 2009.5\ngini = 0.408\nsamples = 196\nvalue = [56, 140]"] ;
912 -> 913 ;
914 [label="Comedy <= 0.5\ngini = 0.366\nsamples = 137\nvalue = [33, 104]"] ;
913 -> 914 ;
915 [label="Music <= 0.5\ngini = 0.278\nsamples = 66\nvalue = [11, 55]"] ;
914 -> 915 ;
916 [label="budget <= 5907000.0\ngini = 0.231\nsamples = 60\nvalue = [8, 52]"] ;
915 -> 916 ;
917 [label="gini = 0.0\nsamples = 20\nvalue = [0, 20]"] ;
916 -> 917 ;
918 [label="annee <= 2006.5\ngini = 0.32\nsamples = 40\nvalue = [8, 32]"] ;
916 -> 918 ;
919 [label="annee <= 2000.5\ngini = 0.391\nsamples = 30\nvalue = [8, 22]"] ;
918 -> 919 ;
920 [label="Duree <= 96.0\ngini = 0.198\nsamples = 18\nvalue = [2, 16]"] ;
919 -> 920 ;
921 [label="annee <= 1984.0\ngini = 0.408\nsamples = 7\nvalue = [2, 5]"] ;
920 -> 921 ;
922 [label="gini = 0.0\nsamples = 3\nvalue = [0, 3]"] ;
921 -> 922 ;
923 [label="gini = 0.5\nsamples = 4\nvalue = [2, 2]"] ;
921 -> 923 ;
924 [label="gini = 0.0\nsamples = 11\nvalue = [0, 11]"] ;
920 -> 924 ;
925 [label="Romance <= 0.5\ngini = 0.5\nsamples = 12\nvalue = [6, 6]"] ;
919 -> 925 ;
926 [label="History <= 0.5\ngini = 0.444\nsamples = 9\nvalue = [6, 3]"] ;
925 -> 926 ;
927 [label="gini = 0.375\nsamples = 8\nvalue = [6, 2]"] ;
926 -> 927 ;
928 [label="gini = 0.0\nsamples = 1\nvalue = [0, 1]"] ;
926 -> 928 ;
929 [label="gini = 0.0\nsamples = 3\nvalue = [0, 3]"] ;
925 -> 929 ;
930 [label="gini = 0.0\nsamples = 10\nvalue = [0, 10]"] ;
918 -> 930 ;
931 [label="Duree <= 96.0\ngini = 0.5\nsamples = 6\nvalue = [3, 3]"] ;
915 -> 931 ;
932 [label="gini = 0.0\nsamples = 2\nvalue = [2, 0]"] ;
931 -> 932 ;
933 [label="Crime <= 0.5\ngini = 0.375\nsamples = 4\nvalue = [1, 3]"] ;
931 -> 933 ;
934 [label="gini = 0.0\nsamples = 3\nvalue = [0, 3]"] ;
933 -> 934 ;
935 [label="gini = 0.0\nsamples = 1\nvalue = [1, 0]"] ;
933 -> 935 ;
936 [label="Crime <= 0.5\ngini = 0.428\nsamples = 71\nvalue = [22, 49]"] ;
914 -> 936 ;
937 [label="Duree <= 88.5\ngini = 0.461\nsamples = 61\nvalue = [22, 39]"] ;
936 -> 937 ;
938 [label="gini = 0.0\nsamples = 2\nvalue = [2, 0]"] ;
937 -> 938 ;
939 [label="annee <= 2003.0\ngini = 0.448\nsamples = 59\nvalue = [20, 39]"] ;
937 -> 939 ;
940 [label="Sport <= 0.5\ngini = 0.493\nsamples = 34\nvalue = [15, 19]"] ;
939 -> 940 ;
941 [label="annee <= 1998.5\ngini = 0.475\nsamples = 31\nvalue = [12, 19]"] ;
940 -> 941 ;
942 [label="Duree <= 101.0\ngini = 0.36\nsamples = 17\nvalue = [4, 13]"] ;
941 -> 942 ;
943 [label="gini = 0.142\nsamples = 13\nvalue = [1, 12]"] ;
942 -> 943 ;
944 [label="gini = 0.375\nsamples = 4\nvalue = [3, 1]"] ;
942 -> 944 ;
945 [label="Duree <= 102.5\ngini = 0.49\nsamples = 14\nvalue = [8, 6]"] ;
941 -> 945 ;
946 [label="gini = 0.444\nsamples = 12\nvalue = [8, 4]"] ;
945 -> 946 ;
947 [label="gini = 0.0\nsamples = 2\nvalue = [0, 2]"] ;
945 -> 947 ;
948 [label="gini = 0.0\nsamples = 3\nvalue = [3, 0]"] ;
940 -> 948 ;
949 [label="budget <= 13350000.0\ngini = 0.32\nsamples = 25\nvalue = [5, 20]"] ;
939 -> 949 ;
950 [label="budget <= 3025500.0\ngini = 0.227\nsamples = 23\nvalue = [3, 20]"] ;
949 -> 950 ;
951 [label="gini = 0.0\nsamples = 1\nvalue = [1, 0]"] ;
950 -> 951 ;
952 [label="Duree <= 96.5\ngini = 0.165\nsamples = 22\nvalue = [2, 20]"] ;
950 -> 952 ;
953 [label="gini = 0.278\nsamples = 12\nvalue = [2, 10]"] ;
952 -> 953 ;
954 [label="gini = 0.0\nsamples = 10\nvalue = [0, 10]"] ;
952 -> 954 ;
955 [label="gini = 0.0\nsamples = 2\nvalue = [2, 0]"] ;
949 -> 955 ;
956 [label="gini = 0.0\nsamples = 10\nvalue = [0, 10]"] ;
936 -> 956 ;
957 [label="Duree <= 97.5\ngini = 0.476\nsamples = 59\nvalue = [23, 36]"] ;
913 -> 957 ;
958 [label="Duree <= 96.5\ngini = 0.497\nsamples = 28\nvalue = [15, 13]"] ;
957 -> 958 ;
959 [label="annee <= 2013.5\ngini = 0.496\nsamples = 22\nvalue = [10, 12]"] ;
958 -> 959 ;
960 [label="Biography <= 0.5\ngini = 0.499\nsamples = 19\nvalue = [10, 9]"] ;
959 -> 960 ;
961 [label="budget <= 13000000.0\ngini = 0.498\nsamples = 17\nvalue = [8, 9]"] ;
960 -> 961 ;
962 [label="budget <= 6815000.0\ngini = 0.498\nsamples = 15\nvalue = [8, 7]"] ;
961 -> 962 ;
963 [label="Duree <= 90.5\ngini = 0.48\nsamples = 10\nvalue = [4, 6]"] ;
962 -> 963 ;
964 [label="gini = 0.375\nsamples = 4\nvalue = [3, 1]"] ;
963 -> 964 ;
965 [label="gini = 0.278\nsamples = 6\nvalue = [1, 5]"] ;
963 -> 965 ;
966 [label="annee <= 2012.5\ngini = 0.32\nsamples = 5\nvalue = [4, 1]"] ;
962 -> 966 ;
967 [label="gini = 0.0\nsamples = 4\nvalue = [4, 0]"] ;
966 -> 967 ;
968 [label="gini = 0.0\nsamples = 1\nvalue = [0, 1]"] ;
966 -> 968 ;
969 [label="gini = 0.0\nsamples = 2\nvalue = [0, 2]"] ;
961 -> 969 ;
970 [label="gini = 0.0\nsamples = 2\nvalue = [2, 0]"] ;
960 -> 970 ;
971 [label="gini = 0.0\nsamples = 3\nvalue = [0, 3]"] ;
959 -> 971 ;
972 [label="Crime <= 0.5\ngini = 0.278\nsamples = 6\nvalue = [5, 1]"] ;
958 -> 972 ;
973 [label="gini = 0.0\nsamples = 5\nvalue = [5, 0]"] ;
972 -> 973 ;
974 [label="gini = 0.0\nsamples = 1\nvalue = [0, 1]"] ;
972 -> 974 ;
975 [label="annee <= 2013.5\ngini = 0.383\nsamples = 31\nvalue = [8, 23]"] ;
957 -> 975 ;
976 [label="History <= 0.5\ngini = 0.269\nsamples = 25\nvalue = [4, 21]"] ;
975 -> 976 ;
977 [label="annee <= 2011.5\ngini = 0.219\nsamples = 24\nvalue = [3, 21]"] ;
976 -> 977 ;
978 [label="budget <= 12250000.0\ngini = 0.32\nsamples = 15\nvalue = [3, 12]"] ;
977 -> 978 ;
979 [label="Duree <= 101.5\ngini = 0.42\nsamples = 10\nvalue = [3, 7]"] ;
978 -> 979 ;
980 [label="budget <= 7500000.0\ngini = 0.245\nsamples = 7\nvalue = [1, 6]"] ;
979 -> 980 ;
981 [label="gini = 0.444\nsamples = 3\nvalue = [1, 2]"] ;
980 -> 981 ;
982 [label="gini = 0.0\nsamples = 4\nvalue = [0, 4]"] ;
980 -> 982 ;
983 [label="annee <= 2010.5\ngini = 0.444\nsamples = 3\nvalue = [2, 1]"] ;
979 -> 983 ;
984 [label="gini = 0.0\nsamples = 1\nvalue = [1, 0]"] ;
983 -> 984 ;
985 [label="gini = 0.5\nsamples = 2\nvalue = [1, 1]"] ;
983 -> 985 ;
986 [label="gini = 0.0\nsamples = 5\nvalue = [0, 5]"] ;
978 -> 986 ;
987 [label="gini = 0.0\nsamples = 9\nvalue = [0, 9]"] ;
977 -> 987 ;
988 [label="gini = 0.0\nsamples = 1\nvalue = [1, 0]"] ;
976 -> 988 ;
989 [label="budget <= 12625000.0\ngini = 0.444\nsamples = 6\nvalue = [4, 2]"] ;
975 -> 989 ;
990 [label="Duree <= 101.5\ngini = 0.32\nsamples = 5\nvalue = [4, 1]"] ;
989 -> 990 ;
991 [label="budget <= 8050000.0\ngini = 0.5\nsamples = 2\nvalue = [1, 1]"] ;
990 -> 991 ;
992 [label="gini = 0.0\nsamples = 1\nvalue = [0, 1]"] ;
991 -> 992 ;
993 [label="gini = 0.0\nsamples = 1\nvalue = [1, 0]"] ;
991 -> 993 ;
994 [label="gini = 0.0\nsamples = 3\nvalue = [3, 0]"] ;
990 -> 994 ;
995 [label="gini = 0.0\nsamples = 1\nvalue = [0, 1]"] ;
989 -> 995 ;
996 [label="Duree <= 101.5\ngini = 0.5\nsamples = 14\nvalue = [7, 7]"] ;
912 -> 996 ;
997 [label="Fantasy <= 0.5\ngini = 0.42\nsamples = 10\nvalue = [3, 7]"] ;
996 -> 997 ;
998 [label="Family <= 0.5\ngini = 0.245\nsamples = 7\nvalue = [1, 6]"] ;
997 -> 998 ;
999 [label="gini = 0.0\nsamples = 5\nvalue = [0, 5]"] ;
998 -> 999 ;
1000 [label="budget <= 6060000.0\ngini = 0.5\nsamples = 2\nvalue = [1, 1]"] ;
998 -> 1000 ;
1001 [label="gini = 0.0\nsamples = 1\nvalue = [1, 0]"] ;
1000 -> 1001 ;
1002 [label="gini = 0.0\nsamples = 1\nvalue = [0, 1]"] ;
1000 -> 1002 ;
1003 [label="budget <= 5060000.0\ngini = 0.444\nsamples = 3\nvalue = [2, 1]"] ;
997 -> 1003 ;
1004 [label="gini = 0.0\nsamples = 1\nvalue = [0, 1]"] ;
1003 -> 1004 ;
1005 [label="gini = 0.0\nsamples = 2\nvalue = [2, 0]"] ;
1003 -> 1005 ;
1006 [label="gini = 0.0\nsamples = 4\nvalue = [4, 0]"] ;
996 -> 1006 ;
1007 [label="gini = 0.0\nsamples = 8\nvalue = [0, 8]"] ;
911 -> 1007 ;
1008 [label="annee <= 2005.5\ngini = 0.5\nsamples = 85\nvalue = [42, 43]"] ;
910 -> 1008 ;
1009 [label="Duree <= 95.5\ngini = 0.457\nsamples = 48\nvalue = [17, 31]"] ;
1008 -> 1009 ;
1010 [label="annee <= 1987.5\ngini = 0.496\nsamples = 22\nvalue = [12, 10]"] ;
1009 -> 1010 ;
1011 [label="gini = 0.0\nsamples = 4\nvalue = [0, 4]"] ;
1010 -> 1011 ;
1012 [label="Duree <= 83.0\ngini = 0.444\nsamples = 18\nvalue = [12, 6]"] ;
1010 -> 1012 ;
1013 [label="gini = 0.0\nsamples = 2\nvalue = [0, 2]"] ;
1012 -> 1013 ;
1014 [label="budget <= 5500000.0\ngini = 0.375\nsamples = 16\nvalue = [12, 4]"] ;
1012 -> 1014 ;
1015 [label="annee <= 2001.5\ngini = 0.5\nsamples = 6\nvalue = [3, 3]"] ;
1014 -> 1015 ;
1016 [label="Action <= 0.5\ngini = 0.375\nsamples = 4\nvalue = [3, 1]"] ;
1015 -> 1016 ;
1017 [label="gini = 0.0\nsamples = 3\nvalue = [3, 0]"] ;
1016 -> 1017 ;
1018 [label="gini = 0.0\nsamples = 1\nvalue = [0, 1]"] ;
1016 -> 1018 ;
1019 [label="gini = 0.0\nsamples = 2\nvalue = [0, 2]"] ;
1015 -> 1019 ;
1020 [label="Mystery <= 0.5\ngini = 0.18\nsamples = 10\nvalue = [9, 1]"] ;
1014 -> 1020 ;
1021 [label="gini = 0.0\nsamples = 8\nvalue = [8, 0]"] ;
1020 -> 1021 ;
1022 [label="Crime <= 0.5\ngini = 0.5\nsamples = 2\nvalue = [1, 1]"] ;
1020 -> 1022 ;
1023 [label="gini = 0.0\nsamples = 1\nvalue = [1, 0]"] ;
1022 -> 1023 ;
1024 [label="gini = 0.0\nsamples = 1\nvalue = [0, 1]"] ;
1022 -> 1024 ;
1025 [label="Horror <= 0.5\ngini = 0.311\nsamples = 26\nvalue = [5, 21]"] ;
1009 -> 1025 ;
1026 [label="Biography <= 0.5\ngini = 0.219\nsamples = 24\nvalue = [3, 21]"] ;
1025 -> 1026 ;
1027 [label="budget <= 2945000.0\ngini = 0.159\nsamples = 23\nvalue = [2, 21]"] ;
1026 -> 1027 ;
1028 [label="gini = 0.0\nsamples = 1\nvalue = [1, 0]"] ;
1027 -> 1028 ;
1029 [label="Action <= 0.5\ngini = 0.087\nsamples = 22\nvalue = [1, 21]"] ;
1027 -> 1029 ;
1030 [label="gini = 0.0\nsamples = 19\nvalue = [0, 19]"] ;
1029 -> 1030 ;
1031 [label="Duree <= 98.5\ngini = 0.444\nsamples = 3\nvalue = [1, 2]"] ;
1029 -> 1031 ;
1032 [label="gini = 0.0\nsamples = 1\nvalue = [1, 0]"] ;
1031 -> 1032 ;
1033 [label="gini = 0.0\nsamples = 2\nvalue = [0, 2]"] ;
1031 -> 1033 ;
1034 [label="gini = 0.0\nsamples = 1\nvalue = [1, 0]"] ;
1026 -> 1034 ;
1035 [label="gini = 0.0\nsamples = 2\nvalue = [2, 0]"] ;
1025 -> 1035 ;
1036 [label="Horror <= 0.5\ngini = 0.438\nsamples = 37\nvalue = [25, 12]"] ;
1008 -> 1036 ;
1037 [label="Duree <= 94.5\ngini = 0.488\nsamples = 26\nvalue = [15, 11]"] ;
1036 -> 1037 ;
1038 [label="Crime <= 0.5\ngini = 0.375\nsamples = 12\nvalue = [9, 3]"] ;
1037 -> 1038 ;
1039 [label="Mystery <= 0.5\ngini = 0.48\nsamples = 5\nvalue = [2, 3]"] ;
1038 -> 1039 ;
1040 [label="gini = 0.0\nsamples = 3\nvalue = [0, 3]"] ;
1039 -> 1040 ;
1041 [label="gini = 0.0\nsamples = 2\nvalue = [2, 0]"] ;
1039 -> 1041 ;
1042 [label="gini = 0.0\nsamples = 7\nvalue = [7, 0]"] ;
1038 -> 1042 ;
1043 [label="Duree <= 102.5\ngini = 0.49\nsamples = 14\nvalue = [6, 8]"] ;
1037 -> 1043 ;
1044 [label="Fantasy <= 0.5\ngini = 0.444\nsamples = 12\nvalue = [4, 8]"] ;
1043 -> 1044 ;
1045 [label="annee <= 2011.5\ngini = 0.397\nsamples = 11\nvalue = [3, 8]"] ;
1044 -> 1045 ;
1046 [label="Mystery <= 0.5\ngini = 0.219\nsamples = 8\nvalue = [1, 7]"] ;
1045 -> 1046 ;
1047 [label="gini = 0.0\nsamples = 6\nvalue = [0, 6]"] ;
1046 -> 1047 ;
1048 [label="annee <= 2009.5\ngini = 0.5\nsamples = 2\nvalue = [1, 1]"] ;
1046 -> 1048 ;
1049 [label="gini = 0.0\nsamples = 1\nvalue = [1, 0]"] ;
1048 -> 1049 ;
1050 [label="gini = 0.0\nsamples = 1\nvalue = [0, 1]"] ;
1048 -> 1050 ;
1051 [label="Duree <= 98.0\ngini = 0.444\nsamples = 3\nvalue = [2, 1]"] ;
1045 -> 1051 ;
1052 [label="gini = 0.0\nsamples = 2\nvalue = [2, 0]"] ;
1051 -> 1052 ;
1053 [label="gini = 0.0\nsamples = 1\nvalue = [0, 1]"] ;
1051 -> 1053 ;
1054 [label="gini = 0.0\nsamples = 1\nvalue = [1, 0]"] ;
1044 -> 1054 ;
1055 [label="gini = 0.0\nsamples = 2\nvalue = [2, 0]"] ;
1043 -> 1055 ;
1056 [label="Duree <= 101.5\ngini = 0.165\nsamples = 11\nvalue = [10, 1]"] ;
1036 -> 1056 ;
1057 [label="gini = 0.0\nsamples = 8\nvalue = [8, 0]"] ;
1056 -> 1057 ;
1058 [label="budget <= 4750000.0\ngini = 0.444\nsamples = 3\nvalue = [2, 1]"] ;
1056 -> 1058 ;
1059 [label="gini = 0.0\nsamples = 2\nvalue = [2, 0]"] ;
1058 -> 1059 ;
1060 [label="gini = 0.0\nsamples = 1\nvalue = [0, 1]"] ;
1058 -> 1060 ;
1061 [label="budget <= 11158052.5\ngini = 0.182\nsamples = 633\nvalue = [64, 569]"] ;
851 -> 1061 ;
1062 [label="budget <= 17805.0\ngini = 0.104\nsamples = 456\nvalue = [25, 431]"] ;
1061 -> 1062 ;
1063 [label="gini = 0.0\nsamples = 1\nvalue = [1, 0]"] ;
1062 -> 1063 ;
1064 [label="Animation <= 0.5\ngini = 0.1\nsamples = 455\nvalue = [24, 431]"] ;
1062 -> 1064 ;
1065 [label="Sci-Fi <= 0.5\ngini = 0.096\nsamples = 454\nvalue = [23, 431]"] ;
1064 -> 1065 ;
1066 [label="budget <= 4570000.0\ngini = 0.084\nsamples = 435\nvalue = [19, 416]"] ;
1065 -> 1066 ;
1067 [label="annee <= 2011.5\ngini = 0.026\nsamples = 224\nvalue = [3, 221]"] ;
1066 -> 1067 ;
1068 [label="budget <= 517750.0\ngini = 0.009\nsamples = 211\nvalue = [1, 210]"] ;
1067 -> 1068 ;
1069 [label="annee <= 2007.0\ngini = 0.117\nsamples = 16\nvalue = [1, 15]"] ;
1068 -> 1069 ;
1070 [label="gini = 0.0\nsamples = 14\nvalue = [0, 14]"] ;
1069 -> 1070 ;
1071 [label="Romance <= 0.5\ngini = 0.5\nsamples = 2\nvalue = [1, 1]"] ;
1069 -> 1071 ;
1072 [label="gini = 0.0\nsamples = 1\nvalue = [0, 1]"] ;
1071 -> 1072 ;
1073 [label="gini = 0.0\nsamples = 1\nvalue = [1, 0]"] ;
1071 -> 1073 ;
1074 [label="gini = 0.0\nsamples = 195\nvalue = [0, 195]"] ;
1068 -> 1074 ;
1075 [label="Duree <= 114.0\ngini = 0.26\nsamples = 13\nvalue = [2, 11]"] ;
1067 -> 1075 ;
1076 [label="budget <= 3180000.0\ngini = 0.5\nsamples = 4\nvalue = [2, 2]"] ;
1075 -> 1076 ;
1077 [label="gini = 0.0\nsamples = 2\nvalue = [2, 0]"] ;
1076 -> 1077 ;
1078 [label="gini = 0.0\nsamples = 2\nvalue = [0, 2]"] ;
1076 -> 1078 ;
1079 [label="gini = 0.0\nsamples = 9\nvalue = [0, 9]"] ;
1075 -> 1079 ;
1080 [label="budget <= 4614391.5\ngini = 0.14\nsamples = 211\nvalue = [16, 195]"] ;
1066 -> 1080 ;
1081 [label="gini = 0.0\nsamples = 1\nvalue = [1, 0]"] ;
1080 -> 1081 ;
1082 [label="Romance <= 0.5\ngini = 0.133\nsamples = 210\nvalue = [15, 195]"] ;
1080 -> 1082 ;
1083 [label="Sport <= 0.5\ngini = 0.089\nsamples = 150\nvalue = [7, 143]"] ;
1082 -> 1083 ;
1084 [label="Duree <= 105.5\ngini = 0.068\nsamples = 142\nvalue = [5, 137]"] ;
1083 -> 1084 ;
1085 [label="budget <= 8500000.0\ngini = 0.32\nsamples = 5\nvalue = [1, 4]"] ;
1084 -> 1085 ;
1086 [label="gini = 0.0\nsamples = 3\nvalue = [0, 3]"] ;
1085 -> 1086 ;
1087 [label="annee <= 2007.5\ngini = 0.5\nsamples = 2\nvalue = [1, 1]"] ;
1085 -> 1087 ;
1088 [label="gini = 0.0\nsamples = 1\nvalue = [0, 1]"] ;
1087 -> 1088 ;
1089 [label="gini = 0.0\nsamples = 1\nvalue = [1, 0]"] ;
1087 -> 1089 ;
1090 [label="Action <= 0.5\ngini = 0.057\nsamples = 137\nvalue = [4, 133]"] ;
1084 -> 1090 ;
1091 [label="Mystery <= 0.5\ngini = 0.033\nsamples = 120\nvalue = [2, 118]"] ;
1090 -> 1091 ;
1092 [label="annee <= 2011.5\ngini = 0.019\nsamples = 105\nvalue = [1, 104]"] ;
1091 -> 1092 ;
1093 [label="gini = 0.0\nsamples = 90\nvalue = [0, 90]"] ;
1092 -> 1093 ;
1094 [label="gini = 0.124\nsamples = 15\nvalue = [1, 14]"] ;
1092 -> 1094 ;
1095 [label="budget <= 7697540.0\ngini = 0.124\nsamples = 15\nvalue = [1, 14]"] ;
1091 -> 1095 ;
1096 [label="gini = 0.0\nsamples = 10\nvalue = [0, 10]"] ;
1095 -> 1096 ;
1097 [label="gini = 0.32\nsamples = 5\nvalue = [1, 4]"] ;
1095 -> 1097 ;
1098 [label="Comedy <= 0.5\ngini = 0.208\nsamples = 17\nvalue = [2, 15]"] ;
1090 -> 1098 ;
1099 [label="budget <= 5350000.0\ngini = 0.117\nsamples = 16\nvalue = [1, 15]"] ;
1098 -> 1099 ;
1100 [label="gini = 0.5\nsamples = 2\nvalue = [1, 1]"] ;
1099 -> 1100 ;
1101 [label="gini = 0.0\nsamples = 14\nvalue = [0, 14]"] ;
1099 -> 1101 ;
1102 [label="gini = 0.0\nsamples = 1\nvalue = [1, 0]"] ;
1098 -> 1102 ;
1103 [label="annee <= 1989.0\ngini = 0.375\nsamples = 8\nvalue = [2, 6]"] ;
1083 -> 1103 ;
1104 [label="gini = 0.0\nsamples = 5\nvalue = [0, 5]"] ;
1103 -> 1104 ;
1105 [label="annee <= 2007.5\ngini = 0.444\nsamples = 3\nvalue = [2, 1]"] ;
1103 -> 1105 ;
1106 [label="gini = 0.0\nsamples = 2\nvalue = [2, 0]"] ;
1105 -> 1106 ;
1107 [label="gini = 0.0\nsamples = 1\nvalue = [0, 1]"] ;
1105 -> 1107 ;
1108 [label="Duree <= 117.5\ngini = 0.231\nsamples = 60\nvalue = [8, 52]"] ;
1082 -> 1108 ;
1109 [label="annee <= 1988.5\ngini = 0.363\nsamples = 21\nvalue = [5, 16]"] ;
1108 -> 1109 ;
1110 [label="gini = 0.0\nsamples = 2\nvalue = [2, 0]"] ;
1109 -> 1110 ;
1111 [label="Family <= 0.5\ngini = 0.266\nsamples = 19\nvalue = [3, 16]"] ;
1109 -> 1111 ;
1112 [label="Duree <= 115.5\ngini = 0.198\nsamples = 18\nvalue = [2, 16]"] ;
1111 -> 1112 ;
1113 [label="Thriller <= 0.5\ngini = 0.111\nsamples = 17\nvalue = [1, 16]"] ;
1112 -> 1113 ;
1114 [label="gini = 0.0\nsamples = 13\nvalue = [0, 13]"] ;
1113 -> 1114 ;
1115 [label="gini = 0.375\nsamples = 4\nvalue = [1, 3]"] ;
1113 -> 1115 ;
1116 [label="gini = 0.0\nsamples = 1\nvalue = [1, 0]"] ;
1112 -> 1116 ;
1117 [label="gini = 0.0\nsamples = 1\nvalue = [1, 0]"] ;
1111 -> 1117 ;
1118 [label="War <= 0.5\ngini = 0.142\nsamples = 39\nvalue = [3, 36]"] ;
1108 -> 1118 ;
1119 [label="Comedy <= 0.5\ngini = 0.105\nsamples = 36\nvalue = [2, 34]"] ;
1118 -> 1119 ;
1120 [label="annee <= 1978.0\ngini = 0.062\nsamples = 31\nvalue = [1, 30]"] ;
1119 -> 1120 ;
1121 [label="annee <= 1973.0\ngini = 0.18\nsamples = 10\nvalue = [1, 9]"] ;
1120 -> 1121 ;
1122 [label="gini = 0.0\nsamples = 9\nvalue = [0, 9]"] ;
1121 -> 1122 ;
1123 [label="gini = 0.0\nsamples = 1\nvalue = [1, 0]"] ;
1121 -> 1123 ;
1124 [label="gini = 0.0\nsamples = 21\nvalue = [0, 21]"] ;
1120 -> 1124 ;
1125 [label="Musical <= 0.5\ngini = 0.32\nsamples = 5\nvalue = [1, 4]"] ;
1119 -> 1125 ;
1126 [label="gini = 0.0\nsamples = 4\nvalue = [0, 4]"] ;
1125 -> 1126 ;
1127 [label="gini = 0.0\nsamples = 1\nvalue = [1, 0]"] ;
1125 -> 1127 ;
1128 [label="Duree <= 132.0\ngini = 0.444\nsamples = 3\nvalue = [1, 2]"] ;
1118 -> 1128 ;
1129 [label="gini = 0.0\nsamples = 1\nvalue = [1, 0]"] ;
1128 -> 1129 ;
1130 [label="gini = 0.0\nsamples = 2\nvalue = [0, 2]"] ;
1128 -> 1130 ;
1131 [label="Duree <= 112.5\ngini = 0.332\nsamples = 19\nvalue = [4, 15]"] ;
1065 -> 1131 ;
1132 [label="Action <= 0.5\ngini = 0.5\nsamples = 6\nvalue = [3, 3]"] ;
1131 -> 1132 ;
1133 [label="annee <= 1970.0\ngini = 0.375\nsamples = 4\nvalue = [3, 1]"] ;
1132 -> 1133 ;
1134 [label="gini = 0.0\nsamples = 1\nvalue = [0, 1]"] ;
1133 -> 1134 ;
1135 [label="gini = 0.0\nsamples = 3\nvalue = [3, 0]"] ;
1133 -> 1135 ;
1136 [label="gini = 0.0\nsamples = 2\nvalue = [0, 2]"] ;
1132 -> 1136 ;
1137 [label="budget <= 8200000.0\ngini = 0.142\nsamples = 13\nvalue = [1, 12]"] ;
1131 -> 1137 ;
1138 [label="gini = 0.0\nsamples = 11\nvalue = [0, 11]"] ;
1137 -> 1138 ;
1139 [label="Duree <= 135.5\ngini = 0.5\nsamples = 2\nvalue = [1, 1]"] ;
1137 -> 1139 ;
1140 [label="gini = 0.0\nsamples = 1\nvalue = [0, 1]"] ;
1139 -> 1140 ;
1141 [label="gini = 0.0\nsamples = 1\nvalue = [1, 0]"] ;
1139 -> 1141 ;
1142 [label="gini = 0.0\nsamples = 1\nvalue = [1, 0]"] ;
1064 -> 1142 ;
1143 [label="annee <= 2009.5\ngini = 0.344\nsamples = 177\nvalue = [39, 138]"] ;
1061 -> 1143 ;
1144 [label="Comedy <= 0.5\ngini = 0.263\nsamples = 135\nvalue = [21, 114]"] ;
1143 -> 1144 ;
1145 [label="budget <= 11250000.0\ngini = 0.194\nsamples = 110\nvalue = [12, 98]"] ;
1144 -> 1145 ;
1146 [label="gini = 0.0\nsamples = 1\nvalue = [1, 0]"] ;
1145 -> 1146 ;
1147 [label="Horror <= 0.5\ngini = 0.181\nsamples = 109\nvalue = [11, 98]"] ;
1145 -> 1147 ;
1148 [label="Music <= 0.5\ngini = 0.168\nsamples = 108\nvalue = [10, 98]"] ;
1147 -> 1148 ;
1149 [label="Duree <= 111.5\ngini = 0.129\nsamples = 101\nvalue = [7, 94]"] ;
1148 -> 1149 ;
1150 [label="annee <= 2001.0\ngini = 0.351\nsamples = 22\nvalue = [5, 17]"] ;
1149 -> 1150 ;
1151 [label="annee <= 1996.0\ngini = 0.494\nsamples = 9\nvalue = [4, 5]"] ;
1150 -> 1151 ;
1152 [label="Duree <= 108.5\ngini = 0.408\nsamples = 7\nvalue = [2, 5]"] ;
1151 -> 1152 ;
1153 [label="gini = 0.0\nsamples = 4\nvalue = [0, 4]"] ;
1152 -> 1153 ;
1154 [label="budget <= 13500000.0\ngini = 0.444\nsamples = 3\nvalue = [2, 1]"] ;
1152 -> 1154 ;
1155 [label="gini = 0.0\nsamples = 2\nvalue = [2, 0]"] ;
1154 -> 1155 ;
1156 [label="gini = 0.0\nsamples = 1\nvalue = [0, 1]"] ;
1154 -> 1156 ;
1157 [label="gini = 0.0\nsamples = 2\nvalue = [2, 0]"] ;
1151 -> 1157 ;
1158 [label="Thriller <= 0.5\ngini = 0.142\nsamples = 13\nvalue = [1, 12]"] ;
1150 -> 1158 ;
1159 [label="gini = 0.0\nsamples = 8\nvalue = [0, 8]"] ;
1158 -> 1159 ;
1160 [label="Action <= 0.5\ngini = 0.32\nsamples = 5\nvalue = [1, 4]"] ;
1158 -> 1160 ;
1161 [label="annee <= 2007.5\ngini = 0.444\nsamples = 3\nvalue = [1, 2]"] ;
1160 -> 1161 ;
1162 [label="gini = 0.0\nsamples = 1\nvalue = [1, 0]"] ;
1161 -> 1162 ;
1163 [label="gini = 0.0\nsamples = 2\nvalue = [0, 2]"] ;
1161 -> 1163 ;
1164 [label="gini = 0.0\nsamples = 2\nvalue = [0, 2]"] ;
1160 -> 1164 ;
1165 [label="Romance <= 0.5\ngini = 0.049\nsamples = 79\nvalue = [2, 77]"] ;
1149 -> 1165 ;
1166 [label="gini = 0.0\nsamples = 54\nvalue = [0, 54]"] ;
1165 -> 1166 ;
1167 [label="Duree <= 130.5\ngini = 0.147\nsamples = 25\nvalue = [2, 23]"] ;
1165 -> 1167 ;
1168 [label="gini = 0.0\nsamples = 18\nvalue = [0, 18]"] ;
1167 -> 1168 ;
1169 [label="Duree <= 133.0\ngini = 0.408\nsamples = 7\nvalue = [2, 5]"] ;
1167 -> 1169 ;
1170 [label="gini = 0.0\nsamples = 1\nvalue = [1, 0]"] ;
1169 -> 1170 ;
1171 [label="Duree <= 141.5\ngini = 0.278\nsamples = 6\nvalue = [1, 5]"] ;
1169 -> 1171 ;
1172 [label="Duree <= 134.5\ngini = 0.444\nsamples = 3\nvalue = [1, 2]"] ;
1171 -> 1172 ;
1173 [label="gini = 0.0\nsamples = 2\nvalue = [0, 2]"] ;
1172 -> 1173 ;
1174 [label="gini = 0.0\nsamples = 1\nvalue = [1, 0]"] ;
1172 -> 1174 ;
1175 [label="gini = 0.0\nsamples = 3\nvalue = [0, 3]"] ;
1171 -> 1175 ;
1176 [label="annee <= 1993.5\ngini = 0.49\nsamples = 7\nvalue = [3, 4]"] ;
1148 -> 1176 ;
1177 [label="gini = 0.0\nsamples = 2\nvalue = [0, 2]"] ;
1176 -> 1177 ;
1178 [label="annee <= 2003.5\ngini = 0.48\nsamples = 5\nvalue = [3, 2]"] ;
1176 -> 1178 ;
1179 [label="gini = 0.0\nsamples = 2\nvalue = [2, 0]"] ;
1178 -> 1179 ;
1180 [label="budget <= 13000000.0\ngini = 0.444\nsamples = 3\nvalue = [1, 2]"] ;
1178 -> 1180 ;
1181 [label="gini = 0.0\nsamples = 1\nvalue = [0, 1]"] ;
1180 -> 1181 ;
1182 [label="budget <= 14500000.0\ngini = 0.5\nsamples = 2\nvalue = [1, 1]"] ;
1180 -> 1182 ;
1183 [label="gini = 0.0\nsamples = 1\nvalue = [1, 0]"] ;
1182 -> 1183 ;
1184 [label="gini = 0.0\nsamples = 1\nvalue = [0, 1]"] ;
1182 -> 1184 ;
1185 [label="gini = 0.0\nsamples = 1\nvalue = [1, 0]"] ;
1147 -> 1185 ;
1186 [label="Duree <= 124.5\ngini = 0.461\nsamples = 25\nvalue = [9, 16]"] ;
1144 -> 1186 ;
1187 [label="Duree <= 109.0\ngini = 0.499\nsamples = 19\nvalue = [9, 10]"] ;
1186 -> 1187 ;
1188 [label="gini = 0.0\nsamples = 3\nvalue = [0, 3]"] ;
1187 -> 1188 ;
1189 [label="Duree <= 121.5\ngini = 0.492\nsamples = 16\nvalue = [9, 7]"] ;
1187 -> 1189 ;
1190 [label="Duree <= 119.0\ngini = 0.5\nsamples = 14\nvalue = [7, 7]"] ;
1189 -> 1190 ;
1191 [label="War <= 0.5\ngini = 0.444\nsamples = 9\nvalue = [6, 3]"] ;
1190 -> 1191 ;
1192 [label="Mystery <= 0.5\ngini = 0.375\nsamples = 8\nvalue = [6, 2]"] ;
1191 -> 1192 ;
1193 [label="Fantasy <= 0.5\ngini = 0.245\nsamples = 7\nvalue = [6, 1]"] ;
1192 -> 1193 ;
1194 [label="gini = 0.0\nsamples = 5\nvalue = [5, 0]"] ;
1193 -> 1194 ;
1195 [label="Adventure <= 0.5\ngini = 0.5\nsamples = 2\nvalue = [1, 1]"] ;
1193 -> 1195 ;
1196 [label="gini = 0.0\nsamples = 1\nvalue = [0, 1]"] ;
1195 -> 1196 ;
1197 [label="gini = 0.0\nsamples = 1\nvalue = [1, 0]"] ;
1195 -> 1197 ;
1198 [label="gini = 0.0\nsamples = 1\nvalue = [0, 1]"] ;
1192 -> 1198 ;
1199 [label="gini = 0.0\nsamples = 1\nvalue = [0, 1]"] ;
1191 -> 1199 ;
1200 [label="Romance <= 0.5\ngini = 0.32\nsamples = 5\nvalue = [1, 4]"] ;
1190 -> 1200 ;
1201 [label="budget <= 14000000.0\ngini = 0.5\nsamples = 2\nvalue = [1, 1]"] ;
1200 -> 1201 ;
1202 [label="gini = 0.0\nsamples = 1\nvalue = [0, 1]"] ;
1201 -> 1202 ;
1203 [label="gini = 0.0\nsamples = 1\nvalue = [1, 0]"] ;
1201 -> 1203 ;
1204 [label="gini = 0.0\nsamples = 3\nvalue = [0, 3]"] ;
1200 -> 1204 ;
1205 [label="gini = 0.0\nsamples = 2\nvalue = [2, 0]"] ;
1189 -> 1205 ;
1206 [label="gini = 0.0\nsamples = 6\nvalue = [0, 6]"] ;
1186 -> 1206 ;
1207 [label="Duree <= 120.0\ngini = 0.49\nsamples = 42\nvalue = [18, 24]"] ;
1143 -> 1207 ;
1208 [label="Duree <= 106.5\ngini = 0.499\nsamples = 29\nvalue = [15, 14]"] ;
1207 -> 1208 ;
1209 [label="gini = 0.0\nsamples = 3\nvalue = [0, 3]"] ;
1208 -> 1209 ;
1210 [label="Crime <= 0.5\ngini = 0.488\nsamples = 26\nvalue = [15, 11]"] ;
1208 -> 1210 ;
1211 [label="Action <= 0.5\ngini = 0.499\nsamples = 21\nvalue = [10, 11]"] ;
1210 -> 1211 ;
1212 [label="Music <= 0.5\ngini = 0.488\nsamples = 19\nvalue = [8, 11]"] ;
1211 -> 1212 ;
1213 [label="annee <= 2011.5\ngini = 0.457\nsamples = 17\nvalue = [6, 11]"] ;
1212 -> 1213 ;
1214 [label="gini = 0.0\nsamples = 5\nvalue = [0, 5]"] ;
1213 -> 1214 ;
1215 [label="Romance <= 0.5\ngini = 0.5\nsamples = 12\nvalue = [6, 6]"] ;
1213 -> 1215 ;
1216 [label="Fantasy <= 0.5\ngini = 0.444\nsamples = 9\nvalue = [3, 6]"] ;
1215 -> 1216 ;
1217 [label="Duree <= 112.5\ngini = 0.375\nsamples = 8\nvalue = [2, 6]"] ;
1216 -> 1217 ;
1218 [label="Duree <= 109.5\ngini = 0.5\nsamples = 4\nvalue = [2, 2]"] ;
1217 -> 1218 ;
1219 [label="gini = 0.444\nsamples = 3\nvalue = [1, 2]"] ;
1218 -> 1219 ;
1220 [label="gini = 0.0\nsamples = 1\nvalue = [1, 0]"] ;
1218 -> 1220 ;
1221 [label="gini = 0.0\nsamples = 4\nvalue = [0, 4]"] ;
1217 -> 1221 ;
1222 [label="gini = 0.0\nsamples = 1\nvalue = [1, 0]"] ;
1216 -> 1222 ;
1223 [label="gini = 0.0\nsamples = 3\nvalue = [3, 0]"] ;
1215 -> 1223 ;
1224 [label="gini = 0.0\nsamples = 2\nvalue = [2, 0]"] ;
1212 -> 1224 ;
1225 [label="gini = 0.0\nsamples = 2\nvalue = [2, 0]"] ;
1211 -> 1225 ;
1226 [label="gini = 0.0\nsamples = 5\nvalue = [5, 0]"] ;
1210 -> 1226 ;
1227 [label="budget <= 14345000.0\ngini = 0.355\nsamples = 13\nvalue = [3, 10]"] ;
1207 -> 1227 ;
1228 [label="Romance <= 0.5\ngini = 0.5\nsamples = 6\nvalue = [3, 3]"] ;
1227 -> 1228 ;
1229 [label="History <= 0.5\ngini = 0.375\nsamples = 4\nvalue = [3, 1]"] ;
1228 -> 1229 ;
1230 [label="gini = 0.0\nsamples = 3\nvalue = [3, 0]"] ;
1229 -> 1230 ;
1231 [label="gini = 0.0\nsamples = 1\nvalue = [0, 1]"] ;
1229 -> 1231 ;
1232 [label="gini = 0.0\nsamples = 2\nvalue = [0, 2]"] ;
1228 -> 1232 ;
1233 [label="gini = 0.0\nsamples = 7\nvalue = [0, 7]"] ;
1227 -> 1233 ;
1234 [label="Duree <= 115.5\ngini = 0.481\nsamples = 1156\nvalue = [465, 691]"] ;
850 -> 1234 ;
1235 [label="Biography <= 0.5\ngini = 0.486\nsamples = 540\nvalue = [315, 225]"] ;
1234 -> 1235 ;
1236 [label="Thriller <= 0.5\ngini = 0.477\nsamples = 512\nvalue = [311, 201]"] ;
1235 -> 1236 ;
1237 [label="Duree <= 107.5\ngini = 0.499\nsamples = 284\nvalue = [149, 135]"] ;
1236 -> 1237 ;
1238 [label="Animation <= 0.5\ngini = 0.481\nsamples = 189\nvalue = [113, 76]"] ;
1237 -> 1238 ;
1239 [label="budget <= 32500000.0\ngini = 0.464\nsamples = 172\nvalue = [109, 63]"] ;
1238 -> 1239 ;
1240 [label="annee <= 1996.5\ngini = 0.495\nsamples = 116\nvalue = [64, 52]"] ;
1239 -> 1240 ;
1241 [label="Music <= 0.5\ngini = 0.444\nsamples = 27\nvalue = [9, 18]"] ;
1240 -> 1241 ;
1242 [label="Sci-Fi <= 0.5\ngini = 0.403\nsamples = 25\nvalue = [7, 18]"] ;
1241 -> 1242 ;
1243 [label="budget <= 26000000.0\ngini = 0.375\nsamples = 24\nvalue = [6, 18]"] ;
1242 -> 1243 ;
1244 [label="annee <= 1988.5\ngini = 0.432\nsamples = 19\nvalue = [6, 13]"] ;
1243 -> 1244 ;
1245 [label="Duree <= 101.5\ngini = 0.375\nsamples = 4\nvalue = [3, 1]"] ;
1244 -> 1245 ;
1246 [label="gini = 0.0\nsamples = 2\nvalue = [2, 0]"] ;
1245 -> 1246 ;
1247 [label="Duree <= 103.0\ngini = 0.5\nsamples = 2\nvalue = [1, 1]"] ;
1245 -> 1247 ;
1248 [label="gini = 0.0\nsamples = 1\nvalue = [0, 1]"] ;
1247 -> 1248 ;
